<?xml version="1.0"?>
<opencv_storage>
<my_nn type_id="opencv-ml-ann-mlp">
  <layer_sizes type_id="opencv-matrix">
    <rows>1</rows>
    <cols>3</cols>
    <dt>i</dt>
    <data>
      200 30 34</data></layer_sizes>
  <activation_function>SIGMOID_SYM</activation_function>
  <f_param1>1.</f_param1>
  <f_param2>1.</f_param2>
  <min_val>-9.4999999999999996e-001</min_val>
  <max_val>9.4999999999999996e-001</max_val>
  <min_val1>-9.7999999999999998e-001</min_val1>
  <max_val1>9.7999999999999998e-001</max_val1>
  <training_params>
    <train_method>BACKPROP</train_method>
    <dw_scale>1.0000000000000001e-001</dw_scale>
    <moment_scale>1.0000000000000001e-001</moment_scale>
    <term_criteria><epsilon>1.0000000474974513e-003</epsilon>
      <iterations>1000</iterations></term_criteria></training_params>
  <input_scale>
    2.2931569561161682e+000 -5.8564870852718065e-001
    2.0007221552557044e+000 -9.7348570539307400e-001
    2.0039412251095468e+000 -1.0647807106552218e+000
    2.0172102925156699e+000 -1.1400750707949259e+000
    2.0227584426876004e+000 -1.1626667930937351e+000
    2.0242194799582864e+000 -1.1682062670406033e+000
    2.0205587403148684e+000 -1.1540305641201338e+000
    2.0068557134323770e+000 -1.0862980180171276e+000
    2.0021906685996940e+000 -1.0479127280432230e+000
    2.0002641822107359e+000 -1.0163863108281419e+000
    2.0000317931504648e+000 -9.9437733264761086e-001
    2.0009935645979127e+000 -1.0320215565339150e+000
    2.0045488029115206e+000 -1.0697575535272426e+000
    2.0132237390401970e+000 -1.1217963123010053e+000
    2.0403998975694528e+000 -1.2222096898873738e+000
    2.0814150984619393e+000 -1.3289300379897953e+000
    2.0966843375519644e+000 -1.3630186738314596e+000
    2.0441152445931294e+000 -1.2332489651459047e+000
    2.0065276984398803e+000 -1.0841239206496069e+000
    2.1389617948188118e+000 -6.9028518287187524e-001
    2.0014564488673168e+000 -1.0388986210538476e+000
    2.1852990447290312e+000 -1.5329709716755890e+000
    2.4468856232146043e+000 -1.9282919538168823e+000
    2.3499645978534307e+000 -1.7918967198889013e+000
    2.2931569561161682e+000 -1.7075082475889878e+000
    2.2170280370669082e+000 -1.5868479283550210e+000
    2.2108538428270932e+000 -1.5765624418169983e+000
    2.2233316235144449e+000 -1.5972591364949544e+000
    2.2380020889757559e+000 -1.6211597221635325e+000
    2.2438949535221377e+000 -1.6306380906026545e+000
    2.2405144879851489e+000 -1.6252090166578843e+000
    2.2473107435527631e+000 -1.6361018514422272e+000
    2.2863713318059369e+000 -1.6971472771415215e+000
    2.3591029320255341e+000 -1.8051245320672993e+000
    2.6060865585787050e+000 -2.1384604132416967e+000
    3.1413920350584505e+000 -2.7819292648776326e+000
    3.3506908926846490e+000 -3.0195114943363821e+000
    3.1295809292918255e+000 -2.7683556678014258e+000
    2.4118070631521129e+000 -1.8798496180455939e+000
    2.0281974962856784e+000 -1.1826106794262761e+000
    2.0016663955841256e+000 -1.0416632088462663e+000
    2.3964630032901484e+000 -1.8583517418548481e+000
    2.4440942224320183e+000 -1.9244708736496225e+000
    2.2560073494999373e+000 -1.6499158227686108e+000
    2.1832148886620177e+000 -1.5293365986249359e+000
    2.1389617948188122e+000 -1.4486766119469370e+000
    2.1677670121022112e+000 -1.5019785367434557e+000
    2.2355091838758203e+000 -1.6171295290325585e+000
    2.3030705781611638e+000 -1.7225287408800745e+000
    2.3237037353326802e+000 -1.7533751236755712e+000
    2.2568895290761821e+000 -1.6513095526175978e+000
    2.1453853258097650e+000 -1.4608544191998167e+000
    2.1202678443885521e+000 -1.4121054167602696e+000
    2.1310555217387352e+000 -1.4334264006919255e+000
    2.1832148886620177e+000 -1.5293365986249359e+000
    2.3060961350873312e+000 -1.7270862597105121e+000
    2.5000000000000004e+000 -2.0000000000000004e+000
    2.6800857641166997e+000 -2.2320714274285351e+000
    2.5785209024861695e+000 -2.1030125702200633e+000
    2.0175670648695845e+000 -1.1416150622446140e+000
    2.0012139456204867e+000 -1.0354539818135851e+000
    2.1581823115221850e+000 -1.4846003695180803e+000
    2.0962261739496015e+000 -1.3620255637702385e+000
    2.0044593143431828e+000 -9.3541434669348533e-001
    2.0814150984619397e+000 -7.5248506047214414e-001
    2.1046762729036783e+000 -7.2459501534793302e-001
    2.0608074253364106e+000 -7.8194484065832626e-001
    2.0065276984398803e+000 -9.2240377779027327e-001
    2.0310284531479188e+000 -1.1923450620470368e+000
    2.0661864128303082e+000 -1.2924801242447632e+000
    2.0148189414317756e+000 -1.1293678311839803e+000
    2.0168573193830981e+000 -8.7831962200663605e-001
    2.0962261739496015e+000 -7.3420061017936300e-001
    2.1507827056853492e+000 -6.7983280879540220e-001
    2.1401157136132487e+000 -6.8923792965786546e-001
    2.1130601921644097e+000 -7.1556698381421635e-001
    2.0266124507246377e+000 -8.4963122312303219e-001
    2.0255099724597838e+000 -1.1729818944990986e+000
    2.0432419795500900e+000 -1.2306890331220441e+000
    2.0000925233819378e+000 -9.9042724292180206e-001
    2.0303071733685236e+000 -1.1899014180239407e+000
    2.0999284390927637e+000 -1.3700030645756107e+000
    2.0000925233819378e+000 -1.0096652804601356e+000
    2.2481702562285655e+000 -6.1069699497552066e-001
    2.2704021322854473e+000 -5.9791021327848926e-001
    2.1395379821265115e+000 -6.8976149871541270e-001
    2.0882015226502224e+000 -7.4385686080475577e-001
    2.0188457730357667e+000 -8.7181996566917686e-001
    2.0441152445931294e+000 -1.2332489651459047e+000
    2.0851928861922917e+000 -1.3375665147250058e+000
    2.0064201729810409e+000 -1.0834003454769932e+000
    2.1013386963806457e+000 -7.2832468912695680e-001
    2.4040707956067058e+000 -5.3503532466072956e-001
    2.4249939810226047e+000 -5.2682290466660231e-001
    2.3237037353326802e+000 -5.7032861165710891e-001
    2.2722441518159764e+000 -5.9688801599942065e-001
    2.2631296024421839e+000 -6.0199998048379144e-001
    2.0279680809682481e+000 -8.4616379630449623e-001
    2.0149836202622935e+000 -1.1301284583295317e+000
    2.0027171210948311e+000 -1.0535022733188730e+000
    2.0355476719238697e+000 -1.2071506591707726e+000
    2.1299502037898095e+000 -1.4312700208551092e+000
    2.0093812058682179e+000 -1.1016607407297394e+000
    2.1277574343152255e+000 -7.0078379179934291e-001
    2.1613353040123822e+000 -6.7098170632026188e-001
    2.1150911987241861e+000 -7.1344867300248660e-001
    2.0835013820780346e+000 -7.4978407945428449e-001
    2.0066361300427511e+000 -9.2178807300471322e-001
    2.0908299589919612e+000 -1.3501976551102317e+000
    2.1569326999490426e+000 -1.4823099682568546e+000
    2.0320042781935279e+000 -1.1956137942007690e+000
    2.0401214787343931e+000 -8.1875522032126558e-001
    2.2209524441413304e+000 -6.2761243197625660e-001
    2.2405144879851489e+000 -6.1530547132726476e-001
    2.1988831673524629e+000 -6.4252605984660693e-001
    2.1895165023956618e+000 -6.4922976886955952e-001
    2.1575566818936616e+000 -6.7410228668120364e-001
    2.0078888108729407e+000 -9.1503788595005664e-001
    2.0199791064413439e+000 -1.1516895800904379e+000
    2.0041103348585163e+000 -1.0661999924089751e+000
    2.0009521410956488e+000 -1.0313365264552699e+000
    2.2063065203045702e+000 -1.5689290811054721e+000
    2.2025707681748226e+000 -1.5626198584165658e+000
    2.0029292327005752e+000 -1.0556068161728736e+000
    2.0240078300748183e+000 -8.5659502194874571e-001
    2.0441152445931294e+000 -8.1086627944722478e-001
    2.0259480035119433e+000 -8.5136853082906538e-001
    2.0004094665156984e+000 -1.0204410479274109e+000
    2.1100556268758739e+000 -1.3913069937742080e+000
    2.2241288047077816e+000 -1.5985695256390589e+000
    2.1378140398028731e+000 -1.4464811413591581e+000
    2.0037756983929027e+000 -1.0633635547027014e+000
    2.0277396606776712e+000 -8.4674103906905074e-001
    2.0477045398167033e+000 -8.0414002492304359e-001
    2.0387450751581184e+000 -8.2158383625774922e-001
    2.0266124507246377e+000 -8.4963122312303219e-001
    2.0003090848885874e+000 -1.0177360319134636e+000
    2.0684111599710744e+000 -1.2979880313981005e+000
    2.0604580165988349e+000 -1.2779623519203387e+000
    2.0006525583163746e+000 -9.7477897451633633e-001
    2.0069668661044848e+000 -9.1994302121273563e-001
    2.3625813319070432e+000 -1.8101369408641026e+000
    2.3755819184533351e+000 -1.8287647206401960e+000
    2.1777361493050029e+000 -1.5197203509577863e+000
    2.1080803006275182e+000 -1.3872077334809274e+000
    2.0300687582040116e+000 -1.1890883671602932e+000
    2.0144924028673925e+000 -1.1278484829320592e+000
    2.0435320047369818e+000 -1.2315415099857698e+000
    2.2338579991853664e+000 -1.6144532604394406e+000
    2.3696240614351964e+000 -1.8202485327641509e+000
    2.3122199112690800e+000 -1.7362739234206290e+000
    2.1085720650897488e+000 -1.3882306962531181e+000
    2.0495574349387056e+000 -1.2487684935265015e+000
    2.0501837691693843e+000 -1.2505101000008285e+000
    2.0733772887659754e+000 -1.3100443565834770e+000
    2.1085720650897488e+000 -1.3882306962531181e+000
    2.1710466866026579e+000 -1.5078513305956769e+000
    2.3510960809802328e+000 -1.7935392989235606e+000
    2.3743838067844298e+000 -1.8270548695654651e+000
    2.0014061773153125e+000 -9.6319746709270926e-001
    2.0240078300748183e+000 -8.5659502194874571e-001
    2.0636439126899817e+000 -1.2860984782568741e+000
    2.2613350843332269e+000 -1.6583123951776997e+000
    2.1507827056853492e+000 -1.4709498968899470e+000
    2.0873355812735466e+000 -1.3424025512734350e+000
    2.0154833031008859e+000 -1.1324141676460699e+000
    2.0000581969191895e+000 -9.9240035243486147e-001
    2.0005239552370639e+000 -9.7737040997154068e-001
    2.0114326502521669e+000 -1.1127925905872684e+000
    2.0444084618526364e+000 -1.2341039471216577e+000
    2.0347715209446053e+000 -1.2046657263303882e+000
    2.0277396606776712e+000 -1.1809986216086203e+000
    2.0458905737841162e+000 -1.2383914750102860e+000
    2.0895099847442928e+000 -1.3472661394172156e+000
    2.1234426919532958e+000 -1.4184456323694652e+000
    2.1569326999490426e+000 -1.4823099682568546e+000
    2.1974214751452630e+000 -1.5538648706499838e+000
    2.3649161064616688e+000 -1.8134945400130607e+000
    2.1299502037898095e+000 -1.4312700208551092e+000
    2.0086185454976828e+000 -9.1137319079297852e-001
    2.3852863030808424e+000 -5.4272185867776379e-001
    2.0908299589919612e+000 -7.4063230388172951e-001
    2.0869045141346310e+000 -7.4547136375555478e-001
    2.0467927091079425e+000 -8.0581855579141881e-001
    2.0305465935617319e+000 -8.3983137717130341e-001
    2.0473995167223498e+000 -8.0469931254261506e-001
    2.1008672749176136e+000 -7.2885809935781887e-001
    2.1839077987936717e+000 -6.5336147081654783e-001
    2.2297673336311532e+000 -6.2196826785532333e-001
    2.2170280370669078e+000 -6.3018010871188723e-001
    2.1909370127366570e+000 -6.4819761703519008e-001
    2.1100556268758739e+000 -7.1874863310166592e-001
    2.0543619750214046e+000 -7.9244543182417693e-001
    2.0129159196298887e+000 -8.9262639620071682e-001
    2.0012606757527354e+000 -9.6511874711259615e-001
    2.0056928308855637e+000 -9.2734189262171662e-001
    2.0268359103867999e+000 -8.4905265499785354e-001
    2.0691621373074205e+000 -7.6933026730401932e-001
    2.0444084618526364e+000 -8.1030451473097864e-001
    2.3122199112690804e+000 -5.7594598784845086e-001</input_scale>
  <output_scale>
    5.2631578947368418e-001 4.9999999999999994e-001
    5.2631578947368418e-001 4.9999999999999994e-001
    5.2631578947368418e-001 4.9999999999999994e-001
    5.2631578947368418e-001 4.9999999999999994e-001
    5.2631578947368418e-001 4.9999999999999994e-001
    5.2631578947368418e-001 4.9999999999999994e-001
    5.2631578947368418e-001 4.9999999999999994e-001
    5.2631578947368418e-001 4.9999999999999994e-001
    5.2631578947368418e-001 4.9999999999999994e-001
    5.2631578947368418e-001 4.9999999999999994e-001
    5.2631578947368418e-001 4.9999999999999994e-001
    5.2631578947368418e-001 4.9999999999999994e-001
    5.2631578947368418e-001 4.9999999999999994e-001
    5.2631578947368418e-001 4.9999999999999994e-001
    5.2631578947368418e-001 4.9999999999999994e-001
    5.2631578947368418e-001 4.9999999999999994e-001
    5.2631578947368418e-001 4.9999999999999994e-001
    5.2631578947368418e-001 4.9999999999999994e-001
    5.2631578947368418e-001 4.9999999999999994e-001
    5.2631578947368418e-001 4.9999999999999994e-001
    5.2631578947368418e-001 4.9999999999999994e-001
    5.2631578947368418e-001 4.9999999999999994e-001
    5.2631578947368418e-001 4.9999999999999994e-001
    5.2631578947368418e-001 4.9999999999999994e-001
    5.2631578947368418e-001 4.9999999999999994e-001
    5.2631578947368418e-001 4.9999999999999994e-001
    5.2631578947368418e-001 4.9999999999999994e-001
    5.2631578947368418e-001 4.9999999999999994e-001
    5.2631578947368418e-001 4.9999999999999994e-001
    5.2631578947368418e-001 4.9999999999999994e-001
    5.2631578947368418e-001 4.9999999999999994e-001
    5.2631578947368418e-001 4.9999999999999994e-001
    5.2631578947368418e-001 4.9999999999999994e-001
    5.2631578947368418e-001 4.9999999999999994e-001</output_scale>
  <inv_output_scale>
    1.8999999999999999e+000 -9.4999999999999996e-001
    1.8999999999999999e+000 -9.4999999999999996e-001
    1.8999999999999999e+000 -9.4999999999999996e-001
    1.8999999999999999e+000 -9.4999999999999996e-001
    1.8999999999999999e+000 -9.4999999999999996e-001
    1.8999999999999999e+000 -9.4999999999999996e-001
    1.8999999999999999e+000 -9.4999999999999996e-001
    1.8999999999999999e+000 -9.4999999999999996e-001
    1.8999999999999999e+000 -9.4999999999999996e-001
    1.8999999999999999e+000 -9.4999999999999996e-001
    1.8999999999999999e+000 -9.4999999999999996e-001
    1.8999999999999999e+000 -9.4999999999999996e-001
    1.8999999999999999e+000 -9.4999999999999996e-001
    1.8999999999999999e+000 -9.4999999999999996e-001
    1.8999999999999999e+000 -9.4999999999999996e-001
    1.8999999999999999e+000 -9.4999999999999996e-001
    1.8999999999999999e+000 -9.4999999999999996e-001
    1.8999999999999999e+000 -9.4999999999999996e-001
    1.8999999999999999e+000 -9.4999999999999996e-001
    1.8999999999999999e+000 -9.4999999999999996e-001
    1.8999999999999999e+000 -9.4999999999999996e-001
    1.8999999999999999e+000 -9.4999999999999996e-001
    1.8999999999999999e+000 -9.4999999999999996e-001
    1.8999999999999999e+000 -9.4999999999999996e-001
    1.8999999999999999e+000 -9.4999999999999996e-001
    1.8999999999999999e+000 -9.4999999999999996e-001
    1.8999999999999999e+000 -9.4999999999999996e-001
    1.8999999999999999e+000 -9.4999999999999996e-001
    1.8999999999999999e+000 -9.4999999999999996e-001
    1.8999999999999999e+000 -9.4999999999999996e-001
    1.8999999999999999e+000 -9.4999999999999996e-001
    1.8999999999999999e+000 -9.4999999999999996e-001
    1.8999999999999999e+000 -9.4999999999999996e-001
    1.8999999999999999e+000 -9.4999999999999996e-001</inv_output_scale>
  <weights>
    <_>
      -1.7203843410160322e-002 -3.2181888395121566e-001
      3.0242112704225745e-002 4.4106397279663839e-001
      -8.6163715488218384e-002 2.6063953086456543e-001
      6.0465648712573948e-002 1.2071155782087797e-002
      3.1758828703032416e-001 -1.9601301900992718e-001
      -4.8705865672323156e-002 1.6141673924222449e-001
      -2.3679540601539148e-001 5.0367791640844949e-002
      -2.0633538959716727e-001 5.7824579227842621e-002
      -2.7122101466796108e-002 3.0964243806467240e-001
      5.2052905402307426e-001 -7.7703469058642144e-002
      -3.7101826327937648e-001 -1.7497660850553728e-001
      3.1315927890234024e-001 -2.7634516460139991e-001
      2.2436595939043341e-001 -2.1132854659148978e-002
      1.4378105646193262e-001 1.4317952512098131e-001
      3.1686270445206444e-001 5.9942596045096941e-002
      2.2036801255481984e+000 -3.2090525069531384e-001
      6.6684839958668196e-002 4.3205113129762801e-001
      1.5706407884919860e-001 -3.0033247157749909e-001
      4.9088237350958519e-002 -2.9469502191916741e-001
      1.6649733097820515e-001 -2.5333036326340269e-001
      3.5062100703298338e-001 -1.3958390879129076e-001
      7.6126699358399566e-003 -1.5740205773161620e-001
      4.0691825308701426e-002 1.1883298529763051e-001
      -8.6148573531202990e-002 9.5684933693107224e-002
      5.1709282992361189e-002 3.5825153860817249e-001
      -1.9022486433087318e-001 -1.4034289621697985e-001
      4.0926491126727083e-001 -3.6319650102293467e-002
      7.1657275252026073e-002 1.4764851602190943e-001
      4.0484376871703009e-001 2.3928457121939464e-001
      2.1575618541119082e-001 -6.2857512471152965e-001
      4.8807705234704268e-001 3.6346887335282421e-002
      2.4898573194802814e-001 2.8807783052476904e-001
      3.7573062285256115e-001 5.9888149609851130e-002
      -1.3963109303451143e-001 -2.9712760702043028e-001
      -1.5156259817269006e-002 -1.1342380518687162e-001
      2.5314801955405841e-001 -8.5425556712462838e-002
      3.0026307297117701e-002 1.6970144510723040e-003
      4.1285674492926763e-002 -7.0022928389226802e-002
      -1.7538181353505621e-002 -1.7228845972899301e-001
      8.1582528562255743e-002 3.4958878277455802e-001
      -1.5989425822455827e-001 -1.9600283560740315e-004
      4.3977058171999189e-001 9.0205643104373390e-003
      5.2673831385156640e-002 1.2934038071374751e-001
      4.0307682363340380e-001 4.8394549320124179e-002
      -5.1049550297027360e-002 -9.1277492157541329e-001
      1.2870861463721930e+000 -9.1216635386009284e-002
      1.0037958861794254e-003 2.0241805388980008e-001
      -1.8795427248048426e-002 8.8284996179472108e-002
      -2.8289848076854703e-002 1.3667179940543639e-001
      7.6203217885020186e-002 1.9433548865660519e-001
      -1.9031793934830496e-001 -1.5019190079191666e-001
      9.6116225644050354e-002 6.7001243655378712e-002
      1.4629630799136445e-001 9.2047437740054125e-002
      5.5363053233245633e-002 3.1714728087606087e-001
      1.8424184320930265e-002 -2.0728052421794463e-001
      -2.4903076055371752e-004 4.1922536506935804e-001
      -5.4480826018762654e-002 -1.3648189275076297e-001
      3.5752524939335520e-002 -3.5554581230139250e-002
      1.1776830726938831e-001 -3.9477276780451220e-001
      -1.4750652102143774e-001 3.3016367829434701e-001
      -1.1080773526896497e-001 -4.7656050058412648e-002
      4.6303522527786432e-002 -3.8452207580803283e-001
      1.5520813685623747e-001 2.8315205331802490e-001
      1.0094475397980728e-001 1.9046898214400587e-001
      1.4844893150068962e-002 2.2351138996893994e-002
      -4.1746689871253456e-001 7.2877153418517818e-002
      -6.7587129271059676e-003 2.4939013231221235e-001
      2.0061186241695558e-001 2.2432500839507059e-002
      8.3755849423604714e-002 1.9489032434483206e-002
      -3.7301708607726032e-002 -3.7859579712618940e-001
      1.6785367533479967e-001 1.0042880059491124e-001
      -1.9599239421464767e-001 -1.4258988613065926e-002
      -3.4891339456150625e-002 -1.1801807323063773e-001
      -1.6148298287956148e-001 -1.6388096745977218e-001
      4.5030738937592062e-003 6.9079460348985255e-001
      -1.0140917792013107e+000 1.2340678797159352e-001
      4.5438711743079879e-003 -9.2149178526432909e-002
      1.3241314427241810e-001 3.6976517487451821e-001
      2.0089554406940466e-001 9.8815851946318589e-002
      2.7347782235818432e-002 1.2314429952146494e-001
      -4.4475406353392755e-002 5.0559869730526001e-002
      -1.7426778547080954e-001 2.5631893433356095e-001
      1.1901989019311127e-001 9.2010196120874924e-002
      1.6015338472821206e-001 -5.8267372519681497e-002
      -3.3793123388654184e-001 -3.1124211258160489e-001
      2.1498831132078253e-001 1.4634802701231325e-001
      -2.5883138149518542e-001 -1.2934794863395802e-001
      -7.9375881317260852e-002 -1.0208047744299432e-001
      -3.1770719394770491e-001 1.0592710332880513e-001
      -5.4865715586355314e-002 -1.1614045607148610e-001
      -1.6004192895720013e+000 1.0369532071131862e-001
      3.6447436861433077e-003 -5.5980583867100406e-002
      -2.9865307820555898e-002 1.4970289703168183e-001
      4.1976996321652305e-001 2.7748157943596016e-002
      7.5975777503188832e-002 -1.4191048900679425e-002
      -2.8918628464347701e-001 9.5413269656324906e-002
      -9.4168468144772768e-002 1.5386495411408257e-001
      -3.2821056685030436e-002 -3.4402944550805073e-002
      1.0090368932078643e-001 -1.8358786276428920e-002
      -3.5021434508503529e-001 -2.2919933406459492e-001
      5.4678689092512001e-002 1.9739354698987807e-001
      -3.2020432300775037e-001 -1.1532533649119706e-001
      -4.4570518711512082e-002 -1.6943976112091355e-001
      -3.3523968150275146e-001 9.3571723389234834e-002
      1.7931499338732504e-001 -2.5133034542535820e-002
      -1.0915902217837718e-002 2.2307173188134851e-002
      1.1276776515533105e-001 2.2987280895225751e-001
      -2.1720385366683773e-001 -1.7548374517852805e-001
      2.2792784262630425e-001 7.4191132257058395e-002
      -1.5878834335667402e-002 2.8746022979649403e-002
      -3.7346984299264052e-001 1.2876593296597788e-001
      -9.0684709085960394e-002 3.6991450482136201e-002
      -6.6505038998946608e-002 -5.9096410468702898e-002
      3.3489660542205140e-003 1.5084602373643563e-001
      -1.1661822824413565e-001 4.1363441972967721e-002
      2.2930933182404140e-001 4.1490169324298359e-002
      -3.2834703208556643e-001 -7.6255566815365758e-002
      7.2167681080904517e-002 -1.9873837605983663e-001
      5.2304506001949518e-002 5.9246198982221707e-002
      8.9621865050340782e-002 4.7717697526045216e-001
      3.7088555600377004e-001 6.9526541696856320e-002
      1.1542029673426048e-001 4.2133496587452679e-001
      -3.0960587900755382e-001 7.6797613985137181e-002
      1.4241661253134483e-001 -7.6917870082767292e-002
      -4.8250500079977471e-002 2.6183430364183028e-002
      -3.7278995588785485e-001 -5.2093801344152875e-002
      -2.5254573600764729e-002 3.9428189848690905e-002
      -2.9468657491754002e-001 -9.3425252988103141e-002
      -2.5202856746860847e-002 1.8404998997188543e-001
      -4.6052351473063913e-002 6.4966846718120297e-001
      2.6135603182759315e-001 3.3529092221124407e-002
      1.0017465905992487e-002 -2.6041629156037912e-002
      6.2786613106717071e-002 -6.9466132788771756e-002
      4.0216060533721770e-001 7.2607835413936700e-002
      1.4678733966123708e-001 5.9657805476607861e-001
      9.4017132635720502e-001 -6.6035278982422854e-002
      1.4301694750955963e-002 4.2891476543633250e-001
      -8.2092367404000707e-002 -5.9046554949317001e-002
      2.5437182735245328e-001 -2.3668588272046162e-001
      2.2569753825638760e-002 3.6350468486527276e-001
      -2.2469237016349528e-001 4.0623909012500271e-002
      -3.4895969571831921e-002 -1.1055240785334793e-001
      -6.4967993735523433e-001 -6.6691476542421982e-002
      1.1419796435949534e-001 1.4409437756535248e-001
      7.6109380098051238e-002 6.9905951778120567e-001
      1.6636924294233255e-001 1.9421378551320348e-001
      -4.7314901053671664e-002 2.7569663027882978e-002
      -3.1993926371034390e-002 -1.2781170996811134e-001
      6.4442444632086349e-001 -5.1382183524773958e-002
      3.2119584851662392e-001 8.3400442694344412e-001
      1.6031037021679497e+000 4.0971583847878634e-001
      -2.8801255548775318e-002 1.8136548370861350e-001
      -9.8326897773180738e-002 -1.8151739571913388e-002
      -3.2440016329279203e-002 -1.5418863904779423e-001
      2.0975993879909751e-002 2.1743897955577138e-001
      2.0175429806981018e-001 -2.6877272281623916e-002
      -1.5731009301446292e-002 -4.2973280019330505e-002
      -3.3167756691166089e-001 -7.1077981923543615e-002
      1.9018605896141244e-001 2.6379454354015282e-003
      -5.7258564047252034e-002 4.5213572682550929e-001
      1.4031056959479704e-001 4.0338700639073140e-002
      4.6848679866315898e-002 1.2441777404494667e-001
      -7.5547349127405003e-002 -4.6391918609228248e-002
      2.1761260434346100e-001 1.2295230970668738e-001
      4.6605496166144934e-002 3.1072076426669198e-001
      6.6161816904648885e-001 3.1574849313104614e-001
      -1.0274109072524089e-001 -3.2114653714732089e-001
      -2.5090916125787127e-001 -3.5215048987591847e-002
      -1.1463343580682861e-001 -8.4034034879564234e-002
      -3.8556435947030177e-002 1.8490733877854809e-001
      -1.3138395755711285e-001 9.5872920063955813e-002
      2.3336280230653511e-002 2.1037821843194335e-001
      -2.4340509241232799e-001 2.3767896107487172e-002
      1.2867362033449312e-001 2.6926450710216109e-002
      1.3103366707207607e-002 1.5177864979610975e-001
      1.5921452799995908e-001 -1.2596152095254984e-001
      -5.9950967660431599e-002 1.2112992294251704e-001
      -2.5159530821216386e-001 8.5433658328883198e-003
      -1.5662293543070108e-001 2.8804727528698315e-001
      -7.5355109449807847e-002 2.0285384691842145e-001
      3.6262818136399416e-001 1.0877859783504915e-001
      -6.9785193083542946e-002 -1.8579478456781251e-001
      3.7480814830643633e-001 8.7948419159735558e-002
      -1.3291036659662031e-001 5.9862867739480997e-002
      -2.8273859187852074e-001 -2.2562782021025444e-003
      -4.3635514717368568e-001 -1.1427435821214979e-001
      4.8503642696027055e-002 -3.9851152918008725e-002
      -2.8617793731955349e-001 5.9658990833435176e-004
      3.1358208387633181e-002 -4.7683936082341498e-002
      3.8775485647849210e-002 -9.9164400085595711e-002
      -6.5595908884865745e-002 -7.2664262971222277e-002
      -6.3519211421101049e-002 4.1899775096292072e-002
      -2.4440955562259167e-001 -1.7075489521351145e-001
      -3.2961841051610713e-001 2.1671774681059428e-001
      8.8109636894267249e-002 1.3019531018970004e-001
      -3.3867202223334197e-001 5.0715498035494376e-002
      -1.3340075712973998e-001 -5.0024836092032765e-001
      1.3132157205749753e-001 8.9712737073317880e-002
      -1.3103903596695810e-001 2.7226330525695253e-001
      -2.2868248240231040e-001 -2.1507167848918504e-001
      -2.4111515187012963e-001 -2.6291142426872943e-001
      7.4314075635212487e-002 1.7821431201884821e-001
      -3.9406135384341373e-001 2.2667173870188913e-002
      -4.2146893113148065e-002 -1.9408544370403658e-001
      -6.8143481393795571e-002 -2.4215735492616311e-001
      2.2039103612428354e-001 7.9308078739740814e-002
      4.7683003227589608e-002 5.0997849315280931e-002
      -2.0008392767483899e-001 -1.7562816952187119e-001
      -5.8499355100417638e-001 3.4357317625824092e-002
      2.2028333586110779e-001 -1.3237834351376684e-001
      -1.5735242312086715e+000 -2.0445456833646783e-001
      -1.5997327159112126e-001 -6.4717589119583163e-001
      8.7571467477853202e-003 -1.4630543089231596e-001
      -8.7620985134339774e-002 1.5713860422479242e-001
      -2.6441113872472888e-001 -2.8789928822793959e-001
      -3.2924388618856737e-001 -9.4594114997786916e-002
      1.6751105086364512e-002 8.3925864960394253e-002
      -3.2905593902268782e-001 -7.9015167563352084e-002
      1.1324418246341031e-001 -8.4515605287939485e-002
      -9.0684655191974037e-002 -1.9487377332348665e-001
      2.0490163299736869e-002 2.7668582745330444e-001
      -6.0515678839614097e-002 1.2148990366442011e-001
      -3.9381817541422759e-001 -1.6934015706655411e-001
      -2.9772545245073945e-001 -5.3590711928417960e-002
      1.8448521739732043e-001 6.4940368181575420e-002
      -2.3724343665485872e+000 -3.9323039188109976e-002
      -1.1551804824376877e-001 -6.6131027343858440e-001
      -1.6386132992600852e-001 -2.6855653036143012e-001
      9.7921582744005170e-002 -1.0659811758202364e-001
      -2.2888221613044274e-001 -2.8708409406464552e-001
      -2.2954679470937978e-002 -6.8597357249929686e-002
      -1.3911475887679898e-002 1.4723200097059430e-001
      6.7229867297306248e-002 2.0810078923319875e-002
      -4.8298286073644198e-002 -2.5015771439657031e-001
      -1.2952930972756460e-001 -2.5699260977356830e-001
      -1.7855817181903485e-002 3.7001911736067278e-001
      -1.7266067905770222e-001 1.5025558261713443e-001
      -2.0905721870167099e-001 -2.7293205661377612e-003
      -2.0979232644626128e-001 -7.8197663998517634e-003
      1.6798312508642363e-001 -2.7334500392797573e-001
      -4.1586336717746780e-001 -1.7059645941020030e-001
      -1.4268807660155167e-001 -3.0578186880219227e-001
      4.7588582008270056e-002 -2.5737483384584148e-001
      -2.3690183013293328e-001 -1.1898491665937867e-001
      -2.5487608712288107e-001 -1.8165439628988644e-001
      3.8653251358087481e-001 4.5190657445675603e-002
      1.3338712487610815e-001 1.4101480866758085e-002
      3.0854102104312559e-001 -4.1855828477606910e-002
      -3.7192247793230870e-001 -7.2071896555884529e-002
      2.5519534207807687e-001 -1.5621337443581923e-001
      -1.7849439688578486e-001 -2.8338878591780858e-001
      3.2831175539658419e-002 3.6241908150662243e-002
      6.6922443205487570e-002 3.1753149916781720e-001
      -1.0956923818687082e-001 -1.5535022668279028e-001
      -2.9919656502586067e-001 -5.5996551786666504e-001
      5.3961593788897719e+000 -4.7246069799659146e-002
      2.2176597431883202e-001 5.7335484027721532e-002
      3.4243671065146038e-003 -1.5273425818133646e-001
      -1.5714545743625960e-001 -3.0811733315055507e-002
      -3.8321286033398272e-001 2.9348549183811345e-001
      7.0619435931302932e-001 -1.2411238378876704e-001
      -1.1070814358028326e-001 -1.7550105215524348e-001
      -1.4310340345469455e-002 -2.7151523451986816e-002
      -6.2896702816626113e-002 -1.4695317380963763e-001
      -6.9556100837473739e-002 8.0841543846421671e-002
      -9.8157455488656634e-002 4.1628877127638910e-003
      4.2621762053232926e-002 -3.0413665335869929e-002
      2.6792998828385389e-001 2.3113864859862043e-001
      6.6750215789603648e-002 -9.0770036992182918e-002
      -1.5115479002567828e-001 -9.3558905247067858e-001
      8.2645711355488274e+000 -6.8452621222956991e-002
      3.7124811680787451e-001 6.9877011644407960e-001
      4.1681047777321978e-001 9.6443560647398036e-002
      -2.6684927177915629e-001 2.7497329037110513e-001
      9.5280642563217288e-003 3.5320385291640631e-002
      9.6982690958303353e-001 -3.0804416033953080e-001
      5.0386627451367037e-002 -2.9564921385629528e-001
      1.3018802905901214e-001 -1.2095616090122029e-001
      -1.5982559503476784e-001 -5.3847578680474917e-001
      -2.1179349391927171e-001 -5.1255564259910305e-002
      4.9643906948187898e-002 2.1435635778749665e-001
      3.5447974112157349e-001 1.8080458563610546e-001
      2.7131203649244595e-001 1.0177871333494834e-001
      -2.0478115589965724e-002 -3.2946086546423253e-001
      -2.4100233618746758e-001 -3.2370056690249743e-001
      5.5706232030734899e+000 -3.5589316215534611e-001
      1.5987411890844236e-001 -1.1352559330542807e-003
      -1.3307133649919131e-002 -1.9874776602030003e-001
      1.8915543283208252e-002 3.8409735197526867e-001
      -4.8297254928341321e-001 2.0042767552655372e-001
      6.8752745016319994e-001 2.4872643234581743e-002
      9.1334896853701483e-002 -2.0834551882229959e-002
      -1.0185936572991820e-002 3.3421128750305756e-002
      6.3697531306089933e-002 -3.1208361222383729e-001
      1.8449752235406891e-001 -6.8079726678956648e-002
      4.2418564658832363e-002 2.2700797238351986e-001
      5.1130179602698278e-001 3.1693003271845549e-001
      9.8874935943596920e-002 2.7892236843371554e-002
      2.5297176596192089e-001 -2.2873664884360356e-001
      -5.2855451164554046e-001 -4.1354588493274858e-001
      2.7526639512058244e+000 -3.8454471436628189e-002
      -2.0027515073955626e-001 9.1891200383314064e-001
      5.7837057014442683e-001 -2.0512233628476914e-001
      -2.0081732244110941e-002 -4.0469972122121911e-001
      -3.3302964082315242e-002 3.2339848180795205e-001
      9.8899172837357413e-002 -3.5873051680025064e-001
      -1.1181633601070771e-001 -1.8213737311993244e-003
      -7.0052158910304091e-005 -9.5695103681533264e-002
      9.2095012165667858e-002 5.5341333833971024e-002
      2.1205006899826176e-001 3.4788824629141968e-001
      -2.0731945015355113e-001 3.5845407627852732e-001
      1.7380149038914924e-001 -6.8488415560965840e-002
      -6.0817025488329284e-002 9.3801375483662824e-002
      3.7495167737306839e-001 1.1340814167739306e-001
      2.7460034810562656e-001 -4.9834831262508955e-001
      1.4521384898512883e+000 -2.8493172017095636e-001
      -5.0400168790153910e-001 7.5423080452997870e-001
      -7.2809294115648603e-004 -3.5907263479930028e-002
      3.0397923747875966e-001 -2.3049826170622356e-001
      5.1410563667704967e-001 5.9712093074475892e-002
      -2.3559627081754977e-001 -3.9092578624396063e-001
      -2.2035624644172114e-001 1.4201974003259693e-001
      -9.0280914055510447e-002 -4.3749469558006029e-002
      1.6799716432830572e-001 1.0234585168031481e-001
      1.9891194878704002e-001 1.5573447202881829e-001
      -1.4732361642222699e-001 -2.2021444745343989e-002
      4.7647039236431726e-001 -1.7219630095490632e-001
      -4.8213911072711169e-002 -4.2418942065786371e-002
      8.9116852963365134e-001 2.4847893187836992e-001
      1.1192620856636452e-001 -3.8389430748898118e-001
      -1.4417848637441171e+000 -4.2125552910822672e-001
      -3.7918759436432731e-001 6.8298306010088683e-001
      2.9231289724925114e-002 7.0107191572680874e-002
      4.5796785850325794e-001 -1.8880684607198328e-001
      4.6266604405721268e-001 3.5071388314666657e-001
      5.6517990599159698e-002 -1.2697697804123370e-001
      -2.0770797806121419e-001 2.6278718534644374e-001
      5.0429812336643060e-003 9.7327356487656502e-002
      2.0748362975809917e-001 2.4094675983275726e-001
      -1.5746579446363967e-001 -2.9803051481115456e-001
      5.4411140759034341e-003 2.8063333101933879e-001
      -1.4291533480706567e-002 -2.6106064377824306e-001
      -7.1925830923752168e-002 -3.6279184509367518e-001
      4.5972330951056450e-001 1.8476989786382655e-001
      2.9250460855620664e-001 -4.9087916619983095e-002
      -1.5310658128570949e+000 -2.6660142924058150e-001
      -1.9368101571676846e-001 3.5393112692479384e-001
      2.0459067111216331e-001 4.3992660027975466e-001
      4.9920905361754397e-001 2.1600628794490867e-001
      4.2654261036359165e-001 5.2091112626787539e-001
      -6.0675583408804346e-001 -2.5592407715916382e-001
      -4.4145811961555481e-002 3.3071730557019319e-001
      -2.7250567290163064e-001 -2.3104982876756282e-002
      2.3653853056095503e-001 5.7283890245366642e-001
      -3.0383348021965739e-001 -2.2794864348883892e-001
      1.2240622361760234e-001 2.1372951561353914e-001
      -6.5936337802294243e-003 -1.0183805235852728e-001
      -3.7411793180741659e-001 -4.3914574566803771e-001
      1.7730572305966674e-001 -3.2529710932733946e-001
      6.8029885807703427e-001 5.3825117719056215e-001
      -9.8701995607215598e-001 -1.5809425502550364e-001
      -1.5860236491513824e-001 3.8327290720317747e-001
      3.2072795962016898e-001 6.1963274015791814e-001
      4.4433101342550596e-001 6.8460674587798098e-001
      5.9757014377175144e-001 5.1537608185077688e-001
      -4.7269134710160338e-001 -4.1960620143930438e-001
      1.5760108015913890e-002 4.3316072388987897e-001
      -1.2555601918899947e-001 7.3855552953846397e-003
      1.6731775721045658e-001 3.8649435588401343e-001
      -8.9693546993619588e-002 -2.1045012837271443e-001
      4.1574855828414622e-002 1.6975744504175894e-001
      -2.3201088778224098e-003 -1.6689245497626748e-001
      -3.7533829413204972e-001 -3.8141317280287435e-001
      1.7547236037042174e-001 -4.8762087928286990e-001
      8.3812274953946286e-001 6.5789241471690896e-001
      -4.7079002919677965e-001 1.7426460602567095e-001
      -3.3027966600086317e-001 4.0293707570887827e-001
      2.2153319483371317e-001 4.7856684231697111e-001
      5.4411728048832064e-001 1.6642389701881691e-001
      3.8088487249080666e-001 3.2645149143363267e-001
      -2.6266251993884177e-001 -2.2129244762563036e-001
      -4.3687485296918715e-003 5.1782410253223510e-001
      -2.6331227174670790e-001 7.9333408163242317e-002
      2.2289313251073745e-001 2.3797148685306813e-001
      -1.5799645442306429e-001 -1.8197315547884060e-003
      -1.6031780955517130e-002 4.6044403104741705e-001
      -3.4856234074069375e-002 -2.8552739046190090e-001
      -6.1685168558450576e-001 -4.5116568131484930e-001
      1.8111416508478409e-001 -9.3708486388776158e-002
      9.3828137822395430e-001 1.6160299330089090e-001
      7.8991025109181667e-001 2.7335710192606805e-001
      -4.9227937989705339e-001 4.6655548269199282e-001
      2.0322963151487805e-001 3.6012363788486557e-001
      4.4552547006882676e-001 3.7522080998655109e-002
      3.8482897378345354e-001 3.1351311553425421e-001
      -2.0576885798751349e-001 -2.0221015478189444e-001
      4.7326774697646366e-002 3.5066441081128336e-001
      -1.6763430285999520e-001 1.4901652263263077e-001
      4.3872030803483725e-001 1.3561584787653214e-001
      -3.9691500591358775e-001 4.2212181530219342e-002
      -1.3622071659866178e-001 3.9347410592651877e-001
      -1.4943992861577035e-001 -1.1451095946238615e-001
      -7.9560806983475807e-001 -4.5665395675699733e-001
      -2.1427069680737720e-002 -1.5246016283645328e-001
      7.9822823703253853e-001 -5.9014355102785694e-002
      9.5498754828590271e-001 2.5985358251630175e-001
      -4.2294922287734177e-001 4.6958658667116332e-001
      2.9102883303406113e-001 2.5818083905451056e-001
      3.6150868469685077e-001 5.1154127986262649e-002
      3.3416981226119813e-001 2.5079231978170818e-001
      -8.9852612780886840e-002 -1.4722519242758725e-001
      -5.8090570399756203e-003 3.6191598005604864e-001
      -1.5525781907763697e-001 3.1048344975180178e-002
      4.9200681660365353e-001 8.1061040776482837e-002
      -3.9702624339730946e-001 8.2382809880300178e-003
      -1.7385671023130650e-001 4.9066293660308502e-001
      -1.9249857992217484e-001 -1.3861969510244981e-001
      -8.2129168360649385e-001 -3.8886017403579282e-001
      -1.9954279599411238e-002 -2.0613119464101470e-003
      7.4226689776918287e-001 -5.5658302038080053e-002
      1.1935879692256701e+000 3.9475525024832447e-001
      -4.1201020639229902e-001 7.0816017590196889e-001
      1.7677111794854383e-001 1.8138669233779273e-001
      2.9415488312226706e-001 -5.8244726574742091e-002
      1.2009290715274419e-001 2.9760709358724402e-001
      -9.6958219182481278e-002 -3.1110650274944424e-001
      -1.6966563817179561e-002 3.1068126881616481e-001
      -2.3789293548589255e-001 -3.0542176576428366e-003
      3.7331143359145030e-001 6.7240048422859772e-002
      -4.0027425039065506e-001 1.2874735817967661e-001
      -1.2649023893368996e-001 3.5439916835414803e-001
      -1.9555487688602061e-001 -1.1110440086020805e-001
      -7.8167498336271712e-001 -3.8685537150530552e-001
      -1.5623974989993508e-002 -3.5915017379078054e-002
      4.7993212338909130e-001 7.2424525289540853e-002
      8.6147327905491600e-001 1.7989783448751157e-001
      -4.0470105522956140e-001 7.7477667896540259e-001
      7.5945519455792657e-002 -8.7295664224875627e-002
      2.7702140244826323e-001 -1.3975380510384558e-001
      3.0652260780684230e-002 3.3188844716740801e-001
      -2.6181580006540461e-001 -3.4226666319866200e-001
      7.8356313645562333e-003 1.6813649863003366e-001
      -3.9771081900257416e-001 1.3840131271556200e-002
      2.4568082191215693e-001 5.5395464126278209e-002
      -2.6640641051872926e-001 2.7288857429496122e-001
      -2.9101049594786165e-002 3.0130303833534089e-001
      -1.6542111672129145e-001 -7.8439471832934968e-002
      -7.9814525090555355e-001 -4.0971195940980543e-001
      9.2378068494100726e-002 4.4948377611035005e-002
      6.2357113006191611e-001 3.0626537487029698e-001
      1.2890059970355727e+000 4.2774037318859792e-001
      -2.0260063606177714e-001 3.5788281892624541e-001
      -8.6399410788840683e-002 -3.0725776772414781e-002
      1.6388641972526691e-001 -4.3475465250505087e-002
      -1.6901102994273218e-001 6.2793184602594587e-002
      -2.6217258930399900e-001 -1.8048854956951035e-001
      3.9964196610664277e-002 1.5872816321665906e-001
      -6.2167849364749928e-001 -4.0073361326443284e-002
      3.3831845628833851e-001 -7.5362564093113427e-002
      -8.0396535589205426e-002 5.2808530573555723e-001
      8.6990486317939431e-002 6.3980683983229170e-001
      6.6736833432111370e-002 2.7842842463423195e-002
      -3.8745398655080621e-001 -4.6114131707651163e-001
      -1.6025127341772419e-001 2.0256240296308245e-001
      4.6652128049410468e-001 6.0927205916499594e-001
      1.8879307871495634e+000 6.2716806633728595e-001
      -1.8732459844587387e-001 -3.5890461695534043e-001
      2.4731552607301005e-001 2.7484652540853866e-001
      -1.9674814612395441e-001 1.8356133046483780e-001
      -6.2167459797979940e-001 -2.9216065043493961e-001
      -3.2520074230633500e-001 -1.8318525263176902e-001
      1.7598844012773576e-001 2.0386240987921878e-001
      -4.8786150994827393e-001 2.5669917682428815e-002
      2.3779790737092138e-001 -3.6108734479070292e-001
      2.2995291150888914e-002 3.0319018314201564e-002
      1.1012700219610713e-001 4.7657390414191914e-001
      1.5233566226737721e-001 4.2486871337452804e-002
      -3.6656043208373029e-001 -3.6420627437770814e-001
      -3.8615208653043104e-001 4.2064098992576210e-001
      3.6810367739415445e-001 6.0681361189921501e-001
      2.8981201628353914e+000 7.4091311080696953e-001
      -3.9032314406234933e-002 -4.0364532661895952e-001
      1.9600238709283571e-001 1.8481998860757026e-001
      -1.9101453574158098e-001 2.6429276936779716e-001
      -6.7484689632475681e-001 -3.1851616218753770e-001
      -2.0400034219764934e-001 -1.1948379114734353e-001
      1.4628770919348305e-001 3.0287037271331813e-001
      -5.2959737791500516e-001 -2.1780009800167175e-002
      1.2067276904728258e-001 -3.7198602093023470e-001
      1.0006176957481890e-001 1.7733501672985510e-001
      1.7265115425469710e-001 4.5561398689501648e-001
      2.0448900763036465e-001 7.3781635746063390e-002
      -2.6970245111915964e-001 -3.8040088627736840e-001
      -4.9120692279667583e-001 5.1673742484702090e-001
      4.6110564228411383e-001 6.4303251183965060e-001
      3.4773797380083380e+000 7.4105158063964938e-001
      -1.9880155484627687e-001 -3.3086157520611331e-001
      2.0136136953735950e-001 -1.3269120970517400e-002
      -9.7289705147653158e-002 1.6486778411797731e-001
      -5.9403589337512075e-001 -1.8810885416936635e-001
      -2.3793060690069900e-001 -4.5709411728549343e-001
      1.8577335665949934e-001 1.9026132910627719e-001
      -5.1146997527977689e-001 6.4396698983625836e-002
      7.4542278430213646e-002 -2.9944824843309442e-001
      1.0036444868701114e-001 9.0540218840641659e-002
      2.4301963863492293e-001 3.4986605517599656e-001
      1.1624778666921103e-001 1.3391789465430126e-001
      -2.7455003810072165e-001 -3.1066713884228142e-001
      -4.2887355912371750e-001 3.6137405543674306e-001
      3.5809946983537067e-001 5.6861120428219580e-001
      1.3409268234853171e+000 4.8256866055886172e-001
      -3.3449340447548748e-001 -1.2500169211241585e-001
      -5.4236514270209465e-002 2.3339427359873714e-002
      1.8390370529522956e-001 -1.2791651395499545e-001
      -5.9737733174377561e-001 -2.6604518551929378e-002
      -1.2666327047924442e-001 -5.2302237945361785e-001
      1.5694495373666778e-001 2.0491009509314981e-001
      -3.2143116744096983e-001 7.0668862432584773e-002
      1.7754446820267888e-001 -2.6765231331194372e-001
      1.4394514132277983e-001 6.1736032552597318e-002
      2.7473343280192414e-001 3.5001127218781514e-001
      5.5884592411146877e-002 1.7144327850357414e-002
      -3.3659983675799804e-001 -4.0422302454321241e-001
      -1.0156991366366891e-001 1.6054304218295343e-001
      1.2579650716810159e-001 -1.7534530400650411e-001
      2.0887600415531842e+000 3.5867585633650506e-001
      -3.3470551481410277e-001 -1.0394341479189935e-001
      1.3976321093307778e-001 -7.1567342712339541e-002
      2.9053030432757110e-001 -1.4911003773863327e-001
      -1.3163877990513154e-001 1.1999537256034304e-001
      1.7918100988860622e-001 -4.1867336532915073e-001
      1.1435425307000366e-001 1.6236298274987629e-001
      -4.1950133439967041e-001 2.0569868285794923e-001
      1.7845280485444995e-001 -1.8700554865542415e-001
      1.6955725066716384e-001 5.0464644613518927e-001
      9.8821561759862800e-002 3.2886169414090649e-001
      -2.9523134689192758e-002 5.3325884377324287e-002
      -1.1702653353622158e-001 -2.9450103686834805e-001
      -2.8808027522196761e-001 -7.3607863637074569e-002
      8.6254255975494638e-003 -1.4577988391232355e-001
      4.2261937409060240e+000 4.6599219487064480e-001
      -2.6531879971299510e-001 -1.0124135638123413e-001
      -9.5685102071364533e-002 1.5564213392667267e-001
      -3.7488933182937370e-003 -5.8692698878796612e-003
      -2.8220320508070513e-002 1.0538165529441956e-001
      2.3649154361244021e-001 -3.5579251326930128e-001
      1.5274291465599056e-002 3.3500162874288267e-002
      -6.3467054369985815e-002 3.0732628813433821e-001
      1.4714207043975175e-001 -2.4816917429003049e-001
      2.2968936076002183e-001 -3.7569639739765230e-003
      1.8180481778493737e-001 1.5491389403842493e-001
      -6.8391400435676125e-002 -1.3364067403477878e-002
      -1.1010345368264464e-001 -1.9504471104853441e-001
      -1.1409862961893615e-001 -1.5824989421897467e-001
      -3.0880454978989880e-001 -5.8573114597055428e-002
      5.5502864480075456e+000 4.2372366635197728e-001
      -4.8820024274579760e-001 1.0244666675541328e-001
      -1.7111016838354251e-001 1.8002593777116667e-002
      -2.6653207600319873e-001 -3.8283268318473184e-003
      5.3244824720080595e-002 1.6329334955416763e-001
      1.2444625590737517e-001 -1.5548428278034182e-001
      2.5050123994388079e-002 -1.3751783196654993e-001
      5.7930046435174798e-002 3.8282119770410677e-001
      2.8794843718273744e-001 -2.5471494825256796e-001
      1.6961871962759711e-001 1.2081174668114512e-001
      5.9633993127088232e-002 9.7356150785158496e-002
      -1.8576252286934017e-001 -3.3857860199521431e-002
      -2.0825551656009415e-002 -2.8193773362642482e-001
      -1.6069130835696641e-001 -2.9725542442157177e-001
      -2.6620458816895126e-001 -2.5504353813794572e-001
      7.5045555651164699e+000 1.4415849653112728e-001
      1.0645478508497744e-001 2.1991605864406552e-001
      2.5828640055956049e-002 1.4759816358498762e-001
      -1.2950814358807999e-001 2.3465960073329545e-001
      -2.4672432418956791e-001 3.0669675798404838e-001
      9.1305801481174953e-001 -2.9308286173295517e-001
      2.1711845251147344e-001 -3.3093487232375191e-001
      1.1104799747056754e-001 -6.0268496313496511e-002
      -2.9399355614149258e-002 -3.1112521506431556e-001
      5.6321070492526389e-002 -7.4801535477824269e-002
      2.5237637998700924e-001 9.8314164645617333e-002
      1.9272803874153879e-001 2.1742621591641512e-001
      1.8215629704835848e-001 1.7648950470067856e-001
      -1.2404531739430402e-001 -1.3384624770666717e-001
      -4.1121865337687857e-001 -3.2767922439318264e-001
      6.0451901404742232e+000 1.3252550349662093e-001
      -2.9857485887372359e-001 8.6332014091497755e-001
      4.2989699782853025e-001 3.2328714509406870e-001
      5.2700101985233651e-002 8.2127146928613587e-002
      -3.5238407748088058e-001 3.9654926721739037e-001
      9.0932135649121371e-001 -1.1180094487050593e-001
      3.1262718364997361e-002 -1.2920538267899512e-002
      -4.6856294297155932e-002 1.6822667315619855e-001
      1.0812081365781527e-001 -6.6345376138202933e-002
      -2.3297651322533314e-001 -1.4008167691578349e-001
      6.1932055474866167e-002 3.2877180209415913e-001
      3.8833447302965773e-001 1.0850529241336138e-002
      2.4263116605081159e-001 1.0991447776020201e-001
      4.4097752564721343e-001 -2.5459417844936527e-001
      -1.9357271112945718e-001 -8.9255085199422479e-001
      -1.0395605208251537e+000 -9.7550348996787509e-002
      -1.4063427087765115e-001 2.0434026208295877e-001
      3.1941560816046577e-001 -3.5463687079383924e-002
      2.7691730215547378e-001 -3.0925073231766886e-001
      6.0413414548989697e-001 1.9207986794016663e-001
      1.1528707162196606e-002 -5.6294202828222367e-002
      -3.5143319049035913e-002 1.4209486690792150e-001
      -9.6576998397762515e-002 1.3777099908127080e-001
      2.6324741504269961e-001 -1.2113349177831518e-002
      -2.1580680602536870e-001 1.8485592444073565e-001
      -3.6437313268435195e-001 3.0223219647102534e-001
      1.9520878580186724e-001 1.0660102948530667e-001
      -2.6387295544743161e-001 2.8398608189673962e-004
      4.6444906529996693e-001 2.4893918586135361e-001
      -5.9892009409038043e-002 -6.7129512531836055e-001
      -2.8140174234382358e+000 -5.1897856185159841e-001
      -2.1217183470943399e-001 4.3887789800696034e-002
      -1.2851514080558549e-001 1.3937892051885161e-002
      1.7905563587059600e-001 -2.4039553620327553e-001
      3.2082038789954237e-001 8.7942872853782328e-002
      -2.2780341780256477e-001 -3.8356264877343012e-002
      -1.7967163705239392e-001 2.4125378312941481e-001
      -3.3015143718550586e-003 -5.7693480607515911e-002
      3.3292231124806650e-002 1.7846661925023399e-001
      -3.4050808513820496e-001 -1.7635500320497099e-001
      1.8487767236110311e-001 8.1596797395235177e-002
      -8.6848698224148806e-003 -1.3708280966238745e-001
      -2.1396656978950734e-001 1.1873499103482175e-002
      3.0428061456887945e-001 2.7271019179829964e-001
      3.5107972748526861e-001 3.4716057170170272e-001
      -2.8117081720397965e+000 -5.9303811592840594e-001
      -2.9945227874187103e-001 -3.1931919744134096e-001
      -7.3856399078798554e-002 -2.4507803611128944e-002
      4.5416456238233614e-002 6.9684151417526971e-002
      2.7880356859222105e-001 -8.7404356671313924e-002
      -5.6471930127841692e-002 1.5746126464878235e-001
      5.3057396000841570e-002 3.0939711497547157e-001
      8.4125333609370995e-002 -7.7266149087917943e-002
      -9.9471192075135897e-002 1.7699705772279803e-001
      -2.4547078077440254e-001 -2.7228614253955719e-001
      1.8868198263706404e-001 2.6900754192053122e-001
      -2.1202462520249550e-002 -1.0453900489928775e-001
      -2.8769458770915568e-001 9.4249040148244850e-003
      1.3207822396105351e-001 2.9709769635623794e-002
      3.7984876621311775e-001 -4.5638735278708126e-002
      -2.9371677006578594e+000 -2.3206032923579181e-001
      1.5137986435575418e-001 -1.5479260549788515e-001
      -1.8345182855194106e-001 2.3825383990738716e-001
      5.4526268699641951e-002 2.8221666385568278e-001
      1.5898985320217432e-001 2.9450123621935781e-001
      -1.3683843695995460e-001 3.1534073966115836e-002
      1.5299478371821848e-001 1.7158215458993742e-001
      -5.4314527304174468e-003 -1.4549141230611140e-001
      -7.3212335262841141e-002 1.0672768872104789e-001
      5.6695150033894706e-002 -2.0038825087251164e-001
      9.9859578784626854e-002 3.2951596326998128e-001
      6.4418572137096369e-002 -4.6592550819778318e-004
      -6.5763093696504668e-002 4.7835584429694031e-002
      -1.0171199983939341e-001 -2.9518572087234274e-001
      1.3347002696493623e-001 -5.0567477225472893e-004
      -1.2318673318871969e+000 -1.6912832523908697e-001
      -3.0779968361318265e-002 2.6231075813367609e-002
      -3.3711426552170111e-002 5.2985685442742556e-002
      -6.4363056213207009e-002 5.8696304195039806e-001
      2.5988598794694717e-001 1.6556745783100076e-002
      -2.3255881740268333e-001 -1.5065604151823053e-001
      1.4772802722691192e-001 1.4755229547023574e-001
      5.1338672708967865e-002 -2.2643767154163644e-001
      -3.0703657862073751e-002 1.6699730927539408e-001
      3.4690894386241081e-002 -1.6205920768914572e-001
      -2.7532345786479723e-001 -1.5080380112479021e-003
      -4.5970822188496985e-003 1.1523886754931734e-001
      -5.1211602227258617e-003 -1.5100887740153021e-001
      5.5214323594455404e-002 -3.3256322102713781e-001
      3.3488967595044083e-001 9.9952455581790056e-002
      -2.7518381303088901e+000 1.2403524354847381e-001
      -1.9494466775806721e-001 1.7922010734220245e-001
      -4.0482521345803747e-002 1.2687556436556285e-001
      1.3160554051861889e-002 3.6588945695913611e-001
      9.9183242596387569e-002 1.0580807994287902e-001
      2.8184211022785405e-001 1.6743416813175180e-001
      1.4942345407710270e-001 2.1845228727899130e-001
      -6.1423818313962961e-003 -8.8554277622423988e-002
      9.0089430310691609e-002 -5.3536765610209404e-002
      1.5852149932085138e-001 -4.8929453764816569e-002
      -2.3697626364706537e-001 6.0656010541483243e-002
      -9.9236797797374973e-002 1.4305489104178676e-001
      -2.6039375562318029e-001 -1.3080212605442024e-001
      3.1012670152889965e-001 -2.0335094322890065e-001
      3.1667108224558183e-001 -2.4051483417798314e-001
      -1.9086381469214919e+000 1.3930181626870755e-001
      -4.7411488971772532e-003 3.6698759875652874e-002
      7.6995030570348955e-002 1.6467130488408640e-002
      1.2473607127459604e-001 1.6845698335906603e-001
      -2.0112032978789503e-002 -2.4607967681971585e-002
      2.4623447596248710e-001 -1.2367594400489781e-002
      4.9652773045497589e-002 1.2913345732651649e-001
      2.3346277592563493e-002 -1.5727712419223092e-001
      8.1121203791989394e-002 -3.8320565191237782e-001
      1.4648907958203422e-001 -1.4973325932933973e-001
      -1.1532228769368462e-001 1.3520955696792205e-004
      -1.1084076662340225e-001 2.5481941390564489e-001
      -9.9870627875129445e-002 3.6812386398021395e-003
      1.4671781476353241e-001 -1.8372964629730273e-001
      1.0001089119802696e-001 -5.9236083272984752e-001
      4.9936659638778323e-002 -1.9949295397118072e-001
      1.7579230729254292e-001 2.8254158987071218e-002
      1.3224720265472795e-001 2.7747716661112335e-003
      8.6137651893405470e-002 5.4940302429084244e-002
      -1.6025333829517333e-001 7.0109921348559312e-002
      1.7441714607742878e-001 1.0830503284900285e-001
      -1.0587994922250504e-001 1.7571641930199075e-001
      -5.0689230866308430e-002 -1.1049016547509380e-001
      4.5405438590013461e-002 -3.5365287137015400e-001
      -8.3144685933882662e-002 -4.1378765599523977e-002
      1.4802990360492596e-001 1.8694808020200074e-001
      -2.0024058485442953e-001 2.7327950691151809e-001
      -1.7709634227431598e-001 -2.1967420682929277e-002
      -1.4563455940222794e-001 -1.0579266773467147e-002
      -5.7333590675608800e-003 -4.9305629493684117e-001
      1.6976703545989753e+000 -1.5351669270180515e-001
      8.5725294500177546e-002 4.2485432956565433e-001
      1.9411295832031425e-001 -5.1687245063267641e-002
      1.8041270722818806e-001 9.6684860497483177e-002
      -2.3141565459114882e-001 -1.2954362654464643e-001
      2.2305910661641654e-001 8.8575998408281967e-002
      2.2129037032011536e-002 3.6369240649080165e-001
      -1.8783803491259141e-001 -3.1318970484017265e-002
      4.5827659032692919e-004 -8.7711017090216420e-002
      6.5320296962164834e-002 -3.3222347373426289e-002
      6.0756729290320062e-002 1.4866920280521181e-001
      -2.3246874704731360e-001 -2.1689970689134763e-002
      -2.8966416938449491e-001 -9.3278429028690713e-002
      2.1104217910566138e-002 -2.7071800781107436e-002
      -3.2750893361089481e-002 -3.3773185287981111e-001
      2.7002779097597749e+000 -2.1982032130459217e-001
      3.7771622092082102e-001 5.0408111014678492e-001
      -1.2690407673406551e-001 -1.1037603594003392e-001
      1.2636626253598277e-001 3.5025597068756814e-001
      -3.6729827774233442e-001 -1.9785845248061468e-001
      2.7250610960647470e-001 -8.2647761897515146e-002
      9.6365392782918613e-002 2.1621163703200086e-001
      -3.2367478148459988e-001 6.5071202484643528e-002
      -4.3916541301241958e-002 -6.2919324032009727e-002
      -7.8878954884725933e-002 -2.7349167058351587e-001
      7.6448275177033009e-002 3.6315123653305825e-001
      -1.0312804693546251e-001 -4.7996195916932313e-002
      -4.3174361325431743e-001 -2.2676793496021147e-001
      -9.3891919965587795e-002 -3.3424083030816387e-001
      2.4558967238100235e-001 -2.7815129696583962e-001
      3.6685032690405253e+000 -2.2163033008256731e-002
      2.8606033102056488e-001 -9.6888241213661117e-002
      5.0448494781186112e-002 -6.4592462923664301e-002
      7.3889135966073924e-002 3.3809544319344753e-001
      -3.8597578647266934e-001 -2.1499716845704650e-001
      2.6864312038006366e-001 -3.5157715501337394e-002
      8.2083814375930094e-003 1.8213769388267750e-001
      -4.3663399140088754e-001 -2.4468582803710125e-002
      -5.7491173468396196e-002 -2.2331233754553304e-001
      -8.9367080807506549e-002 -2.1181574753578164e-001
      5.6536533410548588e-002 2.1732796325807199e-001
      -1.4887815718026342e-002 -3.8784739507378929e-002
      -2.9532746965825890e-001 -2.0289515590832724e-001
      -1.7975323108505672e-001 -1.0174773666874795e-001
      2.2761448842986706e-001 -3.5530399780337701e-001
      3.6748555332570607e+000 3.0645948137119866e-001
      1.2877719365904802e-001 -4.4794648399113512e-001
      -1.9543395602353539e-001 -1.0018659017512022e-001
      -9.7211910957513942e-002 1.0278993672458892e-001
      -3.7499667791961894e-001 -5.0702678749156160e-001
      4.1697675875647761e-001 -3.7074396775886496e-002
      -1.5282848863689230e-001 1.2228406884945657e-001
      -4.9665503871926409e-001 5.1094001151573344e-002
      -2.0887562425823600e-002 -1.5302338951991215e-001
      -2.0776203750356610e-002 -1.5102331700925412e-001
      -1.1611966799409464e-001 1.1505762217075158e-001
      1.4575684926121718e-001 -1.7173276903684156e-001
      -2.0772372634823216e-001 -2.3670264112844497e-001
      -3.7715394387688228e-001 2.9646894998272078e-001
      2.9519593588650717e-001 -4.7771241254765745e-001
      5.1325056062942362e+000 2.9133079826256947e-001
      4.8624161663382870e-001 -1.3996342744821771e-001
      -7.7525061939960629e-002 -1.3464172782190595e-001
      -1.9989690266683399e-001 3.5904361235164828e-002
      -6.5525181590851322e-001 -8.4954632038753544e-002
      1.5251457707027006e-002 6.9789478541996713e-002
      1.1679599380616483e-002 5.4225327497284488e-002
      -3.7738942323368274e-001 6.3490907556353213e-002
      -3.9374624442778706e-002 -1.1466645713661747e-001
      9.6950959613805163e-002 4.9553937561532110e-003
      6.8793844513070121e-002 2.9458747163012544e-001
      2.4253074890307164e-001 -1.1122103319286993e-001
      1.8125812851729783e-001 9.6347663739087153e-002
      -3.4571375299188140e-001 1.5820649353126981e-001
      1.4157225973696705e-001 7.5149399726166521e-002
      6.3999916336602727e+000 8.5747146281332301e-002
      1.2104697757592497e-001 -2.0267296221209707e-001
      -9.6893556347852641e-002 5.9139174732288288e-002
      -2.7842325738181423e-001 -6.0746829325223455e-002
      -4.6497940379822977e-001 -2.1420261460658485e-001
      4.2266419192073246e-002 -2.0082207287294609e-001
      5.6870277655480125e-002 6.1238507227760072e-002
      -5.1669661632875197e-001 -2.0179527245818157e-002
      -1.4191493751015374e-001 3.9700235792507775e-002
      2.0757412319266455e-001 3.8604865125521255e-002
      1.3686091479136470e-001 -5.2161337153803548e-002
      1.3878715460386978e-001 -4.6712048659234534e-002
      2.1184296088359370e-001 9.9497505550927789e-002
      8.2516667412652053e-002 -1.1043067106200322e-001
      1.3647203773569769e-002 1.8291096373244178e-001
      6.5783698408939708e+000 -2.8661830741623850e-001
      1.5887327562824091e-001 3.9437725333906687e-001
      4.9501619689159095e-002 9.0210760372527333e-003
      -1.3390728968785548e-001 1.7803815271255086e-001
      -2.4375391454124787e-001 4.5520351654376484e-002
      2.7099047004486166e-002 -2.6639292977145018e-001
      3.4026762240790317e-003 4.5820434735186821e-002
      -1.3522010272126847e-001 -8.6855582041764870e-002
      4.8202775559640879e-002 -2.9483615759990242e-002
      1.6347022105541839e-001 5.8546312252508698e-002
      2.3027624243619466e-001 -1.4482272975858690e-001
      2.3541390498897458e-001 -1.4137068535547239e-002
      1.1340847351723342e-001 2.2152027216490643e-002
      2.4644036821050783e-001 -1.5563779550767765e-001
      -2.2020761556812957e-001 4.0598823431941650e-001
      6.7572937671220394e+000 -1.7883484779413941e-001
      1.2701686792719172e-001 2.3299372432612303e-001
      -7.3184497073460947e-002 4.2153179323747729e-002
      -1.7920140262672474e-001 1.0771325063685905e-001
      -5.9574780863113797e-002 9.7669650612492526e-002
      -2.5374106730649992e-001 -1.4277853932784490e-001
      1.1448848602881104e-001 1.7814995684483470e-005
      1.1050259386892475e-001 -6.2054912812242166e-002
      5.5351656511528503e-003 -2.5190553507737573e-001
      1.9632163755398457e-001 2.6920604803058718e-001
      7.0294903538069969e-002 -1.9631094373990141e-001
      5.8316195111927538e-002 6.4751735076331807e-002
      1.7507067296529916e-001 1.1260378148798658e-001
      3.0343018171888292e-001 -2.0470622981567729e-001
      -3.5742500890485651e-001 3.5760069286243756e-001
      4.8373193163889869e+000 3.9176710114580099e-002
      -8.8603177053012475e-002 -1.1760981113430248e-001
      -2.2076675474382265e-001 5.9894700104403842e-002
      -5.2176288288166103e-002 -2.1092071214566596e-001
      -1.1322542711483088e-001 2.8136480664138722e-002
      -4.9912104266997270e-001 -2.0957858943229463e-001
      6.9306868347523781e-002 -1.4960519250390911e-001
      1.4870895900488371e-001 -1.0773820013008217e-001
      5.9309555760936238e-002 7.1111196947119315e-002
      2.5435279433507102e-001 3.4508145685966346e-001
      -2.5675918351068912e-002 -7.8703737165468454e-002
      -1.2386958032306924e-001 5.3665406986187353e-002
      3.6426332750394697e-001 2.6163699941928709e-001
      -4.1251116301879887e-002 -4.0254062142812452e-001
      -3.0541428220578409e-001 2.1487005127389286e-001
      4.5499254951337713e+000 6.0982650537279035e-003
      -1.8940467487236984e-001 -8.3223986485669574e-002
      1.3297860555037391e-001 7.2628503293845825e-003
      1.5303088767268577e-001 -1.6245046859898171e-001
      1.3853376535664003e-001 1.1550925609141754e-002
      3.0611661973563709e-001 -1.4332247179986005e-001
      -8.7764649455551749e-002 -9.1386094509801716e-002
      1.1011212459718443e-001 1.2368655208943560e-001
      1.4789183586906446e-001 -1.5751998854055099e-001
      1.1376856286539765e-001 -2.3890459767304720e-001
      1.0173332562286103e-001 -2.0565731917854688e-001
      -3.3808669841939731e-001 1.7008408089027785e-001
      8.4199189192119148e-002 4.9110036708323399e-004
      -1.1921554976457104e-001 -1.9811328527249472e-001
      -1.7412464110388540e-001 -2.5046584743360012e-001
      5.3535993470015120e+000 3.3722100814180998e-002
      -1.1285640075007247e-001 -7.8693926593054839e-002
      1.4754446396713439e-001 -9.9615749162552683e-002
      2.3688756935091512e-001 -2.1130685854133455e-001
      3.0428910405425597e-001 8.6315169775391054e-002
      6.5902299822331578e-001 1.1085555936723690e-001
      -6.6487104584694379e-004 -1.2862622091787648e-001
      -1.4133978270545977e-001 1.1487522720389344e-001
      1.4498102183546446e-001 -5.8951707832093869e-001
      1.1412630579416098e-001 -2.3027784930303200e-001
      -1.4207881039652956e-001 -3.3324924900695702e-001
      -1.9933275507358811e-001 4.0646816673120631e-002
      -8.4517959960481739e-002 5.4944785453648254e-002
      -2.6985740134654529e-001 -1.0182271902874236e-001
      -1.2392249988963454e-001 1.2106717235322687e-001
      7.4616412413851627e+000 -2.1301355286216083e-003
      2.7939023217158240e-002 4.7062727875122939e-001
      3.8417216446326902e-001 -1.1495942817075638e-001
      1.5114715053877507e-003 3.5920902220647193e-002
      5.4384451765231233e-002 1.4315820351230862e-001
      4.2304040773392265e-001 1.7508667592055049e-001
      1.1118754551957943e-001 -8.8345692498482342e-002
      -1.2703756075099970e-001 -2.4925483314098670e-001
      -6.4368237246699281e-002 1.6085044292549755e-001
      -8.1321434019019964e-002 2.7274829537863016e-001
      -3.9203325615395335e-001 2.0001267362160215e-002
      -2.0651135849126138e-002 -1.8904271622129477e-002
      -1.4483572468000633e-001 1.3492926302768701e-002
      5.2498555531966573e-001 2.8214948477725960e-001
      1.1900655544963031e-002 -3.6731298106495969e-001
      -2.3001363254341189e+000 7.6212403131034015e-002
      -8.1885676321049351e-003 -4.9158712173732577e-001
      -2.5225544941582823e-001 2.6676522469007596e-001
      -7.9332572100807297e-002 6.2190538437831774e-002
      2.3536878917580356e-001 6.7750470244710148e-002
      1.2916987805818025e-001 -1.2978973668611343e-001
      -7.8311342067440594e-003 2.4189058104325462e-001
      3.6259437975343450e-002 2.3919093116826989e-001
      -2.8627548191919587e-002 -1.7700615523771418e-001
      -3.0180577681232623e-001 -1.2476318266337799e-002
      -1.6357325454198710e-001 9.1941882128043870e-002
      -7.1404879359138654e-002 -5.1241736741968247e-001
      1.9825643174262944e-001 -1.2696050796136946e-001
      2.8908362324625608e-001 3.3868010590344183e-001
      -2.5953015635120219e-001 -2.3895107808170624e-001
      -1.3538719420501359e+000 -6.1891881694578843e-001
      -7.8937324076293350e-002 -3.4927908940840124e-001
      -3.0643959110881885e-001 2.3090026888100825e-002
      -8.1850734246983844e-002 -7.4127154128518882e-004
      -2.0841558198401069e-002 2.9437155843944529e-001
      4.0283774705043712e-001 -2.8294683343373472e-001
      -8.3882457399891794e-002 1.7085970690517449e-001
      -2.8932425773838560e-001 2.0451218692903825e-002
      -9.6640371000764516e-002 1.0279237381217748e-001
      -7.1852351889185340e-001 -1.1622281540100426e-001
      8.2948489148636038e-003 1.4941820433650244e-001
      -1.5678554356545568e-001 -2.3543987176849193e-001
      9.2210832445533547e-003 -6.2650971385398513e-003
      3.8309745128861022e-001 2.4945488271227997e-001
      -5.3213774845787640e-002 -1.6606758888802728e-001
      -3.7787925353998548e+000 -1.3706059301188516e-002
      -6.8436588466671153e-002 -2.1791815808191753e-001
      -3.0138386159179309e-001 -1.7197489642141989e-002
      8.5996813214284193e-002 8.4176906243143931e-002
      -1.4047862432174821e-001 2.0391537521772454e-001
      -1.2764242250643146e-001 -2.7876544078728804e-001
      9.5098117015420730e-002 -8.7149149511493981e-002
      1.1389547650453857e-001 -1.3750531878500555e-001
      -2.7148370436797259e-001 1.0613599856777525e-001
      -2.6654879071560067e-001 -3.9681674526236221e-002
      -3.0560756632056437e-003 2.2442089679306088e-001
      3.1331107606987880e-002 -1.3251310152974238e-001
      -5.8198975974365449e-002 3.7699576466118312e-001
      1.9524311659181234e-001 -1.7525544462930406e-002
      -8.2407704424918626e-002 -6.3391466159614507e-001
      -1.9976854333305729e+000 5.9516206218102899e-002
      -3.8674570591624247e-001 -7.3728742763964822e-002
      -5.9682635148249208e-001 4.8582642425653792e-002
      -1.4242148602314506e-001 -9.1489645587579070e-003
      -8.6715176314691528e-002 2.8987289343038147e-001
      -2.5723954781806979e-001 -2.6149309649984409e-002
      1.7070128582385813e-001 -4.1259891440391779e-002
      -1.7245158510742729e-002 -1.0412089432422923e-001
      -1.2895007973373937e-001 1.8233868759572788e-001
      -4.0515887431388820e-001 5.6299722033314466e-002
      -7.4620247563331179e-003 6.2253243199017649e-002
      -3.2096168146710159e-002 1.1555010034177655e-001
      -1.4045263292467927e-001 2.0439928386703146e-001
      9.8980290627437587e-002 -1.6906914813337068e-001
      2.4562383536450141e-001 3.5267571728749675e-003
      -5.3226995632952046e-001 -8.1895627569737936e-002
      -2.7993417500898837e-001 5.7584914846107649e-001
      8.1882879466202194e-002 1.5626194076413202e-001
      -5.0310333564377002e-002 3.5192936494764665e-001
      6.1915556438694931e-002 3.1728275705227715e-001
      -1.0282069198754291e-001 7.2815999933298972e-002
      2.7280172282896986e-001 2.1739072234619056e-001
      5.8522504449171689e-002 -1.3204388581876009e-001
      -2.1361860477510541e-001 -9.2677916638160981e-002
      -3.0965275828470284e-001 3.3059745917599481e-001
      -1.2300733148404973e-001 -2.6642599449929475e-002
      7.8854241986966805e-002 3.8262212015277780e-001
      -2.8562921880426784e-001 2.2779396687768033e-001
      -4.9848925686819770e-002 7.4711104369516501e-002
      2.4545703129446902e-001 -4.0806783947527342e-001
      -7.1173977948822398e-001 1.8657419669932010e-001
      -2.5764918355379507e-001 -9.3984660462743022e-002
      -1.1718088033533515e-001 -2.3896764635757839e-001
      -4.0272917632273059e-002 2.0149627095171482e-001
      -1.1673838591407633e-001 4.0528198983346392e-002
      -1.7379238643480957e-001 4.1644023091598904e-002
      3.7587487967737454e-001 1.1861840290216895e-001
      2.5114872648217995e-001 -3.4099051353263063e-002
      -1.5899307232007046e-001 -1.7153903798101000e-001
      -3.8683132207152714e-002 2.2929864596045443e-001
      -3.0988237349376162e-002 -2.2585166380200078e-001
      1.6152980863398633e-001 4.1889797631865905e-001
      -1.7915927242950755e-001 3.1348140971155203e-001
      -2.1356017288561344e-001 1.5740304735592317e-001
      2.1191372588816171e-001 1.4100067100503155e-001
      -1.8617972658297042e+000 -1.0437155782150490e-001
      -4.2215850724146520e-001 -2.6883754330029674e-001
      -8.5533534977174447e-002 -1.3702820978133501e-001
      2.1922064359671206e-001 1.1827510996799880e-001
      2.2721444437351915e-001 -8.7169191144617852e-002
      -1.1925146692106961e-001 2.8431507421109090e-002
      3.5809310550918355e-001 1.0300876997733170e-001
      1.0554311836112100e-001 1.0594927687794366e-001
      1.1892499451226912e-001 1.0217539740108028e-001
      -6.1991716317484562e-002 1.5809873366394209e-001
      -3.6691637172000124e-001 -1.2558831117135771e-001
      -9.8176932674935269e-002 2.0825296977295599e-001
      -1.5068669084682906e-001 1.6342769609007046e-001
      -2.3678125200516659e-001 1.5794246639828563e-001
      1.3954963076013477e-001 -4.9266400153483991e-001
      -8.6407428184322710e-001 -1.0923362912422256e-001
      -3.7141466248515220e-001 -2.3873699510095522e-001
      1.0811526437674718e-001 -4.0388052348873799e-002
      -9.5658538096118420e-003 8.1032935107366970e-003
      -2.7379792124225279e-002 -2.3680822016193756e-001
      -1.0896774952733891e-001 4.9020138268953031e-002
      1.4133640462832861e-001 1.6350410478009011e-001
      1.5578089956164265e-001 2.2459590142714900e-001
      6.9447176484401227e-002 5.0910551756813546e-003
      7.3426176089534972e-002 -2.7935999162645037e-001
      -9.5970295422284344e-002 -8.1593693235796697e-002
      -2.1669036778753376e-001 2.5839685155281811e-001
      -2.6833114865280511e-001 4.4930063933839415e-002
      -2.1939391253301174e-001 -1.8547436495384509e-001
      1.8231818399859323e-001 -3.2292752772570182e-001
      2.2916836346182623e+000 -7.2326207931316155e-001
      -2.1748235589218690e-001 -5.7606092819165240e-002
      4.8080020910726540e-001 -1.5165822206362614e-001
      -1.3769680000941739e-001 1.0381217625393536e-001
      -2.1618910387251045e-001 -3.3775609268583029e-001
      8.3343758710321014e-002 2.8162796969860898e-001
      -6.5502767890329924e-002 1.1105594445424556e-001
      4.0573067080953457e-002 -1.1764914890732275e-001
      -1.6006815260784588e-001 5.3800200688170798e-003
      2.7361776307442701e-002 -1.9512250468807976e-001
      6.9818855138102945e-002 -8.0166259670189755e-002
      -1.7737706857198915e-001 8.0844867494486994e-002
      -1.9667561549978982e-001 -1.5473393469240460e-001
      1.0645116606319921e-002 -2.7916726817611193e-001
      2.1059504440165373e-002 3.4842784266038612e-001
      3.2336193862416942e+000 -1.0021430822553254e+000
      2.8262812429424418e-002 -2.8967253264340642e-001
      1.7292762913135792e-001 -2.1772215084365173e-001
      -4.4901930720531946e-002 7.7310744309086590e-002
      -5.2546889143586725e-002 -4.3590923649643781e-001
      2.7875159218158230e-001 1.7871705373557406e-001
      -1.9466305028441044e-001 3.0530257634769686e-001
      2.3683329341577483e-001 1.4506731545703397e-001
      -1.3334212683337135e-001 -5.0499908917238501e-001
      2.4892263714714799e-001 -3.7173475094924413e-001
      -3.4574678326700476e-003 -1.0918628039111403e-001
      5.8801208661231064e-002 -2.2572183797718534e-001
      -4.0970098534679489e-001 -1.3877492769010624e-001
      6.2084285665104225e-002 -2.2540779705740863e-001
      -2.4435378993628007e-002 2.1619346169809438e-002
      3.4884838551165744e+000 4.4938151751586011e-003
      -2.1196956622857518e-002 -3.0069569788775186e-001
      3.7762526942820185e-001 -3.6814417264428695e-001
      -1.4025205457416690e-001 7.6092759889142117e-002
      5.1585416955548857e-002 -1.7702700877781086e-001
      1.7494469584953345e-001 -1.3899738608992651e-001
      -1.5690315486810041e-001 2.9955544177509436e-001
      3.6162878815079058e-001 1.3620789317596732e-001
      -5.7165763439968292e-002 -6.2037060355805818e-001
      2.4996767123166094e-001 -5.9542106295107666e-001
      2.1100512642498565e-001 4.7136484336841269e-002
      1.9710090849579101e-001 -1.3868764177978771e-001
      -2.6768983147196146e-001 -2.5901900389273724e-001
      -2.1061026819316334e-001 -3.1161007036635868e-001
      -1.4329583761508558e-001 -6.8022173159323807e-001
      3.3650910865633121e+000 4.0614607234998784e-001
      2.0269926655857357e-001 -4.4858363763528719e-001
      9.7154233449993396e-002 -8.7255908214895442e-002
      -2.2349936517798047e-001 3.5672487420701954e-004
      -1.2197852098336297e-001 -4.0104807498521000e-001
      -2.5988567170483168e-001 -3.8024730993594791e-001
      3.4568737253680329e-002 1.0415036302403602e-001
      -1.4920411393267180e-001 -3.3465302911226458e-002
      2.1911909034280773e-002 -4.1971826033007831e-001
      1.7353553441570446e-001 -6.9504139491870076e-001
      1.8125630270939169e-001 4.0939318926332990e-001
      2.1340114838585045e-001 -2.6960933795069703e-001
      4.8714452480676448e-002 -1.7372812955495986e-001
      -7.3344915663799126e-001 -1.3263723034209013e-001
      -1.2734217813251533e-001 -7.9526012780769206e-001
      5.0640562214504605e+000 3.4202193978129919e-001
      1.7733946143460966e-001 7.3832782565374455e-002
      -1.6652412840452915e-001 1.4402635960287355e-001
      -2.6308276208024378e-001 -1.7023980502206901e-001
      -1.1298984308841624e-001 -4.2237609551990041e-001
      -1.2286875511358099e-001 -2.0377813013382823e-001
      4.0429042482901488e-002 -4.3837409118204149e-002
      -2.7959600081249941e-001 -6.4507363077653354e-002
      -8.5301381647415575e-002 -3.0860808718145072e-001
      9.2007068756503468e-002 -2.8063012926597375e-001
      1.8384070278326642e-001 1.5758760670768382e-001
      4.4164086885357744e-002 -2.9725090181765701e-001
      4.8375435314970577e-001 -9.8211839077645177e-002
      -2.9287666465900136e-001 -2.6755495441189076e-001
      -1.1719828656606580e-001 1.1503918945101400e-001
      6.8896859588509560e+000 3.3512807171903036e-001
      2.5718655989540101e-001 5.1727869517716440e-001
      -7.0965168822258590e-002 -1.6033488552028543e-002
      -3.0813620140762493e-001 -8.2768902854971418e-002
      -1.2255594176836877e-001 -3.2307356382332991e-001
      -1.1766188079466768e-001 -3.5619451838452526e-001
      -9.8599571788920842e-002 -1.3311783165196692e-001
      2.6999004826380362e-003 -1.3777978891703571e-001
      -2.1106226923278695e-001 6.0511825095214127e-002
      2.2175895490911779e-001 -3.5617187534323802e-001
      1.0582329667512590e-001 7.4741875860230081e-003
      2.9848274567613958e-001 -1.6228427743925466e-002
      4.8338768227308054e-001 -1.1536148514224766e-001
      -2.3756084460613180e-001 -7.0351421190641833e-002
      -6.2496408487856613e-002 5.6803347788494829e-001
      8.7599305391606421e+000 3.1542124093821156e-001
      3.2219571399129437e-001 1.7254270606294433e-001
      -1.7826268767196066e-001 -3.5610988735824646e-003
      -1.9228594126008514e-001 8.2248135594888250e-002
      -5.3487615255581059e-002 -9.7251759226903295e-002
      -1.8144502167398918e-001 -1.4994048928756298e-001
      -3.7085386735441546e-002 -9.7725396350023572e-002
      1.8227030390423959e-001 -8.6661551291249847e-002
      -1.8412186260437466e-001 3.0262462846415317e-001
      3.7484925423362792e-001 -6.0985945032656676e-002
      9.7748825535416972e-002 -3.2944057279491762e-001
      1.5297996472612060e-001 1.9879030218096692e-002
      4.8133840476843315e-001 -1.0913854596350110e-001
      -1.1911904313794974e-002 -2.0374518415011839e-001
      -2.2069926970899856e-001 8.5692070011184418e-001
      7.0410698671069172e+000 -3.7662378829947218e-002
      5.3567880502361720e-001 3.1536978743640909e-001
      -1.0912276775835360e-001 3.2581575382923367e-001
      -7.3172687273127035e-002 2.9815736235978396e-001
      -6.1255360177492127e-002 -1.3838099755364913e-001
      -1.7086950874454829e-001 -1.6627165926624565e-001
      -6.2805865916108596e-003 -1.7322292190885691e-001
      2.4230392128480985e-001 -4.9952169493130180e-002
      -1.4184630482891300e-001 1.4035871521754076e-001
      3.4444241899960271e-001 -1.8607869373768468e-001
      -1.8541350489234232e-001 -1.2366137956508205e-001
      2.0371470249840162e-001 -9.6812840499143377e-002
      5.4940929651183390e-001 -4.4573285461498746e-002
      9.2539958606855047e-003 -2.8468512734313300e-001
      -5.0202208290247330e-001 4.1939257833884103e-001
      4.1725127127346155e+000 -2.8448463103138495e-003
      2.0489593171447254e-001 -4.1204708348329483e-001
      -2.7217011221782822e-001 1.7757892113509626e-002
      1.4303965934151944e-001 1.4541110684804626e-002
      2.3493902146489082e-001 6.9836396500058795e-002
      -3.9953835648408453e-001 3.6243018885996847e-002
      -1.0778631965753228e-001 -5.8920597099324283e-002
      -5.9688711103942694e-004 -6.9811739324465896e-002
      6.6088233498575094e-002 2.4091889024368376e-001
      1.7329854817473495e-001 -1.2900299872929435e-001
      -1.1015545245164596e-001 -1.6879027510029443e-001
      -4.2793058485344482e-002 -1.1942044245458194e-001
      3.3449432635259035e-001 9.5642207847682313e-003
      -1.8387350380716333e-001 -8.7005536354358204e-002
      -2.7499931534651340e-001 -3.7118401742710035e-002
      2.4446925527497245e+000 6.8001857769672908e-002
      1.6816444059615721e-001 -8.9620229685141495e-001
      -2.9011861593251970e-001 9.5729309518346087e-002
      2.3405628298304867e-001 -3.4111803162389126e-001
      1.4145549660970602e-001 2.8408522389272844e-001
      -3.3861882636871105e-001 -3.4449935938457954e-001
      -3.8918560380876699e-001 3.3837852412273335e-003
      1.2157823344947523e-001 8.5956687635247424e-003
      1.0517417736249214e-001 -1.3101185871578722e-002
      -1.9219427829158023e-001 -2.4896099762186036e-001
      -2.0572752079240861e-001 -8.5175973075603581e-002
      -4.8082941338068291e-001 -1.2374965224651385e-001
      1.9517407253558744e-002 1.3176939785535138e-003
      -1.3931258537770641e-001 6.6764487696832742e-002
      -3.1818324029429390e-001 -9.3905647921390709e-002
      3.3107225234422475e+000 -5.6109163198159717e-001
      -1.9793403448533503e-001 -5.6879731100929609e-001
      3.8139387174995952e-002 -7.4298033273783134e-002
      2.3988231987018618e-001 -5.9181467608449534e-001
      2.3641995063018723e-001 2.0445598679815996e-001
      7.2566750923013057e-001 -1.0958624143015001e-001
      -4.6036154154935266e-001 3.3013425095677718e-001
      -5.4028563713486466e-001 -1.8199433801765919e-001
      1.2527514960092376e-001 2.7601507265849240e-001
      -2.8162216534648415e-001 1.8687392287108184e-001
      -5.9786367930144524e-001 -3.9768125936697379e-001
      -6.4530319753894383e-001 -2.9230238069310521e-001
      -1.7412984817266208e-001 -3.0137066342435542e-001
      2.6584995883136864e-001 1.4278006885864596e-002
      2.6344958902233462e-001 -4.6867948842571422e-001
      4.2989101531147771e+000 -3.9102876154263783e-001
      5.7680911824198801e-002 -5.6490574679101549e-003
      2.0000174915659608e-001 -3.0003680709672986e-001
      1.3956758311648529e-001 -2.6017930940982786e-001
      4.5152850501082677e-002 1.6273743273518762e-001
      2.1276182216596420e-001 -9.1480540675790770e-002
      -3.6253439240681889e-001 1.6387734194972303e-001
      -2.6781488743609627e-001 3.9639283335644551e-002
      -1.2510436852760864e-001 2.3228938247607281e-001
      2.7202553298982812e-002 4.8347876786447946e-001
      -9.1129087747611504e-001 -1.7694779974632316e-001
      -5.3530256266708554e-001 -3.7145429812609598e-001
      -2.4942897040947246e-001 -2.3650105894410731e-001
      2.5266939680555999e-002 4.5986674842276157e-002
      2.2857472260996442e-001 7.1094015766366689e-002
      -6.5775346779097343e-001 -2.1893642431336136e-001
      4.3476260693176894e-002 -2.0593963712635804e-001
      -3.4055531062488964e-001 5.1128529106158971e-001
      -3.0146982403912786e-001 1.0408628414342216e-001
      6.1725081165636776e-002 -1.2963761243408709e-001
      4.8418110172880924e-001 -2.5129063126191349e-002
      -8.9645552347875343e-002 1.3118951335314991e-001
      -2.1209904630617918e-001 1.4354353682904594e-001
      -2.0854918425920480e-001 -1.4931072932324696e-001
      -3.6803855814498138e-001 -3.1474982210652758e-001
      4.3773423564584063e-001 -4.7807303565961951e-001
      -2.4167942485526883e-001 -3.8880859137698864e-001
      2.1993760446172936e-001 -1.3153248096248787e-001
      -1.4311099760165208e-001 1.3368409884907084e-001
      -2.2184121235530410e-001 -1.1990249274407366e-001
      1.7168105560904237e+000 -7.3355485692699596e-001
      2.0491355815764362e-001 -3.6249776179325671e-001
      -4.1151264024329276e-001 -1.3782908329723537e-001
      -3.5774268818888105e-001 -5.3161986332776934e-001
      -8.7697919697847914e-003 -4.3165861191287397e-001
      1.1068606962689513e+000 -8.3024299172179711e-002
      8.6684031487006027e-004 2.4001039802954590e-002
      -3.9124424438550948e-001 7.5483872837903143e-002
      -1.8695346178076364e-001 -2.7241374918126693e-001
      -8.2705522872714254e-001 5.2146206970035205e-002
      -9.3333211412168618e-002 -2.2540913824375045e-001
      -6.0703760788224571e-002 -1.9890474292126051e-001
      6.8192378114368860e-002 -2.7981594246808395e-002
      1.3629841144165178e-001 1.6280216399944664e-001
      -5.8269058791259187e-001 -4.3900419682444047e-001
      3.8260557980631908e+000 -1.0976193102360407e-001
      2.0888235972822752e-001 2.0597495861862708e-001
      -2.5311901792218788e-001 -2.0872055899124548e-001
      8.1856260085613516e-002 -3.6562555462962587e-001
      -4.6524069694445516e-002 7.2645298505156696e-003
      3.9338477200078664e-001 -8.0876451118785914e-002
      -2.4183182036065780e-002 -1.8454774683618297e-001
      -1.4328483469475620e-001 -2.9091480999270614e-001
      -1.5634693487867282e-001 -1.7364213915131151e-002
      -2.0162204059461400e-001 1.6717964835425012e-001
      -3.7487664665467449e-002 -2.7848076757516954e-001
      1.0232827958213567e-001 3.0764437814497694e-002
      2.0681585403566607e-001 -1.1574801057005893e-001
      5.3874601856198567e-001 1.4651101981750289e-001
      -5.0141813890394660e-001 -2.6402870271184032e-002
      2.7214701199334637e+000 2.5486401614274351e-001
      -2.8782531159859879e-002 3.7926041103018593e-001
      -3.5862224621679983e-003 6.9145591762156899e-002
      1.9857225673905707e-001 -2.2531030327346224e-001
      1.8221169169810444e-001 -1.8918897356775305e-001
      5.6177422499402063e-001 1.9308437880424131e-001
      1.7243365481703807e-001 -4.3371875946829863e-001
      -9.3244413848031574e-002 -3.7158600281483878e-003
      1.3492403455188257e-001 -3.8942003464407032e-001
      -2.5759934943972773e-001 1.7068752672217530e-001
      -1.8884473420472062e-001 -3.5755571365110028e-001
      1.4062958484591750e-001 3.0493896276776611e-001
      1.2887582456668401e-001 -2.2428029550044232e-001
      7.5377584921557717e-002 -2.5471573592927788e-001
      -9.4642430627627352e-002 -3.9147397025769609e-001
      1.9384020971440443e+000 4.3165884691733114e-001
      1.5958159805879429e-001 1.1501151689876762e-001
      3.2915745830947273e-002 -1.6341020522555819e-001
      2.3854659738525432e-002 1.3239353814304841e-001
      1.1665725503430319e-001 -5.1158777830950727e-002
      -4.7302994303723360e-002 1.4053400921971487e-001
      6.6006199045486402e-001 -5.5621437710566035e-001
      3.3290452808087667e-001 -5.0015938977410440e-002
      -1.4323994041413365e-001 -1.1654298509787837e-001
      -2.8269666464176135e-001 2.7122295667876828e-001
      -4.8171928277223171e-002 -5.1398977197517615e-001
      2.0284193842261283e-001 5.8509723340897213e-001
      2.0687390945274275e-001 -1.3219513110863126e-001
      -4.8365056398666434e-001 -3.2486343346274565e-001
      2.1954770632130935e-001 1.8104526263120693e-001
      2.9020875682827940e-001 2.6797399259929289e-001
      -6.0772156152645890e-002 -2.5418058124844084e-001
      6.9940469109572570e-003 -2.4811006158476268e-001
      -6.3759667757512821e-003 3.4548308206500189e-001
      4.8932806585562635e-002 -3.0184104661313849e-001
      -2.2676713214711214e-001 3.6726779351748301e-001
      1.0077209545862018e+000 -7.3053815326745486e-001
      4.1240688906879375e-001 1.4639226768266483e-001
      1.0589701667323204e-001 -2.6880255911664254e-003
      -4.3586805661477207e-001 3.5981213238841930e-001
      1.4762651322633014e-002 -6.4748295565136404e-001
      3.2787129876500998e-001 8.8828368205096153e-001
      3.2601871489118289e-001 1.7744821044241524e-001
      -5.6784637991697628e-001 -2.9743785082320029e-001
      -1.1851172682746407e-001 2.0986982512199656e-001
      -8.7559768249891770e-002 -1.0120697319481632e-001
      -1.1664902439405304e-001 -5.8983118010655401e-002
      1.4450600325331373e-001 -3.4976990109412737e-001
      -5.2441263180378048e-002 2.4781004860072617e-001
      -4.2226062030709319e-002 -3.7898673074509220e-001
      -3.0412318032309371e-001 4.9530021177873806e-001
      7.4898191867293229e-001 -5.0418201965716769e-001
      2.5302091855311826e-001 2.1565867269488734e-001
      7.8500811906733026e-002 2.5360722699308708e-001
      -3.1980891640363951e-001 4.8130864838596110e-001
      1.7305261631464567e-002 -4.2676985476960655e-001
      2.9625893629924643e-001 7.8023726647190805e-001
      9.7774553951246568e-002 3.7873153384133890e-001
      -5.7852223901199207e-001 -6.0185646740601693e-002
      -4.4103996109801834e-002 -3.2259821991492410e-002
      5.0943744635108013e-001 -2.2054798295529840e-001
      -8.4004114945533989e-002 1.0403159633804131e-001
      1.1966328851066529e-001 -2.4618483788904433e-001
      1.0413053667253334e-001 1.2014885863920634e-001
      9.6265979714430776e-003 -2.5769833335872327e-001
      2.2036730517396244e-001 5.3985048543592384e-001
      3.5192234629832803e-001 -4.4325784514803268e-001
      1.7952169874389037e-001 1.9530841496926266e-001
      1.0293830247421910e-001 3.8454893563156500e-001
      -3.0211575471234919e-001 5.0994791412764562e-001
      9.8109928614640268e-002 -2.3039876414526686e-001
      2.6034576627316053e-001 6.0482288942925133e-001
      -2.1665590676966109e-001 1.5917287348282938e-001
      -4.2959245407225638e-001 -2.6251607482583889e-001
      1.5063171969123137e-001 1.8828615571607585e-001
      2.7897393399489112e+000 -4.5536681298686338e-001
      -3.2618236098340768e-002 1.0341111358269890e-002
      8.5626354590013810e-003 1.6306632282854380e-002
      -1.6104543152898174e-001 -3.3198454272154676e-002
      1.7680580590198516e-002 -3.3349802997906658e-001
      1.8345275749623036e-001 7.8454870823930867e-001
      3.0888258171847599e-001 -4.0821720496816327e-001
      -9.7952754949893805e-002 4.5474012929995172e-002
      1.3796608928868942e-001 3.2322330387695575e-001
      -3.9405911301149266e-001 1.0888002197777172e-002
      1.4068227069860578e-001 -3.5376852678938780e-001
      5.9481949525545591e-004 4.1343085231403504e-001
      -2.2061326075767387e-001 1.7938174898985018e-001
      -4.6527749469153151e-001 -4.4788452189112948e-001
      1.3795190140528435e-001 4.0481565629565189e-002
      2.2588869390559267e+000 -4.6447547923781785e-001
      2.4199052651106734e-001 3.0231932372095127e-001
      1.6280749423509674e-001 8.9500723471396232e-002
      -1.2622629536502492e-001 2.5407125089996230e-001
      1.4634964433023162e-001 -2.6491723137395334e-001
      2.1710051373821723e-001 6.2817191719354670e-001
      3.9793753686621242e-001 -2.3255818269848315e-002
      2.3995603066995441e-001 8.2590826553573082e-002
      7.1397499719870430e-002 -1.0843105745367430e-001
      -9.5583281585263025e-002 -4.7612836417787703e-005
      -2.6784069334389827e-003 -2.8910649002101590e-001
      1.4128492660840442e-001 1.8634701098827314e-001
      -4.4583722989529456e-001 -6.7953720361865000e-003
      -5.4216703625949858e-001 -2.2454791888019174e-001
      1.9704656803579779e-001 4.4243846114111210e-002
      1.0632350636258470e+000 1.2705753378700949e-001
      7.0506265184787656e-002 -6.5087524439106065e-002
      -1.1294915876851823e-001 3.2083446810838684e-001
      -1.6098189099958074e-001 2.9411324191327876e-001
      3.1335735966156419e-001 -3.0513709979333775e-001
      -2.0634277080182703e-001 3.5859734821685030e-002
      7.9354167679780332e-002 1.4033962402020997e-001
      1.9087395283290470e-001 -5.7947831087522404e-002
      2.7769734681276620e-001 -2.4710338758460179e-001
      1.0919914550061045e-001 -5.7303605170266170e-001
      1.1085431772555141e-002 -4.9755512438780722e-002
      9.4188900405738560e-002 -2.6413648084539326e-001
      -3.3489138961435627e-001 -2.7725550128246063e-001
      -5.0426842944208572e-001 -9.7033950305300737e-002
      2.6259838386404909e-002 -6.8511462152881630e-001
      1.0453395815767503e+000 4.3109321101882883e-002
      2.3079217071146013e-001 -2.8352470796175429e-002
      9.4970346868308103e-002 1.5878207968150318e-001
      -1.7578105790232895e-001 4.7628931957164368e-003
      3.3613003797974034e-001 -1.9340980838209956e-001
      -2.2953990629364790e-001 -8.3190799681191696e-002
      2.4659250649010828e-001 1.6034975395124879e-001
      1.5350150366204929e-001 9.9260927840352092e-002
      -7.9194125545799354e-002 -8.4344377228901521e-002
      3.5021053553337544e-001 -3.6335268853192143e-001
      -5.0216748518169499e-002 -2.9691353057299291e-001
      5.9414414322748112e-002 -1.6481078992939913e-001
      -5.5704092025844393e-002 1.7370805495875255e-001
      -8.2093964580745429e-002 -1.1231869431189898e-001
      1.0687876743830199e-001 -3.6066250964209214e-002
      3.8706435685311509e+000 -2.0594896145837571e-001
      2.8292189784238347e-001 -3.9068387626887224e-001
      -2.3598533142768563e-001 1.3734417865419066e-001
      8.8884155056584927e-003 -4.1418773921436348e-003
      6.3721520823535172e-001 -2.5728459967960894e-002
      1.1547353526175624e-001 -1.5190833205686799e-001
      7.0642610505588677e-002 3.0648611497325538e-002
      1.4612384770844669e-001 2.8349156075542864e-002
      4.0388279858085366e-002 1.5025614658757794e-001
      1.7846701394882511e-001 6.4536062256840818e-002
      -8.7467226283411775e-002 -4.1577223889105069e-001
      4.3208959285022908e-001 -1.0653072976636047e-001
      2.5615559635593577e-001 8.6775929417978875e-002
      1.4518759539352016e-001 -4.4165994813400578e-001
      1.3059375155204686e-001 8.0685855821668484e-002
      3.8721459842460138e+000 -1.0745465923237928e-001
      2.9421168177919599e-001 -6.4488800807449387e-001
      -1.7988039271715531e-001 -6.6639849038105645e-002
      -1.6110510003433101e-001 5.2615187402872181e-002
      3.7630667173560584e-001 -1.1649653407653102e-001
      5.7884402420710218e-002 -1.1324345558259130e-001
      5.1353208179227693e-002 -9.8136662289951229e-002
      1.9412033653813773e-001 -1.7394365124032710e-001
      -2.2066005529078772e-001 8.4105993635208348e-002
      2.7047688987654978e-001 2.7349031850986003e-002
      2.0486547244239772e-001 -6.9470355875585310e-001
      2.5181168693870454e-001 -9.9529755432075651e-003
      1.8509884335119828e-001 3.4829204979489596e-002
      -1.9780877461119295e-001 -4.1063563935761765e-001
      1.1673130418806424e-001 3.6715388798554871e-001
      1.6550913524204074e+000 -3.1992610995649207e-001
      5.3707728190858472e-001 -5.2521679760985140e-001
      -2.3786001762911552e-001 -2.1126231926113517e-001
      -1.7469815387504628e-001 1.6166889556732092e-001
      3.3480235771502651e-002 -2.9466654100168155e-001
      9.2672361828180783e-002 3.4487694413515277e-002
      6.6575888588772053e-003 -2.0995255446943417e-001
      3.3957836890602819e-002 -2.6652848801757545e-001
      -5.0645021716742067e-001 -3.2584814808956297e-001
      3.8162602812301376e-002 -2.8393135106072387e-002
      1.0684414496627231e-001 -6.4752446462680713e-001
      1.5865494093661592e-001 1.0420907383899954e-002
      3.0387527881872628e-002 -1.0708305221850806e-001
      -3.6268128481480583e-001 -2.0820224445073784e-001
      2.3052754802614810e-002 5.4228892520453742e-001
      -6.4336725057158137e-002 -6.5405723713962083e-002
      6.3743683844131571e-001 -2.3400360557533845e-001
      -2.6120563152838527e-001 -2.6785895554419659e-001
      -1.8477493076700041e-001 3.2412516180631967e-001
      -2.3786503443423954e-001 -2.9929908411192119e-001
      -2.9343897807084057e-001 8.9351866302889230e-002
      1.6804968861189923e-001 -2.3102657989523104e-001
      1.0602281235305684e-001 -1.9772649673784357e-001
      -5.8200846532230266e-001 -3.4311891332977823e-001
      2.5617617782574698e-001 -1.0476539692525602e-001
      -5.6924788170277095e-002 -5.2995988371306246e-001
      1.9308827988065771e-001 3.2322382401245625e-001
      4.0689560716254979e-002 8.5281114834415722e-002
      -2.8431907418560387e-001 -2.2278972516753359e-001
      -1.2969094940039144e-001 5.9664320062977594e-001
      -9.7710024671323958e-001 -1.5716333357336082e-001
      4.9052394115989012e-001 -1.7476066725857606e-001
      -7.2908906632988713e-002 -3.2686342440808652e-001
      -1.0695858251069293e-001 4.5071780744989590e-002
      2.6000155306253342e-001 -4.2777424960083027e-001
      1.3275122130364425e-001 -9.4742333469599004e-003
      -2.5959858872345212e-002 -1.3575550591855998e-001
      -3.5640449025616056e-002 -1.2014769515968861e-001
      -4.2671956951373219e-001 -2.3110409639658200e-001
      1.5665520997272533e-001 -1.9755554088539798e-001
      -2.8249148656603201e-001 -3.6042449802394072e-001
      1.5447536107436480e-001 1.4628000688597362e-001
      5.6559676673523296e-002 -9.3061996735176497e-002
      2.0714953896874073e-002 3.8930165804884793e-002
      -3.6564185136043530e-002 -1.7017270507865392e-001
      -9.4512962392024458e-001 -3.6753227843096553e-001
      3.6596465819391757e-002 -2.1271729060392784e-002
      -8.6494877917701773e-002 -8.7967872514618656e-002
      1.0860796705823959e-001 -1.7513622254207895e-001
      2.0260767090898865e-001 8.8194447581004948e-002
      4.6552049471835460e-001 -8.8363433682778336e-003
      -4.3758917925627999e-001 1.7205770403107157e-002
      -1.2194211769051734e-001 -3.1012768564431992e-001
      -1.3317152103056784e-001 7.2777726196224246e-003
      3.6267571131189051e-002 -3.7169474833924221e-001
      -3.4667860128258288e-001 1.4722984411479992e-001
      -2.8701579946724781e-001 -2.4454792174062800e-001
      -1.6701745186975042e-001 -2.9540966643837790e-001
      3.1622130635027151e-001 9.2718161894819497e-003
      -1.1377315473606535e-001 -3.1619385886554946e-001
      -1.4136851371784172e+000 -7.6082093264060624e-001
      -1.8976102239113422e-002 -5.0513151970337788e-001
      8.2061745593225904e-002 -6.0984990407845174e-001
      2.5504484075657845e-002 -4.8084713108116206e-001
      4.2295389054744364e-002 7.6155131986305094e-002
      7.4788498387178204e-001 -4.2884792265120258e-001
      -5.0425872337965494e-001 2.1711159857609366e-001
      -4.8823725831295062e-001 -2.6361824367277736e-001
      -1.4622664764913074e-001 -1.0114171320658384e-001
      -1.6539420250104070e-001 -7.8972943185313574e-002
      -4.5559117501363883e-001 -8.4498885981115296e-002
      -2.5817446835716024e-001 -1.7186995532413799e-001
      -2.1016276118140129e-001 -2.1259492691821108e-001
      2.8532662825611066e-001 1.5403438637048832e-002
      5.5911721141595760e-002 -5.5622906146849371e-001
      -1.4930103767691800e+000 -9.0132711373551555e-001
      -1.3806124824770309e-002 -5.8921326595231316e-001
      -4.2768721111350677e-001 -5.0512214401595235e-001
      -6.3685070789129522e-002 -5.2881370992871291e-001
      1.8000001018540443e-001 -3.7893325655755034e-001
      2.8077972565840842e-001 -3.1236306939664521e-001
      -5.6440307355193997e-001 9.4724207241890804e-002
      -4.9352222405337520e-001 2.9856298388324494e-002
      -1.1396227681021677e-001 2.5290341333434552e-001
      2.6367406254731823e-001 2.9192524208162191e-001
      -8.6499757643985586e-001 -5.8880582354837174e-002
      -3.4148648607761228e-001 -3.1827726589749061e-001
      -1.3025552860385767e-001 -3.6413585866667836e-001
      1.5325776185529483e-001 -6.3325449942457923e-002
      3.4234775557543590e-001 -1.9628834012648680e-001
      1.0921795472141118e+000 -5.8566900390518012e-002
      1.2293313482086925e-001 -9.1192591925646205e-001
      -2.4284809629228182e-001 2.3133755411284718e-001
      -2.6438764470802162e-001 -1.7164232269207838e-002
      -7.5628617707816329e-002 2.6253800605098080e-002
      1.4926133200826427e-001 -2.1480869146857046e-001
      1.2710624180100386e-001 1.5461118650960703e-001
      -2.9962818219983151e-001 8.8727552440476115e-003
      1.3133339788296269e-001 5.5650799829718663e-002
      -4.2833071138098044e-001 -3.9232554160925964e-001
      7.3646208779791569e-002 -1.1126656654203700e-001
      -3.7113068958866663e-001 -2.6648894968599873e-001
      -2.1136298021211644e-001 -1.6046187285465419e-001
      -2.4754925304346631e-001 2.9344731556258569e-001
      -1.9056717117228861e-001 5.1694709465185884e-001
      9.1765678559251396e-001 -1.7814554204851515e-001
      9.5837545627508833e-002 -2.9893940718206041e-001
      -2.4520685022285449e-001 -6.6407976800866270e-002
      -3.4016330944650841e-001 -4.5021394559353656e-001
      -6.5281181950579123e-002 -2.7918247361865389e-001
      7.0137622529748755e-001 -9.3143863175424044e-002
      -9.2742628604176210e-003 -8.1409530545221882e-003
      -4.8704699611396746e-001 -1.4032730004863712e-002
      3.1272386710624954e-002 -2.8502634549795081e-001
      -7.0155671141992593e-001 2.7224037167918824e-001
      -2.9101092352100549e-001 -2.6815353009687463e-002
      -2.2520790064368906e-001 -1.5718925931182876e-001
      -1.5754742857919268e-001 -1.1344753292871546e-001
      1.6766167959077305e-001 1.7262028646000441e-001
      -4.6165092393363444e-001 -1.9054991953901981e-001
      3.3141751536625925e+000 -5.8352481116662594e-002
      1.2770441908258992e-001 4.1979073122142668e-001
      -2.1454638842376378e-001 -1.1885965637926905e-001
      -1.0780839865466241e-001 -3.9699416796378301e-001
      1.0055788878409573e-001 9.7281284882012545e-003
      5.4576089286388885e-001 9.2382140048693481e-002
      -9.4420991754010017e-002 -2.5652310461093947e-001
      -2.7762924089655405e-001 -7.5283568936134401e-002
      1.3246998493338580e-001 2.0503048676306720e-001
      -2.4822114482313035e-001 4.0581688447527203e-001
      -1.9480063186087257e-001 -1.1484120495189420e-003
      -1.6399610209834919e-001 1.7483373331371521e-001
      1.3840360813899000e-001 -2.5325692933662181e-001
