<?xml version="1.0"?>
<opencv_storage>
<my_nn type_id="opencv-ml-ann-mlp">
  <layer_sizes type_id="opencv-matrix">
    <rows>1</rows>
    <cols>3</cols>
    <dt>i</dt>
    <data>
      200 30 19</data></layer_sizes>
  <activation_function>SIGMOID_SYM</activation_function>
  <f_param1>1.</f_param1>
  <f_param2>1.</f_param2>
  <min_val>-9.4999999999999996e-001</min_val>
  <max_val>9.4999999999999996e-001</max_val>
  <min_val1>-9.7999999999999998e-001</min_val1>
  <max_val1>9.7999999999999998e-001</max_val1>
  <training_params>
    <train_method>BACKPROP</train_method>
    <dw_scale>1.0000000000000001e-001</dw_scale>
    <moment_scale>1.0000000000000001e-001</moment_scale>
    <term_criteria><epsilon>1.0000000474974513e-003</epsilon>
      <iterations>1000</iterations></term_criteria></training_params>
  <input_scale>
    3.6320950353395625e+000 -3.0012252399939049e-001
    2.2273410019186355e+000 -6.2350523831111881e-001
    2.0250587581008439e+000 -8.5373472095313818e-001
    2.0932251210741795e+000 -7.3774713373440726e-001
    2.1681937511832241e+000 -6.6544900963802156e-001
    2.0700886159520380e+000 -7.6799240389451662e-001
    2.0012552722308530e+000 -9.6519225608435733e-001
    2.0170768121552642e+000 -8.7758147982471857e-001
    2.1002239209905920e+000 -7.2958874826991904e-001
    2.2036845254001904e+000 -6.3917999724929642e-001
    2.1460167566317732e+000 -6.8397498651501709e-001
    2.0720337966364903e+000 -7.6521990128733797e-001
    2.0136781183010468e+000 -8.8968577908073232e-001
    2.0080362568912431e+000 -1.0937533068733079e+000
    2.0008223491504049e+000 -1.0290907529357056e+000
    2.0031040494574888e+000 -9.4581641458363719e-001
    2.0106662989573958e+000 -1.1087485324773498e+000
    2.0153287601654504e+000 -1.1317107540220825e+000
    2.0000255941941005e+000 -9.9495371043382741e-001
    2.6395995217136088e+000 -4.5848018673946328e-001
    2.2356515920019757e+000 -6.1829150267845534e-001
    2.1314118723923241e+000 -1.4341202986248520e+000
    2.6004270195142665e+000 -2.1312100025024172e+000
    2.1002239209905920e+000 -1.3706351727206729e+000
    2.0057835740481407e+000 -1.0789965600697418e+000
    2.0700886159520375e+000 -1.3020962120575210e+000
    2.1681937511832245e+000 -1.5027447415452029e+000
    2.2152789091456064e+000 -1.5839430986133847e+000
    2.0415288491030443e+000 -1.2256058520753521e+000
    2.0161905642502389e+000 -1.1355946854293082e+000
    2.0978569373455191e+000 -1.3655527450512148e+000
    2.3212638280802547e+000 -1.7497553645056894e+000
    2.5817772142551947e+000 -2.1072178274865334e+000
    2.7499716518577979e+000 -2.3186944788008415e+000
    2.6196913906117412e+000 -2.1558337244831867e+000
    2.3004203495884403e+000 -1.7185265006200321e+000
    2.2529458518897751e+000 -1.6450683876362100e+000
    2.1552666888376506e+000 -1.4792471203320805e+000
    2.0308695555773770e+000 -1.1918087779779549e+000
    2.3432695563804979e+000 -5.6112019731202478e-001
    2.1258440617464136e+000 -7.0263985851989386e-001
    2.1818286680690364e+000 -1.5269121370129008e+000
    2.3910901555879716e+000 -1.8507763598901836e+000
    2.1026253689835444e+000 -1.3757481335001942e+000
    2.0250587581008439e+000 -1.1713240371477056e+000
    2.0093038475500817e+000 -1.1012204898040079e+000
    2.0539329418887804e+000 -1.2607615359991839e+000
    2.1075329384193910e+000 -1.3860671939014546e+000
    2.0780555015332478e+000 -1.3211246611771237e+000
    2.0308695555773770e+000 -1.1918087779779549e+000
    2.0444629701524883e+000 -1.2342626362809288e+000
    2.1616437813774425e+000 -1.4909145136313220e+000
    2.1616437813774425e+000 -1.4909145136313220e+000
    2.1286087920915295e+000 -1.4286446867663216e+000
    2.0780555015332478e+000 -1.3211246611771237e+000
    2.0681740594199058e+000 -1.2974043003443592e+000
    2.0506635789570389e+000 -1.2518384748439257e+000
    2.0002303831264800e+000 -1.0152940056004560e+000
    2.0086582287992640e+000 -9.1117885926981790e-001
    2.2619422954104342e+000 -6.0267602474679360e-001
    2.0887274980779011e+000 -7.4320658026043362e-001
    2.0047975421985895e+000 -1.0717045883253842e+000
    2.0490714391004072e+000 -1.2474111121673643e+000
    2.0444629701524883e+000 -1.2342626362809288e+000
    2.0556105485302978e+000 -1.2652577575270805e+000
    2.0909596829858264e+000 -1.3504849217260901e+000
    2.3055262647381980e+000 -1.7262287715746372e+000
    2.3786313534171017e+000 -1.8331105033922690e+000
    2.2529458518897751e+000 -1.6450683876362100e+000
    2.2356515920019757e+000 -1.6173600893235203e+000
    2.3605834980446616e+000 -1.8072595415046819e+000
    2.2529458518897751e+000 -1.6450683876362100e+000
    2.2074984773385733e+000 -1.5709348354753421e+000
    2.2152789091456064e+000 -1.5839430986133847e+000
    2.1818286680690364e+000 -1.5269121370129008e+000
    2.1430157842232669e+000 -1.4563834081652218e+000
    2.1151609518940404e+000 -1.4017845768876187e+000
    2.0068629957587159e+000 -1.0863457363213287e+000
    2.0027384528036940e+000 -1.0537173647129048e+000
    2.0218781280891744e+000 -8.6262254031460561e-001
    2.1999205500755354e+000 -6.4179806941495388e-001
    2.0010273829521577e+000 -1.0325706225689044e+000
    2.1521417536159952e+000 -1.4734731061856561e+000
    2.3547324812685657e+000 -1.7988091298729516e+000
    2.1783517419759431e+000 -1.5208054320034408e+000
    2.1286087920915295e+000 -1.4286446867663216e+000
    2.4170883308922400e+000 -1.8872038738669596e+000
    2.4306545038742757e+000 -1.9059938352471133e+000
    2.2855074417273999e+000 -1.6958233968972276e+000
    2.4170883308922400e+000 -1.8872038738669596e+000
    2.8822427745233794e+000 -2.4788259949526537e+000
    2.4446178611110412e+000 -1.9251880963555754e+000
    2.2953825992972963e+000 -1.7108922578236172e+000
    2.1999205500755354e+000 -1.5581224806605816e+000
    2.0843617427104442e+000 -1.3356786884147871e+000
    2.0387037035957452e+000 -1.2170339141195510e+000
    2.0229131310379898e+000 -1.1632603333624865e+000
    2.0198831812510636e+000 -1.1512993512021239e+000
    2.0444629701524883e+000 -1.2342626362809288e+000
    2.0043394179399177e+000 -9.3625972811021452e-001
    2.0080362568912431e+000 -9.1428295001793536e-001
    2.2758927325670943e+000 -1.6810135191642284e+000
    2.5637146484688724e+000 -2.0838287699190499e+000
    2.4737985148895354e+000 -1.9648551442039985e+000
    2.1818286680690364e+000 -1.5269121370129008e+000
    2.0662898926572031e+000 -1.2927378586438825e+000
    2.1681937511832245e+000 -1.5027447415452029e+000
    2.3266533662536646e+000 -1.7577414976081647e+000
    2.2665307866458670e+000 -1.6664543389166915e+000
    2.8537332431187323e+000 -2.4446821037172275e+000
    2.7499716518577979e+000 -2.3186944788008415e+000
    2.2855074417273999e+000 -1.6958233968972276e+000
    2.1231172910931480e+000 -1.4177983933775491e+000
    2.0296558386264181e+000 -1.1876738212535700e+000
    2.0161905642502389e+000 -1.1355946854293082e+000
    2.0153287601654504e+000 -1.1317107540220825e+000
    2.0106662989573958e+000 -1.1087485324773498e+000
    2.0208681812934994e+000 -1.1552686567596901e+000
    2.0522840166488203e+000 -1.2562885295843538e+000
    2.0052789109192450e+000 -9.2993541400133628e-001
    2.1962059193114509e+000 -1.5517879935775682e+000
    3.4758692452735391e+000 -3.1593482684695409e+000
    3.4758692452735391e+000 -3.1593482684695409e+000
    2.8398898013404725e+000 -2.4280339448222925e+000
    2.2113630518466953e+000 -1.5774141162414033e+000
    2.0063115840170918e+000 -1.0826639239215334e+000
    2.0031040494574888e+000 -1.0572876348738516e+000
    2.0506635789570389e+000 -1.2518384748439257e+000
    2.0681740594199058e+000 -1.2974043003443592e+000
    2.3159468944684876e+000 -1.7418420150639891e+000
    3.0802805069874464e+000 -2.7114779505015969e+000
    2.6601826406392477e+000 -2.2070992566517873e+000
    2.1286087920915295e+000 -1.4286446867663216e+000
    2.1050615997942610e+000 -1.3808920106576181e+000
    2.0887274980779011e+000 -1.3455209178174676e+000
    2.1231172910931480e+000 -1.4177983933775491e+000
    2.0843617427104442e+000 -1.3356786884147871e+000
    2.0333752561671221e+000 -1.2001371663718259e+000
    2.0161905642502389e+000 -1.1355946854293082e+000
    2.0590526025392433e+000 -7.8473168326116183e-001
    2.0002303831264800e+000 -9.8493637752602392e-001
    2.3786313534171017e+000 -1.8331105033922690e+000
    2.7870800724487226e+000 -2.3640830968662856e+000
    2.7744834504609899e+000 -2.3487195482823222e+000
    2.2574142720006627e+000 -1.6521379326278038e+000
    2.0068629957587159e+000 -1.0863457363213287e+000
    2.0057835740481407e+000 -1.0789965600697418e+000
    2.0250587581008439e+000 -1.1713240371477056e+000
    2.1371346843812558e+000 -1.4451787663353854e+000
    2.3376550054768401e+000 -1.7739371879672481e+000
    3.1186346832971159e+000 -2.7557581349876710e+000
    2.9915938081870914e+000 -2.6081854955020680e+000
    2.2036845254001900e+000 -1.5645045281508938e+000
    2.1853519751075510e+000 -1.5330631056403730e+000
    2.1999205500755354e+000 -1.5581224806605816e+000
    2.1460167566317736e+000 -1.4620417701167565e+000
    2.0556105485302978e+000 -1.2652577575270805e+000
    2.0189230215424132e+000 -1.1473474844178639e+000
    2.0086582287992640e+000 -9.1117885926981790e-001
    2.2758927325670943e+000 -5.9487921340286620e-001
    2.4039048023628919e+000 -5.3510191216172298e-001
    2.0010273829521577e+000 -1.0325706225689044e+000
    2.1342537009698792e+000 -1.4396315014973891e+000
    2.3605834980446616e+000 -1.8072595415046819e+000
    2.1853519751075510e+000 -1.5330631056403730e+000
    2.0239733025541082e+000 -1.1672830851155227e+000
    2.0608174589307557e+000 -1.2788884062167254e+000
    2.0539329418887804e+000 -1.2607615359991839e+000
    2.0208681812934994e+000 -1.1552686567596901e+000
    2.0760169926047531e+000 -1.3163278064407877e+000
    2.2758927325670943e+000 -1.6810135191642284e+000
    2.5548955144958643e+000 -2.0723520109148579e+000
    2.1889222306738279e+000 -1.5392589716542768e+000
    2.0760169926047531e+000 -1.3163278064407877e+000
    2.0459713143507785e+000 -1.2386234432578913e+000
    2.0006401497829871e+000 -1.0256232808330996e+000
    2.0023958876825998e+000 -9.5223548115766121e-001
    2.0080362568912431e+000 -9.1428295001793536e-001
    2.0333752561671221e+000 -8.3323808979529623e-001
    2.2152789091456064e+000 -6.3133581053222176e-001
    3.8981114227815068e+000 -2.7608883601487910e-001
    2.5047644163563842e+000 -4.9841855165270382e-001
    2.0955241059747509e+000 -7.3502363244982838e-001
    2.0074378667224342e+000 -9.1739571986809387e-001
    2.0106662989573958e+000 -9.0191776648004607e-001
    2.0086582287992640e+000 -9.1117885926981790e-001
    2.0039044906680403e+000 -9.3943583205010994e-001
    2.0106662989573958e+000 -9.0191776648004607e-001
    2.0346675189325616e+000 -8.3033649170603696e-001
    2.0333752561671221e+000 -8.3323808979529623e-001
    2.0250587581008439e+000 -8.5373472095313818e-001
    2.0321093154647443e+000 -8.3614616015750021e-001
    2.1002239209905920e+000 -7.2958874826991904e-001
    2.0626118149162567e+000 -7.7913161305437006e-001
    2.1681937511832241e+000 -6.6544900963802156e-001
    2.3055262647381980e+000 -5.7929749316356061e-001
    2.2441844613948434e+000 -6.1308243296115450e-001
    2.1889222306738279e+000 -6.4966325901955091e-001
    2.1889222306738279e+000 -6.4966325901955091e-001
    2.5726741655582082e+000 -4.7722455010354620e-001</input_scale>
  <output_scale>
    5.2631578947368418e-001 4.9999999999999994e-001
    5.2631578947368418e-001 4.9999999999999994e-001
    5.2631578947368418e-001 4.9999999999999994e-001
    5.2631578947368418e-001 4.9999999999999994e-001
    5.2631578947368418e-001 4.9999999999999994e-001
    5.2631578947368418e-001 4.9999999999999994e-001
    5.2631578947368418e-001 4.9999999999999994e-001
    5.2631578947368418e-001 4.9999999999999994e-001
    5.2631578947368418e-001 4.9999999999999994e-001
    5.2631578947368418e-001 4.9999999999999994e-001
    5.2631578947368418e-001 4.9999999999999994e-001
    5.2631578947368418e-001 4.9999999999999994e-001
    5.2631578947368418e-001 4.9999999999999994e-001
    5.2631578947368418e-001 4.9999999999999994e-001
    5.2631578947368418e-001 4.9999999999999994e-001
    5.2631578947368418e-001 4.9999999999999994e-001
    5.2631578947368418e-001 4.9999999999999994e-001
    5.2631578947368418e-001 4.9999999999999994e-001
    5.2631578947368418e-001 4.9999999999999994e-001</output_scale>
  <inv_output_scale>
    1.8999999999999999e+000 -9.4999999999999996e-001
    1.8999999999999999e+000 -9.4999999999999996e-001
    1.8999999999999999e+000 -9.4999999999999996e-001
    1.8999999999999999e+000 -9.4999999999999996e-001
    1.8999999999999999e+000 -9.4999999999999996e-001
    1.8999999999999999e+000 -9.4999999999999996e-001
    1.8999999999999999e+000 -9.4999999999999996e-001
    1.8999999999999999e+000 -9.4999999999999996e-001
    1.8999999999999999e+000 -9.4999999999999996e-001
    1.8999999999999999e+000 -9.4999999999999996e-001
    1.8999999999999999e+000 -9.4999999999999996e-001
    1.8999999999999999e+000 -9.4999999999999996e-001
    1.8999999999999999e+000 -9.4999999999999996e-001
    1.8999999999999999e+000 -9.4999999999999996e-001
    1.8999999999999999e+000 -9.4999999999999996e-001
    1.8999999999999999e+000 -9.4999999999999996e-001
    1.8999999999999999e+000 -9.4999999999999996e-001
    1.8999999999999999e+000 -9.4999999999999996e-001
    1.8999999999999999e+000 -9.4999999999999996e-001</inv_output_scale>
  <weights>
    <_>
      -4.2361493849036908e-001 -7.2003145335606547e-002
      8.1079486238789002e-003 -5.7267732942146848e-002
      -2.5528056843137492e-001 1.2354369229020891e-001
      1.9517326180634834e-001 -1.3741003949561026e-001
      5.9672277629628782e-002 2.7006743662473448e-001
      -2.3325008508379561e-001 -1.2988600931974359e-001
      4.2044773047726131e-001 7.7098905706869392e-002
      -3.2687892672107494e-001 1.5117331587101890e-001
      1.9338694020945885e-001 1.2613712683461864e-001
      -2.3216233995247201e-001 -1.6389406419632296e-001
      -2.1109106284422202e-001 -5.8496415253504075e-002
      -5.2548760546588663e-002 -1.8399737970500119e-001
      -7.8198470933724729e-002 -2.8148321367648915e-001
      -9.1892817902909360e-002 1.3588604204883217e-001
      2.5255787593934614e-001 1.5055457940714803e-001
      1.7342179706532146e+000 1.3078198020247436e-001
      -8.3761360040230937e-002 -5.3962401762909402e-002
      -8.1350137076652410e-002 1.2544346563813730e-001
      -1.7024735544805097e-001 -1.1644125563996624e-001
      1.0740416058944453e-002 5.9230282268159413e-002
      -4.9835520481685502e-001 -3.3116897470513113e-001
      1.7705421686860354e-001 2.2548923277352939e-001
      -8.8938190655733926e-002 7.5337327345804381e-002
      -1.5102000873264093e-001 3.8561670551140619e-002
      -3.3057435837960497e-001 -1.3440186790851469e-001
      -1.3170193837325941e-001 -1.1041457742490454e-001
      -2.4868196491955527e-001 -7.6098996142913433e-002
      6.8130051533634453e-002 6.9428337563962172e-003
      -2.9689743778750377e-001 1.4515324343609640e-001
      1.2457891692563540e-001 1.3505932901267222e-002
      1.0328085020487219e+000 -1.4407912443683599e-001
      -8.5822299552146916e-002 -2.1986445452255088e-002
      1.6049869191574814e-001 3.8958090260111725e-002
      8.3375557156858224e-002 -2.2524490280532261e-001
      -4.3585748581733273e-002 -1.6869380484057755e-001
      -4.2637394944063142e-002 -2.6548763892747834e-001
      2.2725931035897398e-001 1.5433225398415143e-001
      -2.8464412898915867e-002 -1.7993126523701414e-001
      1.6946563675143456e-001 -2.1429212339947153e-002
      -2.6759473274851975e-001 -3.1833018484488940e-001
      -4.1426060476966692e-001 -3.1364119557613875e-002
      2.4841150163701795e-002 -1.5093430536949498e-001
      1.6811553850410296e-001 -8.0852420408321756e-003
      -1.0137960906549852e-001 -1.4344282953845283e-001
      2.5482052058861371e-001 -1.3095692576456530e-001
      1.7743350941612146e+000 1.7475340465973108e-001
      -1.0387078293296627e-001 -2.3289830051604742e-002
      -8.6927217140837926e-002 1.7095626181083853e-001
      5.4897068559900321e-002 -4.3990434411962542e-002
      -2.2380695511147553e-001 -5.4991297072015111e-002
      2.0945942710095758e-001 -2.6154284816950124e-001
      2.2832292302181414e-001 -1.6051747325095245e-001
      -1.4527797516170174e-001 -1.4539507403795840e-001
      2.8983206179194088e-001 2.0992986163127733e-001
      -2.7727961878499647e-002 -8.7498672482770212e-002
      -1.1485845388371776e-001 1.0682084346319677e-001
      -1.3337635583433091e-001 -2.2855281996872637e-001
      2.9396465386600035e-001 -4.6677964939538755e-002
      1.4526295595771296e-001 -2.0415140315435337e-001
      -1.1002608814475685e-002 -1.1716065865555660e-002
      9.6703688166247348e-001 2.1930819398764426e-001
      8.9813152452220282e-002 6.2724001690280207e-001
      -1.6593173683844972e-001 1.9759821388971829e-001
      2.4560837479072523e-001 -1.2046836208173568e-001
      -3.4985075514372416e-001 4.6011030781058775e-002
      2.6747981903743046e-001 2.6231684011765771e-002
      2.7415686088343424e-002 -1.6047339544142319e-001
      -4.9748554730032107e-001 -1.3700540930698873e-001
      -1.8766077097404141e-001 1.9258231118289004e-001
      2.4051348556833496e-001 -1.5209169681755074e-003
      2.8624603632254084e-002 1.0621153297537801e-001
      -2.3894616786263281e-001 -7.3170173997641683e-002
      1.0761048717400146e-001 -5.1890623854432653e-002
      -3.1413029989599434e-001 -7.5144470021027934e-002
      6.7818838825443858e-002 1.7698918791710080e-001
      -1.2973932835167710e+000 3.5576584486389878e-001
      1.5639790986827193e-001 -7.9298389331664138e-002
      -7.7433653785243084e-002 1.3906672198685616e-001
      5.2440254969492735e-002 5.0112347260874580e-002
      -2.5758500146137377e-002 4.1147050290934545e-001
      -5.0662613686812429e-002 6.3094145477457245e-002
      -6.0279441632393016e-002 -1.9567997196673372e-002
      -2.8499221004292025e-001 1.2321802864439543e-001
      -1.2768766754508196e-001 -1.1780081145221258e-001
      3.8372676242567233e-001 -8.8319785707737606e-003
      7.6339826294327895e-002 -8.3604486835978736e-002
      -1.6241596376045284e-001 -6.4566752400092797e-002
      -3.0119302486847153e-002 4.2111471351722427e-002
      -1.0865730976554071e-001 7.5796834044722858e-002
      -2.4909278113483346e-001 -6.3441665383359866e-002
      -1.4089670850943461e+000 2.6948070727612700e-001
      2.7357304348193848e-002 -3.3830284230842433e-001
      -1.2135364065403451e-002 2.0085276985472458e-001
      -1.6001468405128572e-001 3.7945920662020127e-002
      9.4645993256117444e-002 1.6065942385554069e-001
      -1.9407526005695305e-001 -1.3672108179070479e-002
      -6.7782188241567315e-002 4.7579946870287930e-002
      -7.0270354817924083e-002 4.1993022606096400e-002
      -2.5320838684468788e-001 -9.0591427462444654e-002
      2.3145351121541052e-001 -1.2043336312082353e-001
      1.2398129249663626e-002 -2.2917165434566747e-002
      -1.0773449403758428e-001 -9.3893331149524570e-004
      -4.8307007896694662e-002 1.1794580055973075e-001
      4.0297638661350915e-002 2.6355823709053677e-001
      -3.0873864011254420e-001 -1.4935772202270081e-001
      4.6527750289110792e-001 -1.0786502208644699e-001
      -4.3485732128471372e-001 -1.1974444888888920e-001
      -2.6270733759581588e-001 1.4181912530490229e-001
      2.4103955640577154e-001 1.3657485629881769e-003
      -3.7877872748442162e-002 -2.7863694609598821e-002
      7.8130322828644017e-002 2.6746298158007392e-001
      2.8700850638863062e-001 -5.6488393761848825e-002
      -2.3642407928462131e-001 2.1743641032947070e-001
      2.2116140552938102e-001 1.9220014575362565e-001
      -4.3381303850215466e-004 -4.9939985798469222e-001
      -1.1784874095330246e-001 2.6785084595285242e-002
      2.8020299147594274e-001 -4.3259063389652858e-001
      8.6713733752812619e-002 -3.9221286084150514e-001
      -1.6745538292106288e-001 -1.2437769646780981e-002
      -4.0067230492761940e-001 1.3533790720396274e-001
      -1.9720060592363059e-001 -2.6119049304308600e-001
      -2.8848646367290165e-001 -2.1940597456861416e-001
      -7.5246852576171752e-002 2.2011422203112663e-003
      1.7660995322617939e-001 1.8972282841535615e-001
      -1.5586001749641629e-001 8.3894758938829000e-002
      2.2402605027023831e-001 4.1225576732903652e-001
      4.4119890979139648e-001 8.1489750187190957e-002
      -1.6665611313155193e-001 1.7739935617979527e-001
      3.1639319987762780e-002 1.7981827894125541e-001
      1.1818835099365271e-001 -1.2153674060725668e-001
      1.9309717839720433e-002 9.2038964956982189e-002
      3.6040504953089036e-001 -4.9595998952422372e-002
      4.8635220459525827e-002 -8.0264363709447884e-003
      -2.1823786124281780e-001 -1.4413531321399559e-001
      -7.1289281201220758e-002 -1.8722811515328772e-001
      -4.3056493881718405e-001 -4.9798415227752260e-002
      -2.5586441305722907e-001 4.0523982153581284e-001
      -2.8523390096287765e-001 1.0874321680789704e-001
      3.1838405902682698e-001 -5.7722626077643745e-002
      -5.0308439499571249e-002 6.7420755108239545e-003
      1.3730414658309967e-001 3.0225487480823026e-002
      4.4278270328782460e-001 -7.6600928266827739e-002
      -3.9797038019424619e-001 1.0994646902971193e-001
      1.7647463547661496e-001 2.5747780412870946e-001
      1.0534400118499572e-001 -1.7754952558780365e-001
      -2.1944270508887876e-003 -3.6660011961298596e-002
      -1.6519140075451699e-001 -2.8208517825707513e-001
      1.9752186763995091e-002 -8.1571043074040894e-002
      -4.2172316376381486e-001 -1.5649477977816417e-002
      9.5686960617006933e-002 3.0572252559208681e-002
      -4.1891755465508113e-001 2.1882504967832966e-001
      -1.4844851346628524e-001 3.1400644426982072e-001
      -3.7258083830070343e-001 2.8594358934401326e-001
      1.4880548613920969e-001 2.1027247677828558e-003
      -1.3707904857408304e-001 3.9335392246033010e-002
      1.0597932063740191e-001 -2.8258008905454018e-001
      1.4361013732179012e-001 4.6497539893385044e-002
      -3.8697225931927093e-001 1.3381010415643788e-001
      -2.4142213324517384e-002 2.8119600688781038e-001
      1.8209493317539180e-001 -4.4755465640036102e-002
      1.3926886696100993e-001 -5.9815805269014269e-002
      -2.6266871842188694e-001 -1.7655766189553571e-001
      1.8507624201910083e-001 1.5626975515073299e-001
      -3.2870151084242449e-001 1.2046647795742275e-003
      8.1183882987909337e-002 2.6499734681139329e-002
      1.1020133420544631e-001 1.9515461902328182e-001
      3.3822341713129062e-002 3.8979018200851734e-001
      -2.6610843222581321e-001 1.7921078928884024e-001
      9.0091520100110595e-002 2.3471761879570362e-002
      -1.6681740186180738e-002 -1.2991441337719883e-001
      3.5617591866334408e-001 -2.4759351192713702e-001
      6.0537018991922403e-002 7.6492380255527417e-002
      -2.5974457881786017e-001 1.0343757044202902e-001
      -1.8479330326345378e-001 2.1406458361295938e-001
      3.0698736986662273e-001 -3.7997999942941424e-002
      1.2387332805138987e-001 2.6612201400083380e-003
      -3.6370725344403204e-003 1.5607298935207936e-002
      1.7987826432578655e-001 8.1065076191573937e-002
      -1.2494092299408587e-001 1.9805341891436654e-001
      2.1199107310180693e-001 -1.7499769390992804e-003
      -7.6260677458577653e-001 1.5695296358486927e-001
      1.3254857595846362e-001 1.6899040184800690e-001
      8.5619781116609603e-002 5.3267414316737843e-002
      6.9883362139729246e-002 -8.6894070381907620e-002
      1.3655390950726369e-002 -6.2286577283491719e-002
      -1.8878364411105665e-002 8.5756361515179180e-002
      -2.0111281665395678e-002 2.0557137033601039e-001
      -2.8584610694432338e-003 2.4267457891436486e-002
      -1.9770573886493339e-001 3.0403363093630037e-002
      2.2647242390235375e-001 -3.8401828499722637e-002
      -6.2160102805939241e-002 -2.4773941465217555e-001
      2.1763108039862175e-001 1.2223483220018133e-001
      -7.7213621718823663e-002 1.6406981268738313e-001
      3.5750821394644255e-001 3.6186029120523511e-001
      6.3535210282275933e-002 -9.6693356853834816e-002
      -1.6933006932190300e-001 1.6578280308528340e-001
      -1.7093809038176910e-001 1.0998804284516919e-001
      1.0718562454352488e-001 -2.1851166226648921e-001
      2.8961624297373350e-002 1.6647881207711757e-001
      -7.7181177763362058e-002 -3.6920129007728913e-001
      -3.1990765326885141e-002 -8.7810428669281765e-002
      -1.8151350858294740e-001 1.4183767565073574e-001
      -5.8960032996074094e-002 -1.3526926768404585e-001
      -2.1985699674883460e-001 1.7318751125985313e-001
      3.3714676377225427e-003 -1.1423295810888835e-001
      1.3168890856595933e-001 -1.9819903886401860e-001
      1.5417382866792587e-001 6.0064159074981454e-003
      7.7505390030791377e-002 1.0983408672700910e-001
      9.7428638434889442e-002 1.9964921725265700e-001
      1.1394692389177968e-001 1.7751610244839394e-001
      3.4613674952159118e-001 1.2142161946786494e-001
      2.9033499126384643e-003 -1.1563637402911289e-001
      1.2749067295644329e-001 -5.4334703665122712e-002
      3.3877128853981621e-002 1.2078615435441803e-001
      -4.3908400115324563e-002 -1.2877830785461339e-001
      5.4294919577208264e-002 -1.1425868307083900e-001
      -4.5029651718847999e-002 6.2070976467145315e-002
      -4.4117506264174121e-002 -8.4113179765166593e-002
      -1.6971519850082658e-002 9.0879962892641011e-002
      5.6297229646702661e-002 6.9942780763052867e-002
      1.7155848725694650e-001 -8.0467691267698607e-002
      1.9085412582253042e-001 -1.8454127725620351e-001
      1.9495077681834194e-001 9.9712470962868838e-002
      1.6850193455011570e-001 9.0157369268911103e-002
      -5.3790347852799403e-002 3.9593560067063993e-002
      4.6212524916630343e-001 1.1975113879238118e-001
      -4.5429025477047497e-002 -1.9827504951535355e-001
      -6.8654168285191705e-002 -5.9912123005721615e-002
      5.2745513886666061e-002 -1.1973488436668646e-001
      2.9757875843344783e-001 1.9596870143883427e-001
      2.2096290603676204e-002 6.4541217630416078e-002
      -1.7825941909703022e-001 -6.9938521844151821e-002
      -2.2820594163307967e-001 1.9476906708384195e-001
      6.5415187652221291e-002 5.5737235855721476e-002
      5.6789872636791271e-002 1.4108282650873818e-001
      1.2703516269854126e-001 3.9710444612963552e-002
      2.4256737511207990e-001 -7.7620395723443633e-002
      -2.4812358114023280e-002 9.0189657942771465e-002
      -4.3773054846136451e-002 4.9994171005659629e-002
      -8.2452423162134761e-002 -1.0213747011080376e-001
      6.6630231021920239e-001 -4.3638293046298050e-002
      8.4799952421846393e-003 -1.9877739005547085e-001
      1.2695214935058763e-001 -1.6375762221327622e-001
      -7.9767914520517107e-003 -9.5866267651543630e-002
      3.9530280815829522e-001 8.7838598330374260e-002
      -1.3256771112171550e-001 1.1392994872813410e-001
      -6.5047521545494313e-002 8.6929853701724416e-002
      -1.2327738486148124e-001 2.3098481272725119e-001
      -1.7558488470723019e-001 -2.8039872018664663e-001
      -3.8200358536449944e-002 1.3168861055897965e-001
      2.2310962114066551e-001 8.0665390578991442e-002
      2.9191733100150125e-001 1.7030168321893613e-001
      -1.9469428540823097e-001 1.8891213204767640e-001
      -1.1240639168623344e-001 1.2008802843542957e-001
      -1.6130770832164704e-002 -3.4166217084460004e-001
      8.9578393537520451e-001 3.5179064457865623e-002
      4.3080546158614043e-002 -2.3148107725722977e-001
      -2.3604738440506615e-003 -2.6523826691160612e-001
      -2.2930292044374914e-001 -1.4383561842372497e-001
      2.2402421347545323e-001 -1.0457444060657582e-001
      -7.7731437978670687e-002 4.0988329641325465e-003
      -2.2345687310794085e-001 -5.4102726157136932e-002
      5.9504868862981293e-002 2.6759866085759154e-001
      -2.2774655996254062e-001 -2.6631011582335928e-001
      -1.1322887795511538e-001 -4.6211060668168394e-002
      -1.2449846915913447e-001 2.0900042764085602e-001
      5.0265987841957793e-002 1.7474995583779784e-001
      -8.3491392679265614e-002 8.2773349391750337e-002
      7.3445118144456034e-002 2.0362809269220311e-001
      5.7292908256455478e-002 -2.6877227146592403e-001
      9.4295358679088670e-001 -1.1180417475752714e-001
      -4.2144274389434751e-003 -4.0367316003499532e-001
      2.2765991329159457e-001 1.1989666498694104e-001
      -1.5204823271616677e-001 1.8127783295797017e-002
      -3.3580370370990074e-003 -6.9016482369807119e-002
      -1.1366851814360511e-001 8.5007494135486139e-004
      -6.0126530393172860e-002 6.9678085023794675e-002
      1.5370542366980555e-002 5.8892258897269067e-002
      -2.7437672892730769e-001 -2.9715481082031492e-001
      -2.7274969116121478e-001 9.2614776338013960e-002
      -1.1764314525612354e-001 2.1422039163854240e-001
      4.3684543486340391e-002 1.6180126655846561e-001
      6.8572771111857934e-003 9.7071827708614195e-002
      9.9133641207037659e-002 8.9310980355057218e-003
      -1.1212501076868928e-001 -3.0191272962912885e-001
      2.3312033663339613e+000 7.9773145113405455e-002
      -2.1222586553364989e-001 -2.5446183194422482e-002
      -2.6796454699214067e-001 -2.6802265280581855e-001
      1.2521921444042837e-002 3.5829609101756844e-002
      1.5940724512884072e-001 2.4322093319833063e-001
      -2.6286324711776110e-001 -3.1264115830161199e-001
      -2.4196803956071891e-002 1.2062786788088112e-001
      -4.6420434145101934e-002 1.3299113228880249e-001
      2.3050202909000551e-002 -1.5482230153180390e-002
      -2.4588175159069022e-002 -1.5700247007851345e-001
      -1.2045618339470127e-002 -3.7450786856953772e-001
      -2.8900404815601122e-001 -1.1897901941022332e-001
      6.5154195372805562e-002 -8.6440703324434431e-002
      -8.6036199142566668e-003 5.2780943181917984e-002
      -2.9494813028841476e-002 -2.5078661817956560e-001
      5.0724412000208152e-001 -2.1740610251131784e-001
      -3.7337855199430510e-002 -3.1669327536883424e-001
      1.4540482830263626e-001 -2.0007779820720162e-001
      1.0804481558890199e-001 -2.4312823889761129e-001
      -5.4781165492121975e-001 -2.7448603814509481e-001
      -5.9759616284406153e-002 2.6585964370764836e-001
      -1.7839243015521683e-001 1.5826441127399157e-002
      1.0871175070456573e-001 1.3310349929056856e-001
      -2.4950388384904529e-001 1.8696063636269794e-001
      -1.6865939692570689e-001 -1.6482417179518474e-001
      -2.6032188950313712e-001 4.2309034412105040e-001
      1.0315881857269078e-001 -3.0103704293546720e-002
      -1.0823702520678079e-001 -8.3168613332628025e-002
      3.5824204326140380e-001 3.7527252908890507e-001
      5.2538186962592659e-002 3.3270581871443827e-002
      1.0660819556123001e-001 -9.6665105053362302e-002
      1.7914498518488673e-002 2.9965127914498516e-002
      2.1613841613995430e-001 4.9657995987461657e-002
      -3.2230726789258250e-002 -6.5876479657621792e-002
      -8.3741671686010946e-002 -2.7589145362807094e-001
      -4.0839009586761371e-001 -3.3147266200647028e-003
      -3.6051459761805815e-001 9.9420065414246098e-002
      1.3293672684972352e-001 -5.3619298358847906e-002
      -5.5684143006118147e-001 2.9938329309585035e-003
      1.7021774436353393e-001 -1.7805177444463427e-001
      -2.1104609233404317e-001 2.0818254120864818e-001
      -4.1288926996163315e-002 2.1032457961466683e-001
      -2.6665025798230280e-001 6.4270878635487916e-002
      -3.0284998397977858e-001 1.6059806730400489e-001
      1.7059674941423447e-001 -1.7820204755538668e-001
      1.4912495004627899e+000 -1.6935694693138148e-001
      7.0364791800437296e-002 1.0347679942968206e-001
      6.8847833360115529e-001 7.6503748270437641e-002
      -4.5680079150505559e-001 2.6443221979557108e-001
      -4.3502292732642800e-001 -6.7225815194111449e-001
      6.8709647738024238e-002 -2.5032381699765993e-001
      -3.5680221108156829e-001 1.9298871060531109e-001
      5.3201207015748198e-001 -4.1220687886606933e-001
      -5.1142143965571862e-001 -6.1376287468448337e-002
      -7.5493220079802413e-003 3.9186963966719851e-001
      5.2779497996032099e-002 -1.0876508157709901e-002
      -9.8038743751877461e-002 4.6493781852448257e-001
      -6.7170511366655583e-002 6.4463423386577190e-001
      2.2580672891649606e-001 1.8799831559567917e-001
      1.6085568944433543e-001 -2.5629535163051809e-001
      2.0344478637862187e+000 1.1606072207845201e-002
      1.9692461408933368e-002 3.3930134748231455e-001
      1.4719053175911442e-001 -1.2838440892313228e-002
      -1.7757331902167728e-001 2.4456056486184607e-001
      -3.4001657174921751e-001 -1.9558953069275620e-001
      1.3323566563178889e-002 -8.7330841198160467e-002
      9.7976500061556560e-002 -1.2996594593659203e-001
      1.9360244274354468e-001 -2.8213558022641877e-001
      4.1792366033607101e-002 7.3580911755346770e-002
      -3.2000158848575572e-002 2.6764312667052814e-001
      1.4191920910460143e-001 1.5151602849893903e-001
      1.4268442084276932e-002 1.2474112635200602e-001
      1.7002171181352277e-001 2.7217049701315210e-001
      -3.8539465704382897e-001 -9.9241922908083133e-002
      9.8479012132509661e-002 -1.3016667292660347e-001
      -1.8486761537995261e-001 3.0061648979869909e-001
      1.9607750840648974e-001 3.6677574843170202e-001
      -2.0049015265660511e-001 1.5760269189720649e-001
      2.0897392781295376e-001 -1.4526453301284836e-001
      6.2409233549884022e-004 2.7809674485704816e-001
      5.9127885074292251e-002 -1.4740830234402089e-001
      -1.6752570154552149e-001 -3.6819427971311179e-002
      -7.0763114395106769e-002 1.6796556971318821e-001
      8.1580186209954969e-002 2.2013018062834824e-001
      -1.9608050703546060e-002 -9.4942670367658341e-002
      -1.3758506723518478e-002 3.4422542778409077e-001
      -2.6649816425615264e-001 -2.6989695412012327e-001
      2.1796206881123389e-001 2.6170831098890915e-002
      -2.5172228551221609e-001 8.2232343056739307e-002
      -6.4115561899975471e-002 8.0549479186856773e-002
      -2.1184596222221428e+000 3.1701333044302449e-001
      2.2859453566793339e-001 -6.5678148656805758e-003
      5.2957219479203538e-002 3.8687758698107200e-001
      -2.2589371625236407e-001 5.2916764203067471e-002
      1.6933459752581223e-001 1.4954762837323315e-001
      -7.2553385705088305e-002 2.6311272551154223e-002
      -5.9826640494760830e-001 2.3921693217390880e-001
      -2.8332555390098345e-002 2.3222308840920269e-001
      -1.8865443904471868e-001 -1.9548027252166322e-001
      1.1469721868434211e-001 -8.1799850352426554e-002
      8.7528733196308994e-002 1.3737031448239004e-001
      -2.2492590662655512e-001 1.4846400695250984e-002
      3.6449349822956292e-002 2.3104856390253509e-001
      2.4854867274139902e-001 2.0136127375800425e-001
      -1.9559325980875253e-001 -1.1549848210029585e-001
      -7.0434050943704474e-001 1.2238841861276473e-001
      1.9291469279422122e-001 -5.2906307803851308e-003
      3.3951291576491065e-002 1.8073242414784954e-001
      -1.0574454903554754e-001 1.1088082914734004e-001
      3.0991131118850218e-001 2.9476528790464235e-001
      -2.2404060215776961e-001 1.4150589694599566e-001
      -4.1741516455782968e-001 -9.0535347580296723e-003
      -1.0922303826379097e-001 2.0192337248894981e-001
      -2.4421007030052547e-001 -1.9482476744748758e-001
      1.5592621729150691e-001 1.8661000551979515e-001
      8.5992258849106884e-002 1.5089547656391919e-001
      -1.6330622469194339e-001 1.3958700879747155e-001
      -2.1597330606907883e-001 2.2219102931888104e-001
      -2.5624590250815887e-001 1.4588309797581039e-001
      6.3219813096202324e-002 -3.0727300732012675e-001
      -9.1863808163121077e-002 -5.4001189208495094e-002
      1.7367490973864552e-001 7.0129212343735398e-002
      -1.6007667877556528e-001 1.0404231893481700e-001
      1.5404640324487642e-001 -2.3360114524202430e-001
      2.7367596794530713e-001 3.0815827404051288e-001
      -1.3079277924997860e-003 6.5462588711527298e-002
      -1.6476534732327516e-001 -2.6431556413881346e-001
      -4.0578580815689227e-002 3.2480464395038738e-001
      9.6197265704682108e-002 1.5325492416381534e-001
      -6.4032574610684068e-002 3.7582419364260843e-002
      -1.8378525881894248e-001 2.7403522873461766e-001
      -2.4676414374979824e-001 -1.6226663169253289e-001
      -5.8674558860608454e-002 -6.3968007396808885e-002
      8.4980316653171434e-002 7.5497149628122179e-002
      1.2901461812255621e-001 -2.0082594884019561e-001
      1.3965676753281793e+000 -1.6642611181140241e-001
      8.3969176313002006e-002 2.7505908676998586e-001
      -2.2087826705549160e-001 4.9609313508059485e-002
      3.4651588535442851e-001 -5.0985131514432278e-002
      1.5316863841945702e-001 1.3920823274789981e-001
      8.8116595340089580e-003 -2.4154302225357194e-001
      2.6753400439732866e-001 -1.5075918976295438e-001
      -5.3202375955096337e-001 -4.1440098803038790e-002
      3.4025046065847875e-001 1.6076282517312251e-001
      1.7390057890138608e-001 -1.8500726985478125e-001
      1.0043231843530401e-002 6.7940874761768480e-002
      -1.8355445151198119e-001 -2.0769159016458427e-001
      1.9588986859520377e-001 -3.4168682666900652e-001
      -4.9354042008230958e-001 -1.9209561466444122e-001
      2.0937633817410162e-001 1.8817057215992650e-001
      9.8074804127938442e-001 -1.9637026495028149e-002
      7.8815140816574245e-002 3.9050392758139191e-001
      -2.0470070889942446e-002 -1.0338739890702692e-002
      7.6722901648675623e-002 1.9768473351511753e-001
      1.8337370060761204e-001 2.1482800073495525e-001
      5.8395688059120821e-002 -2.2108878659636400e-001
      1.7327413294321209e-001 -9.0736103902262069e-002
      -1.6842614672610454e-001 -3.2496721539134088e-001
      2.6048849382813333e-001 5.8859268953350918e-002
      1.4839979705313328e-001 1.1761484683463445e-002
      3.9612656796773377e-001 -1.9127984243263421e-001
      -1.9286427779022872e-001 -1.2782586298540125e-001
      1.2306094121410564e-001 -1.7619304451659981e-001
      -3.4815057009708772e-001 -8.1010593725612465e-002
      1.1864904002569664e-001 9.1206260490076130e-002
      -4.8117544400692797e-001 9.9695569960257607e-002
      -1.7196494844109805e-001 2.1397668993927785e-002
      2.7703424538681371e-002 -1.2471602172051258e-001
      -5.6039498707224321e-002 2.1239344260740911e-001
      1.2868936424388261e-001 4.4810738027886665e-001
      -4.3640690097366083e-002 -1.7859727228345018e-001
      2.2645147982594865e-001 3.5233807049672897e-002
      -8.8304069445950845e-002 1.5557067887111559e-001
      -1.8322878352512925e-003 -1.0934358256498543e-001
      8.1508173057862329e-002 1.9880029295334861e-002
      3.6979714879651981e-001 -2.8438828695805080e-001
      -1.1361092974695361e-001 -9.6905476429842055e-002
      5.2127124187635508e-002 1.2316164776999253e-001
      -1.7213123609188358e-001 2.4257634119667280e-002
      -1.7656338586353515e-001 1.1939691191332631e-001
      -7.3317954077545611e-001 4.8466625814371306e-002
      2.3528690398833832e-001 2.8270864275229488e-002
      -2.2621820937401410e-001 1.0420982192800915e-001
      2.0082074515245743e-001 -3.9008151935298274e-001
      1.0274452049497573e-002 1.4325822924480192e-001
      -4.0087738949033162e-002 -1.2379126153704449e-001
      -2.3640657434779122e-001 -2.1317006545364314e-001
      -9.5473522270963507e-002 1.0011834511338986e-001
      -1.4687948339533219e-001 1.1474705541860817e-002
      2.4810394319345427e-001 -1.7924902669708989e-001
      -6.5323945817877302e-002 3.4971301783597614e-001
      -1.5368535754215968e-002 -2.9443316195632063e-001
      -4.9371608207339962e-002 -1.9570480320881628e-002
      -1.2598347886049882e-001 4.4962555341369648e-001
      -1.3763712428882446e-001 -4.1457504846629425e-002
      -1.2975747540691527e+000 -7.4346561302484418e-002
      2.4394490887359846e-001 -5.9031610958616955e-002
      -2.0029923119141247e-002 7.5675998436166764e-002
      4.0154170395291122e-002 -4.3689027331178637e-001
      1.0538325086902156e-001 5.6819788109431904e-002
      -6.9901996203465613e-002 4.1877777383559872e-001
      -2.6487677854472513e-001 4.9575767325084279e-002
      7.0106355824618632e-002 6.2055001558087776e-002
      -2.0703997837899163e-001 -1.0043327542748290e-001
      1.2464088716304564e-001 -1.4598101723327903e-001
      -2.1747801531197217e-001 3.9086455220814963e-002
      2.5949578858119771e-001 -2.4264075802843948e-001
      -2.8279730700146299e-001 3.4056343425603305e-002
      -6.4915623143180196e-002 4.8471334994999926e-001
      -5.5553966195762756e-002 -6.6131278456669287e-002
      -1.0061279683099217e-001 -5.8405899979689826e-002
      3.4197634443743341e-001 -1.2901112300910958e-001
      2.7401207877030126e-001 -1.2253420914682593e-001
      -2.4980969047660820e-001 -6.6926268739663522e-002
      -5.9636359971876357e-002 -4.2510976562255672e-002
      -2.1080867461588332e-001 1.0667115058747459e-001
      -3.5279595835289840e-001 1.9741107720618931e-001
      3.0248065483657777e-001 -2.3059414575540629e-001
      -3.3772696984626888e-001 -5.0856238575165517e-002
      -3.0570796322540273e-002 -5.3719689800057688e-002
      -5.5673409162848991e-002 -2.2756937373935313e-001
      -2.0818308868518546e-002 -3.0255383724240404e-002
      1.1229852660104044e-001 3.9618036462640022e-001
      -5.5568904951256333e-003 1.9464582330647690e-001
      4.2168997670624958e-002 -1.0620680537520881e-001
      7.4829572722944693e-001 -1.2370660521856060e-002
      1.1053474949810815e-001 -3.5138498599654577e-001
      3.6338689365617488e-001 3.6173751747163162e-002
      -1.5770255754547677e-001 -6.4255619104375730e-002
      7.8062471883332596e-002 1.2867086334500250e-001
      -2.6436061900086107e-002 -1.7236200942861749e-001
      -2.7193862254989143e-001 3.2022614771994357e-001
      7.7443658046014607e-002 -9.6366254486535616e-002
      -1.2146004200626201e-001 -1.2626358705868229e-001
      1.2614794372461971e-001 -6.4779143754368551e-002
      1.2990738956946782e-001 -1.1944015179921408e-001
      8.8245786027902826e-002 -6.4707257504787286e-002
      4.6094414914392984e-001 4.2843126362151424e-001
      1.5122863172651332e-001 -9.3391641961496782e-002
      4.5075880597047709e-002 -1.3301833460374018e-001
      -6.1566999287642221e-001 3.6925342569588899e-003
      -3.4849265059297092e-002 -1.5467538822002941e-001
      4.6612995960897567e-002 -9.2458315038064745e-002
      -1.6535552348971974e-001 7.2656423812193505e-002
      2.0592859642536465e-001 2.3733925057820698e-001
      -1.2662202678862450e-001 -4.3046939148064421e-002
      2.9105065825782546e-002 9.2702789664078477e-003
      -3.0367612699167330e-002 2.4094762791667299e-001
      3.0742279758617919e-002 -1.2026574232055011e-001
      9.7432778009639408e-003 -8.5721453627487197e-003
      1.1508402635507181e-001 -8.5609620285170204e-002
      5.7485849628673161e-002 -6.9451934752871605e-002
      3.0974176600016740e-001 1.5939486969347241e-001
      3.0207025271523014e-001 -3.0457652086229275e-002
      -2.0956134336484497e-001 -2.2067464863795719e-001
      -9.2669199834277860e-001 -3.3059962675173998e-001
      -7.5470312117739718e-002 -2.9816578471436407e-002
      -9.9363583274997336e-002 -1.2200201929756092e-001
      -1.1581942418229665e-001 1.8134104826112767e-002
      1.1412361270419547e-001 -5.5297126851504251e-002
      -2.1494645585029307e-001 9.5523268746439155e-002
      -3.6937394592689377e-001 3.2683070750063725e-003
      1.2220634010653449e-001 1.9851759410493147e-001
      -3.7521393558176569e-001 -1.3626822774491212e-001
      -8.2905181797141066e-003 1.9794354084407836e-001
      1.2189859758970396e-001 -8.1955151171813082e-002
      -6.6999080068400566e-002 1.9272184682914331e-001
      -9.2087460955463635e-002 1.2878357841801980e-001
      1.5949904504553641e-001 9.3259620060339568e-002
      1.4499277890241341e-001 -1.0519045463446637e-001
      3.3404622437554055e-001 -3.5992619141135301e-001
      -1.1082151939434648e-001 -3.1242122264705713e-001
      -8.2160090510132816e-002 -1.0367458162611412e-001
      -3.6778279649457468e-003 -2.9353892908172663e-001
      -8.5484343882477706e-002 -3.4131841815067393e-001
      -1.3439502501772671e-001 9.8431405003054709e-002
      -1.2968715064202849e-001 1.2508240909760557e-001
      2.3600333900275616e-002 1.3198248997706064e-001
      -1.3346825270672094e-001 -6.9338708922246112e-002
      -1.2487369442126302e-001 4.2619704985296512e-002
      -2.2326821517121129e-001 2.8501120920929912e-001
      3.7423569629736961e-002 3.1902805019552317e-002
      2.0782511959667266e-001 1.8204353960869647e-002
      1.4679992244523726e-001 -1.2304510670275502e-001
      8.7641947943398094e-002 -2.0378413652374239e-001
      5.3135921396863961e-001 -3.3882042486032005e-001
      -1.5624459836792282e-001 -2.1862243083694377e-001
      -7.0237787899853479e-002 -2.9979845812346240e-001
      1.4048108401774839e-001 -9.0695027952110749e-002
      -1.8724958817874332e-001 -1.7354411984651397e-001
      -1.8810124122938590e-001 2.1787678245257716e-001
      -4.5636865883111755e-001 2.0684356978210816e-001
      2.3941756160939801e-002 3.6702370338832307e-002
      -2.7872429306742957e-001 -1.1363995483600044e-001
      1.2525151445624787e-002 -4.7000338200333246e-002
      -2.5060845419914829e-001 2.2020949260521400e-001
      2.2856167675364671e-002 2.3570601801602073e-001
      -7.7089988859608541e-003 -1.8263485878647773e-001
      1.5357476913206469e-001 -9.9304859390932101e-002
      1.1337960625011295e-001 -2.7069908025811246e-001
      3.6989492563162629e-001 -1.1753323447675708e-001
      -2.3752466817503984e-001 -1.0457287281055827e-001
      -1.5071876119980696e-001 -2.4295701342404022e-001
      -8.4578534669733738e-002 -1.1369427559097042e-001
      -4.5513840756454725e-002 1.6005221640186187e-001
      -9.8367200127325749e-002 5.8230923162522236e-002
      -2.1027464105544619e-001 5.4836896909206109e-002
      -2.0724185260315386e-001 -5.1673874392876733e-002
      -1.1348515556584553e-001 1.6879619052959771e-001
      -4.6969315382194669e-002 -3.4330471286535907e-003
      1.0909467430326152e-001 -8.4975853345191907e-002
      -1.9009385853194182e-002 5.0110068147078100e-002
      1.5654384794257123e-001 -1.7203879037058684e-001
      1.3261742571165583e-001 -6.9002553075609027e-002
      -2.3217725972691138e-002 1.1034564415361913e-002
      1.6058171522741185e+000 -5.1042200678495009e-001
      -3.2070752512589440e-001 -3.3434239447184216e-001
      1.4544844800273371e-001 -2.7266898141251777e-001
      8.5286446649271083e-002 9.6674762778007420e-003
      -4.5693296776362130e-001 -4.8637696223415589e-001
      3.7224556844427846e-002 4.4393845614992232e-002
      1.4050131856313670e-002 5.0182595495709983e-002
      1.5125798272238095e-001 -4.6871482989887851e-002
      -1.9158528928705396e-001 1.9989266913563561e-003
      -5.1169183397456575e-002 -1.1100429974051503e-001
      3.1479361387805951e-002 1.7531133254070996e-001
      -1.1799621055325307e-001 1.2232847046879776e-001
      -1.8458778189531847e-002 -3.4578818830503155e-001
      2.6488810290586090e-001 1.0074185196798441e-001
      1.2815206275519664e-001 -8.4732519784650028e-003
      -4.2135251091509179e-001 6.5728991149203109e-002
      -1.6513086495789736e-001 4.3910313597236413e-002
      4.9974051304987090e-002 1.3880268077381500e-001
      4.1485462606498505e-002 2.1221092093695045e-002
      2.4990681887787247e-001 3.8283313225422874e-002
      -7.2082914699682046e-002 -3.0901760158723929e-001
      -3.3785700855867790e-001 7.2809093396706936e-002
      5.5705577680920305e-002 1.3659576877507704e-001
      -4.2038572884196579e-001 1.7528916034494163e-002
      -4.4476051752359138e-003 -1.8689012956479065e-001
      1.4465979555404546e-001 4.1712533820053216e-002
      -2.0012204160211439e-001 4.7320216434687749e-002
      2.7763876746564264e-001 -4.3215071908618813e-002
      -3.3577861432896382e-003 -1.6177168885750312e-001
      2.9188485975088152e-001 -7.5749752564960332e-002
      1.5527898315816788e+000 1.1979836130429984e-001
      -5.3119157069616299e-002 -1.2230855835323221e-001
      -4.1967278685763838e-002 -2.5371632387438386e-001
      5.6777083394958149e-002 5.2441698557418391e-002
      9.6331626713428070e-002 -1.2258259193455953e-001
      -2.2148644854053993e-002 -8.5616222432861225e-002
      -3.3199823947674800e-001 1.3322394684735553e-002
      7.6854592813249356e-002 -6.2294904483353522e-002
      8.0790407024454003e-002 1.3086967718436707e-001
      1.7188688304651860e-002 -1.3727183871755727e-001
      -2.5741103856523107e-001 2.2272396779033654e-001
      -7.3388897080857010e-002 4.7675625789078892e-002
      2.8899214577731053e-002 8.2582308464126432e-003
      -8.6045568839911157e-003 -1.9521633948427572e-001
      1.0405705235989965e-001 -1.4267763521989871e-001
      -1.4781783230854404e+000 5.1009659583752316e-002
      -1.1081909366202017e-001 1.6725221597937037e-001
      -5.3810976392661225e-001 1.6909286569313883e-001
      3.5154584106726355e-001 -7.8722453212759391e-002
      2.0941480919923222e-001 -4.0420200669268568e-002
      1.9395651947639986e-001 -2.8142632082231789e-001
      1.4375076352689639e-001 -1.5069497676494115e-001
      -1.4340394473860671e-001 -3.2820896511840697e-002
      5.7604134264280005e-001 2.7231259205958530e-001
      1.4529303761702589e-001 -2.2123672509178854e-001
      -8.4688852979586018e-002 2.3150889074219243e-002
      2.2520898324029259e-001 -4.0745619414997819e-001
      2.7358429806833251e-001 -1.9979458464763508e-001
      -3.0214324542908292e-002 -3.9498369779070402e-001
      -1.0222488215523670e-001 1.0424462701464048e-001
      3.2229319861772748e-001 -8.9226641732984932e-002
      -1.1862728447274923e-001 4.6564434121707590e-002
      -1.8058595935709582e-001 1.9421005101943084e-001
      1.8494129703222589e-001 2.3689413563941112e-002
      1.2555160090142836e-001 -2.4388423215587540e-001
      3.1820822144985728e-001 -1.5770765168143241e-001
      3.1145063307435944e-001 1.0053931560751886e-001
      -2.8237193036249281e-001 -6.3069378799364820e-002
      2.8308955277387371e-001 1.3679134465487960e-001
      5.7086890780868975e-002 -6.3957312815613870e-002
      3.8938755422287051e-002 -2.2207527244545180e-003
      2.4232473098330223e-001 -2.8396441356867419e-001
      2.3529007591000450e-001 -2.1172825613632325e-002
      -4.7534757329191150e-002 -3.5215822244237777e-001
      3.7973092331595432e-002 2.4354385514971286e-001
      -4.4805165764364824e-001 8.8357916113641938e-002
      2.5785729512084885e-002 -2.2449389379409587e-001
      -2.1714654280924364e-001 1.5647069763992428e-002
      -6.7039965832865200e-002 -9.3996248343145267e-002
      4.9217084072405504e-001 1.1552266421719248e-001
      3.8277508735248926e-002 -7.6447808967840467e-002
      -7.3972671555958868e-003 2.4876818145743222e-002
      -3.3265962926201292e-001 2.8027501749551870e-001
      3.2489647573187425e-001 -5.1553486246101055e-003
      1.8834415548790862e-001 -6.6570415186239212e-002
      2.6858490736811280e-001 1.2891264002530956e-001
      2.8915132450047659e-001 -2.3832200038895324e-001
      1.5528814021223200e-001 1.1284587992811426e-002
      -1.7247512561425357e-001 -3.2381207872230677e-001
      8.1022982712550696e-003 1.1207218329333307e-001
      4.3470932191971079e-001 3.9506254819385758e-002
      1.8354308261675062e-001 -2.2390987439016183e-001
      -2.6529797867864297e-001 1.2938976749707934e-001
      1.6740277119008243e-001 9.1793377139837720e-002
      2.2256151569211055e-001 3.1188244649703939e-001
      -2.9378075117014932e-002 1.8320986898363772e-001
      -8.9492487886547095e-002 -3.5233143312223283e-002
      -2.3598455902495438e-001 3.9244912936276027e-001
      2.4811705512323456e-001 2.0464671824476335e-002
      2.3470556445778123e-001 7.6660448370384118e-002
      -8.4670068402016671e-002 3.1677433806645217e-001
      -4.1573994515602654e-002 2.6703845221499014e-002
      6.3511458833929973e-002 -1.0920939029194045e-001
      -2.1114632324457672e-001 -1.7453094732114591e-001
      -2.3099503705313584e-001 3.3704196806848975e-002
      1.1173635349715152e+000 7.9793414431633680e-003
      1.6430674536586465e-001 1.2113006144484890e-002
      -1.8312792425093416e-001 1.4657268375955598e-001
      2.5923284140801650e-001 2.1915564244944249e-001
      -9.2246445391193768e-002 6.2610363959089740e-002
      1.3845407712822294e-001 4.3107797594181201e-002
      1.5259114914652616e-001 3.4757232672533209e-002
      -2.5822403559584334e-001 1.4214036158874868e-001
      1.0936238288947053e-001 1.1325098064913997e-001
      -2.2242821266940060e-002 7.1545721761977030e-002
      1.4111456386475812e-001 1.8104472509516922e-001
      -2.4496212545992964e-003 3.4612656114238576e-002
      3.1239457371568558e-001 -2.3337846907755241e-001
      -9.9632202098921138e-002 -3.0566385337765722e-001
      -8.2768844352071519e-002 2.5448140956154913e-001
      -5.6362649538162302e-001 -1.4963281733860595e-001
      -5.9840279927204964e-003 4.5486437918125261e-001
      -1.7739042161571017e-001 8.0941318363224699e-002
      2.4462050095095364e-001 1.0756842435571999e-001
      -1.6466579160993286e-001 -2.7139860933878562e-001
      2.2097844625919097e-001 2.8055817415922901e-002
      3.0387034697634990e-001 1.7161713333872572e-001
      -3.6908542844640402e-001 -1.4513972820337684e-001
      1.6485570451396794e-001 1.2171630398841032e-001
      2.1968411321840442e-001 -2.1790261882805190e-001
      2.1149174029274347e-002 -7.8213281140563098e-002
      -6.1626440584284334e-002 -3.9143948047493299e-002
      4.1523064691067418e-001 -3.1630461005159016e-001
      -3.7614043752368248e-001 -3.4829882176928334e-001
      1.2879196068535598e-001 2.9726990494872818e-001
      -1.3322249365397110e+000 -9.1887598695287162e-002
      -8.8201380111613659e-002 5.5736506891353688e-001
      3.8285108685214737e-002 -1.1393905476050986e-001
      1.3125587222640031e-001 2.2256236666249055e-001
      1.1775082394865674e-001 -5.3389310726907870e-002
      9.6649179613768121e-002 3.9429715918459602e-003
      -1.9127059198901070e-001 1.3245033366815076e-001
      -1.8097489140849640e-001 -2.9353801651640693e-001
      -1.4337236313075330e-001 6.1729786044445928e-002
      5.0132764689793628e-002 1.6540109049185719e-001
      4.4662273033325572e-001 -4.1190901251487839e-002
      6.6808492068575032e-002 1.7103154102347151e-001
      7.2382568170122105e-002 8.7405315699183583e-002
      -1.5710964467789176e-001 -2.0551772438680838e-001
      1.5184203839897462e-001 5.2376022140346964e-002
      -7.2264863143242641e-001 -1.3304697288101899e-001
      -1.2980350244389813e-001 2.2757395449752127e-001
      1.0744835944118607e-002 4.8394266057340062e-002
      3.9777250471553488e-001 -1.3657194081854526e-001
      7.3112303799374945e-002 4.1675818672743109e-001
      7.2012861412064588e-002 -4.2521902950817994e-002
      -3.9550671914112212e-002 -1.6315430102573000e-001
      -4.8096706667358197e-001 3.3350475448220551e-001
      -6.5929765056917694e-002 1.1958880530675464e-001
      -2.5055069750503728e-001 2.2582368232808275e-001
      2.9316899763476856e-001 2.2708902669476777e-001
      -6.5272641358046654e-002 -1.5513510276697576e-001
      -6.4509683902823894e-003 -4.0332673990296407e-002
      9.3318776829595065e-002 -1.3734172579604584e-001
      -1.9410120006479445e-001 -1.8468751412226505e-003
      -1.2476423667981695e+000 -1.6034204728518539e-001
      8.2319300421207456e-002 -8.1336684242718255e-002
      1.4857482563057082e-002 1.0673998472377501e-001
      2.9931425301814968e-001 -2.6855589624470205e-001
      2.2178017545990900e-001 3.0207178145686137e-001
      -1.3496152124155822e-001 3.5829665429835511e-002
      -4.5834237536629359e-002 -2.7527853858076445e-001
      -1.1042449250988622e-001 1.3444759351036614e-001
      1.8304033444879259e-001 -6.8379741673389824e-002
      -1.7462514576580951e-001 3.9131405779476776e-002
      -3.8204555024466617e-002 -3.6738174861093160e-002
      -2.5627857683987877e-002 -2.1845872182318785e-001
      -1.2873752546082806e-001 -5.3048439162321166e-002
      2.9604658107059945e-001 1.7066390652848112e-001
      -2.8019481380049810e-001 -2.1292177191405565e-001
      -2.0507743208629257e+000 -3.3770314216323005e-001
      2.0661328268741602e-001 -3.4684581485276128e-001
      4.0796197127947208e-002 -4.1762576037346164e-002
      3.4024504810117501e-001 -5.0298698425961597e-001
      2.0104463380758220e-001 1.3355268058452862e-002
      -2.3685290930581127e-001 1.2152559662895955e-001
      -1.3750085391605438e-001 -1.3066239796617066e-001
      -1.5376771885389451e-001 8.9871629821722754e-002
      -6.6826773320576589e-003 5.9222799054232264e-002
      -2.4568711496983892e-002 1.0205286057533075e-001
      -2.4334894383599817e-001 1.2418052336109554e-002
      1.4359371488994410e-002 -2.2022846489462614e-001
      -3.7156196707256395e-001 1.9794935392317067e-001
      4.0177508417410697e-002 1.2660053007310160e-001
      -3.9810165742419322e-002 -2.3027562833608972e-001
      -1.5512957661840339e+000 -2.4654169162151673e-001
      -2.2705247312252781e-002 -7.3012844646310679e-002
      -4.7659671154107817e-002 2.6527226839551223e-003
      3.1093969136729299e-001 -8.6816835440689535e-002
      -2.3296258098904947e-002 1.0268988547325202e-001
      -8.8251666276016813e-002 -2.3402821478245578e-001
      -5.5655385672302785e-002 -5.1260624876718369e-002
      -1.1292753242228201e-001 8.9341653219537111e-003
      2.1239136616987481e-001 3.3729937443883207e-001
      -2.6006414692371013e-002 -9.1761703946935391e-003
      -1.6810500863543593e-002 2.3862837981790404e-002
      5.2646248650084049e-002 -1.6776558783149501e-001
      -1.8170139247667527e-001 -1.5024422242453045e-001
      2.1442705275038176e-001 -3.9390740964432160e-002
      -1.5517110017870525e-001 9.3127649378047124e-004
      -1.5989144908400563e+000 1.1955284571471800e-001
      -2.4333078167042096e-002 1.4006387385077121e-001
      -8.6368409680000702e-002 6.5525521141205009e-003
      2.6455310201268900e-001 -1.2389960612099096e-001
      -1.0324217901775300e-001 -3.8083392816200184e-002
      7.3856614695800057e-002 -3.9769074509112373e-001
      -1.8960393093157314e-002 9.1942291593235609e-002
      -3.2085658463422823e-001 2.0206309714352506e-002
      1.1410338569809574e-001 2.6726419207942842e-001
      3.8615948881671046e-002 -2.4475351004884435e-001
      1.8904764143386005e-001 3.3148200473605949e-002
      3.1449331833208125e-002 -3.3551383105413340e-001
      2.7864413042387481e-001 -2.9415166692764064e-002
      9.1096123880087740e-002 -2.3859324987519501e-001
      -7.4441962810967058e-002 7.9340492316718622e-002
      -1.1665548632615159e+000 -1.4605352302985611e-001
      -2.4593315114151618e-001 9.5434998196713659e-003
      -1.3391824511852302e-001 -9.9261324601366163e-002
      2.4627148512572186e-001 2.7836799813518012e-002
      5.2621079764143701e-002 1.0485027954473737e-002
      4.4837437582422535e-002 -3.7058720126642258e-001
      8.9401512378135775e-002 9.3793380185899000e-002
      -3.3439375058090604e-001 1.4715098057671061e-001
      2.4099026464493126e-001 3.6456259733300828e-001
      6.2050953057017189e-002 -1.7418080476489342e-001
      -8.3501273116191668e-002 3.3898830287768217e-002
      3.8463750048551348e-002 -2.2631642809548239e-001
      1.1028379968607195e-001 -1.4731260165460366e-001
      1.2629588289542529e-001 -3.1348021203439236e-001
      -1.4537145155717548e-002 -1.2688345473223003e-001
      -2.0472308659749916e+000 -1.3919254403816389e-001
      5.9744769244786576e-002 1.8750114566054282e-002
      2.6084175025580390e-002 -2.3635063517537810e-001
      1.2512188900690738e-002 7.4516471168274881e-002
      -1.6431140985685633e-001 -5.1264890049832923e-002
      -9.0973079940540338e-002 -1.3935261479350194e-002
      -3.1588084362081978e-002 -8.3245551765735643e-002
      4.9736531127682920e-002 -8.8230157914218121e-002
      3.7804622353577684e-002 4.0223008477831633e-002
      4.4193543798870069e-002 -2.1832425590948513e-003
      1.4503546915286622e-001 -1.3994652147074804e-001
      5.7865796342586234e-002 1.2750654710349568e-001
      5.2122540886113594e-002 -2.1726577647219075e-001
      1.7741223380007701e-001 -6.8769682521092140e-002
      7.3499120020744130e-002 -1.1918367410038354e-001
      -1.3249317621415613e+000 -3.5213265005986774e-002
      1.8069152850965683e-001 -1.6261746863922255e-001
      -9.8813311191533526e-002 -3.0931873648602953e-001
      -9.0506329479602618e-002 3.0505848193868305e-002
      -1.6360502167746285e-002 -7.1040313134393837e-002
      8.6378025450938815e-003 -4.1872737368326120e-002
      -7.6800172126493926e-002 1.2620589059434117e-001
      5.6123408220886940e-002 1.2064420862270730e-002
      -8.7894507216586690e-002 -1.9828977510904008e-003
      -1.1714919582768407e-001 -2.3580622873713414e-001
      -8.6513041059510673e-002 -1.1931062579591749e-001
      -1.0192626884482588e-001 1.2912255364646610e-001
      1.1624056186363056e-001 -2.5752138172908035e-001
      2.9085527423415408e-001 -4.3637938292147405e-002
      2.4240617575729981e-001 -7.5141072220086105e-002
      -5.7605389374725358e-001 -1.3837330837702985e-001
      1.2215054429843428e-002 -3.8465217402568486e-001
      -1.6393020274807699e-001 -1.4405580581769667e-001
      -1.0288298960834887e-002 -1.5145689101133558e-001
      -2.1110274394201922e-001 -1.0968859365376044e-001
      -1.4881049247997757e-001 -7.2227954917116852e-002
      -7.2570174047700844e-002 -1.0394854491168529e-001
      3.6433411578982819e-002 -4.7150117648245247e-002
      1.4396252398144849e-001 8.0806454544654557e-002
      -1.4371436545697650e-001 -1.4312606452835241e-001
      5.6036115113814358e-002 -9.0308491466332533e-002
      -1.7187288751399457e-001 -6.1971029802907578e-002
      -2.0898530163122108e-002 -2.1051026759674313e-001
      2.6909413335782784e-001 -6.1649108362883315e-002
      6.6062017620999128e-002 6.4719886755265341e-002
      -8.0623682719147416e-001 -7.9065046256968502e-002
      1.4044684623170539e-001 -3.9216930936715400e-001
      -2.1640364330597681e-001 -3.3688519823969816e-002
      -4.4719018788206895e-002 -4.5031982668516291e-001
      -2.5169396163184699e-001 1.5057287168617670e-001
      7.5909637163485991e-002 2.2266268016595250e-001
      -3.5646735778950905e-001 -1.2709080250658455e-001
      1.4999396547645982e-001 1.3677290473981760e-001
      -1.0981629564016424e-001 3.3885254182488106e-001
      -2.1365252489712921e-001 1.3729484541658649e-001
      -3.8837543315435069e-001 3.9311171081115476e-001
      -1.7159069344408723e-001 2.0095596230045461e-003
      -2.8138197327441106e-001 1.3102390614593415e-001
      4.6333598314776164e-001 1.7556405804105499e-001
      -1.1792817077463473e-001 -3.9999882407750764e-002
      2.1596330990085491e-001 -2.4363322926596725e-001
      -9.6213598099447462e-002 -1.7554323887962814e-001
      -7.3296608884043907e-002 1.8955494448073032e-001
      9.5579132043602133e-002 -1.8389467056723244e-001
      1.5622350503783114e-002 -5.8956622842064717e-002
      6.0759501502313920e-002 -4.0740530959029519e-001
      -2.9365660700044604e-002 -2.6620775311348904e-001
      4.6885023347141832e-003 -1.1216324323655236e-001
      3.2824461226335111e-001 4.0430520538663604e-002
      -1.5856746928181889e-001 -9.2244391623218194e-002
      -1.5723776656779120e-001 6.4739130333969525e-002
      -5.6831934186980328e-002 -1.1524668254695462e-001
      -7.2274364873763583e-002 -1.1616844521268889e-001
      2.0707101884377563e-001 1.5424051218968124e-001
      1.1252754504672607e-001 -7.8212865940003179e-002
      2.4135299934393464e+000 -1.7538464328515985e-001
      -1.4801585229833328e-001 -8.8797403028789357e-002
      6.7545203425187647e-002 1.8549632448392023e-001
      1.0429041682351455e-001 -1.0363959491496183e-001
      1.0271813528656792e-001 -1.1649638374738674e-002
      1.4526001609089062e-001 -4.2129755439421651e-001
      1.5012149260603783e-001 -2.8523747633161189e-001
      6.0599725143449489e-002 -4.1049316298511725e-002
      2.5308332427800517e-001 -1.7501368439568531e-002
      -2.4697381892728598e-001 -2.0034368082836396e-001
      -1.5169333903310228e-001 5.7662648034606676e-002
      -1.5523544897397740e-001 -1.7056222098416837e-001
      1.9293955874077967e-001 -1.0902042176240487e-001
      1.3942714633938749e-001 -1.6537758647340847e-001
      1.4037250107273413e-001 1.2629410482859859e-002
      3.0113363090624587e+000 -2.2058663588073266e-002
      4.9473332519576224e-002 -3.4669319623591634e-002
      6.9138022441822301e-003 -8.2218256632812028e-002
      1.0427832249430530e-001 1.1825341649347589e-001
      -6.9964173464102358e-002 1.6496475111209558e-001
      3.2680680703698312e-001 -1.3320768641740402e-001
      3.3205371021194441e-001 -1.1383825796270411e-001
      7.4258094340487690e-002 6.6948111415244772e-003
      6.4057008484836375e-001 1.1846617432873947e-001
      -2.1093489986877709e-001 -1.2087693788760236e-001
      -3.1895929298334619e-001 1.1237851802033409e-001
      1.0480953438745901e-001 -8.8900780499878099e-003
      5.7636495391047503e-002 -2.5773614308371112e-001
      1.9907141975278869e-001 -2.0939838747895803e-001
      3.3252821035602800e-002 -4.1938869464590994e-003
      7.8567941034589928e-001 -9.2777541423038137e-002
      -2.5101793466179273e-001 1.2171023604890178e-001
      -4.0767245376426048e-001 1.0992471918716436e-001
      2.0401360968153243e-001 5.6159308057275446e-002
      2.6677181227058372e-001 9.4371956959554415e-002
      8.0436746669822770e-002 -8.2887211316315615e-002
      2.5040342399556520e-001 2.7126305298647875e-004
      -2.5898146239405262e-001 1.4266857455946841e-001
      9.3095057632405290e-002 3.0084400838599035e-001
      -2.1783438093628332e-001 -2.3242266763597255e-001
      -2.5600376833580774e-001 -2.3779023728042153e-001
      8.7575914860088103e-002 -3.0325513420664479e-001
      3.9968584008509817e-001 -8.1562519834876904e-002
      -1.1961457067314842e-001 -5.4066214443045457e-001
      1.0413760023878292e-001 3.1881330447493084e-001
      -1.1007827345830838e+000 -3.8217469985469443e-003
      -2.7018327183096941e-001 -7.5058918669960589e-002
      -2.9565650712923075e-001 -1.8666261446673027e-001
      -1.4989531638058096e-001 -1.8640126539235449e-001
      -1.1047443780285660e-001 -2.2411939230264291e-001
      -4.1974592412791334e-002 -2.1192561538483146e-003
      1.0042070710013704e-001 -5.7498952046560123e-002
      -7.3096019680298899e-002 1.3779239424944006e-001
      -4.7198011827828922e-002 8.0706559889962406e-002
      -2.4625041972810083e-001 -5.4061657586095303e-003
      7.1169177933740266e-002 -1.2682552236473038e-001
      1.4600060271578208e-001 -3.4027659361552420e-001
      1.1923622597820352e-001 9.6622331607066486e-002
      6.7773375784382042e-002 -2.2886989107652588e-002
      -2.1236987026577760e-002 2.3475222689065506e-001
      -4.9718334440534301e-001 -1.2501685274525831e-001
      -1.2887280036581639e-001 -3.3105282453649559e-001
      -8.0237469525076932e-002 -1.5874302049799141e-001
      1.9171816326493912e-001 2.6080246543549068e-001
      1.3778801243488839e-001 3.3805580810194878e-002
      4.5205900496352612e-002 9.1716749158222768e-002
      1.1065800998844001e-001 -9.6742139147717801e-002
      -4.0927484309102757e-001 2.6191314086664863e-001
      5.9711927987068675e-002 4.5099620048791873e-002
      4.5775201646676327e-003 1.0774087913407862e-001
      3.8708575013739516e-001 -1.5041360346701571e-001
      2.3541919109948900e-001 -3.4877739774892079e-002
      3.6426600915192009e-002 -8.4868087433073641e-002
      -3.5223948509733460e-001 -2.1800312257573717e-001
      -3.8333541469222639e-002 1.2394818767953614e-001
      1.2248531438971322e+000 -2.0735969622052755e-001
      -1.8439510724061037e-001 -3.0605687700619627e-001
      4.1836193246005737e-002 5.8322596113891826e-003
      -6.7174968201193674e-002 6.2707654088167128e-002
      2.9667415333546714e-002 -8.0954074861176589e-002
      -1.1529290970393861e-001 9.9519257681479664e-002
      -8.2935116124288628e-003 -7.0898716332127618e-002
      -3.6277349225363035e-003 8.9887482219580830e-002
      1.1538607259759068e-002 -6.4145677868894177e-002
      -6.0436930663637915e-002 2.1061579479052980e-001
      2.8249266026037578e-001 9.4220254022747515e-002
      1.4511046902851496e-001 8.3910019172768260e-002
      1.5541045023453314e-002 8.1522490721407673e-002
      -1.4730047067783608e-001 -7.1790788618941226e-002
      -2.9989808690999882e-002 4.7608700779163758e-002
      1.4777399178929629e+000 1.5000563365804179e-001
      -6.2718239999681027e-002 -3.3904397995658586e-002
      9.7682179174282638e-002 -6.8532977178015000e-002
      8.3349286566033423e-002 4.2781187765024466e-002
      -1.3006078300594151e-001 -3.6323517327983480e-002
      6.9277900692085587e-003 2.1690420085663953e-001
      9.9490917122683330e-003 9.2746823095901335e-002
      7.4459126355322092e-002 -9.4710814422464248e-002
      7.2151039524948044e-002 4.0681437922037156e-002
      6.0673805807472010e-002 -1.8681674302303972e-002
      6.1952101854828204e-002 3.2926744068244508e-002
      1.6045146648122294e-001 -4.4778886061383610e-002
      1.6737395510169945e-001 -2.4103386798957468e-001
      4.3372444050995697e-002 7.4715513302503131e-002
      9.5926234354175036e-002 3.1894558606217122e-001
      -3.0247749347210895e-001 2.6653705819370721e-001
      8.6039315037430633e-002 -3.6988087332678818e-002
      1.1241648830584601e-001 -2.1538031594531097e-002
      -1.5703701535875877e-001 -1.8632159724146315e-002
      -1.6067900469194318e-001 -1.9343481543139207e-001
      1.1087580118916512e-001 3.5267375795074435e-001
      -2.0733759156480705e-001 5.9629564619857300e-002
      2.3950571423634989e-001 -2.9761643133057875e-002
      -1.4622840558843289e-001 1.2586876683079107e-001
      3.9039567465245473e-001 -1.1803286226792023e-001
      -1.2595100319308042e-001 -2.9277806220234188e-002
      1.6125112954087475e-001 -1.4333149790055269e-001
      2.4100456073995188e-001 -2.4274597752463259e-001
      5.3875577875447411e-001 2.8762325613705436e-001
      9.4799348908078437e-002 2.9136957870269892e-001
      -6.9464601663966315e-003 -1.4087461331651840e-001
      -1.7921804999001575e-001 2.4145369641257350e-001
      2.4016780953869599e-001 -4.3927178896037977e-002
      7.1843516915037651e-003 5.2678436609185461e-002
      -1.5592470355870203e-001 -2.2584940805439727e-001
      1.4237818853225098e-001 -7.3536141262480685e-004
      -2.7023853437939033e-001 1.1866561483650816e-001
      9.1106358150110936e-002 -2.9952428185607449e-001
      -2.8985526518247801e-001 9.3905908378697674e-003
      -4.2175671137194767e-003 1.3254660500545765e-001
      3.2973873672742937e-001 -5.9726236750995740e-002
      1.8268369881069552e-001 9.5792680209660114e-002
      -1.7824632000710081e-002 1.4224115960172510e-002
      9.7720662086179272e-002 4.6044489811833601e-002
      2.0390866695084922e-001 1.9739129376184819e-001
      1.1614546721750416e+000 -1.4145080514715772e-001
      -2.5164739661060725e-001 7.2818800045636942e-002
      5.7521726527776087e-003 1.9318010311548253e-001
      2.9287992814693103e-001 -2.7884132038031251e-001
      2.0070065576340106e-002 1.1888347865798714e-001
      1.3415753635608382e-001 -1.7384434420265574e-001
      6.4669507738579754e-002 -1.9166844742162317e-001
      -4.2199725043906677e-001 1.2784435046285139e-001
      -1.1501427054099216e-001 9.1539553324030097e-003
      -1.6286635672881181e-001 7.5152684848120266e-002
      -7.2962094527458790e-002 2.9264672604227573e-002
      9.7441173192239300e-002 -1.4887386286297391e-001
      -7.7262857799102802e-002 5.9722689309482060e-002
      5.4121103663057724e-002 -1.4530513869735168e-001
      8.2688631121187295e-002 6.1353349026435140e-002
      1.3776822716906676e+000 -1.9618427683994372e-001
      -2.2750384056510697e-001 -3.0275675877812103e-001
      2.2301822438896993e-001 -1.0169373917533731e-001
      -2.6401830908779799e-002 1.3039169749232773e-003
      -2.3993019193784376e-001 -4.0629130531102689e-002
      -1.6466068595648231e-001 -3.9115858891333267e-002
      1.1343402784076835e-001 -3.2617836965831754e-001
      -2.7692062611270069e-002 -8.4664412786750798e-002
      -2.3344294333329030e-001 6.9319291331347649e-002
      -8.5712808643010785e-002 3.8814452980187097e-001
      1.8765235459151969e-001 -4.9509545130114400e-002
      1.0280448523949963e-001 1.8621136258232479e-001
      -3.1426577833424979e-001 3.1747696540664622e-001
      7.4209271785339273e-002 9.3485264754092925e-002
      2.4117660280716197e-001 -1.3100711071582657e-001
      1.4945899035819492e+000 -2.0143995183923014e-001
      -1.8826169560036726e-001 1.5717775037006185e-001
      2.6339126478932995e-001 -1.1485680282808568e-001
      8.9721948793715769e-002 7.7578133575114602e-002
      3.0798194793893910e-002 2.2268099100453548e-001
      -1.2667628645673493e-001 -2.5373092784459439e-001
      2.9002678251065733e-001 -2.5819255797959684e-001
      7.5049378512513244e-003 -2.3374510160253537e-001
      -2.1205006734017042e-003 1.2475088717519710e-001
      9.1756140324115110e-002 3.1480858416288526e-001
      3.9667626961406285e-002 -2.7196732423443748e-001
      -2.0550409049896499e-002 7.9217802263974887e-002
      -4.4814012257960989e-001 9.9533953629176289e-002
      -7.3527749187214317e-002 9.5767931701586748e-002
      3.0629078173830160e-001 -2.3726221130488423e-001
      5.2660663865181423e-001 -4.1788396876067363e-002
      -2.2935756309105154e-001 1.8952799198290032e-001
      -5.1888739698528571e-002 1.0277158133051455e-002
      1.7460160891081869e-001 6.3014469276263738e-002
      7.6609060664846768e-002 3.1679682980372265e-001
      4.4145560232718220e-002 -1.6267119727349463e-001
      6.1751414218833948e-002 -3.8625138987612946e-002
      -1.4527574277317051e-001 3.2661865205299859e-002
      9.7594649904639320e-003 3.2252278897705317e-001
      3.2015733794546843e-002 -5.6758494707864718e-002
      -9.1229149104236781e-002 7.5658072893033751e-002
      4.9197505476115046e-002 -2.7182425183873421e-001
      -2.1187324831369089e-001 -8.7911896125757033e-002
      -7.0469358843153335e-002 4.3351657196407406e-002
      3.0168858984071922e-001 9.3017416870871908e-002
      -1.0422176173887368e-001 -6.3773806969793581e-002
      -2.8977624980656469e-001 7.1335767951848456e-002
      2.0903835744746187e-002 -9.7722426563638540e-002
      2.4899772934399680e-001 3.8259997433549485e-002
      -1.7985133182949434e-001 1.5099825616037225e-002
      -6.1059843921614336e-002 -2.5288692121939393e-001
      -6.8938015548544479e-002 6.7133325435304814e-002
      -2.4061794351098828e-002 1.6252787284217712e-001
      6.1784289509399078e-002 3.8505977967867283e-001
      -2.7062953518303767e-001 -2.4326065025357682e-001
      9.8213955796321903e-002 -1.2279305042845844e-002
      -5.8605259641482811e-002 -2.0601043908648706e-001
      -2.7199958791497703e-001 -4.5019664655864518e-003
      2.0051009276529558e-001 3.3334451252671354e-001
      -7.7574177753111278e-003 2.3544652077538156e-001
      2.8702290666436991e-001 -7.3620542634451211e-002
      -5.5409315463391513e-002 7.8406180973990061e-002
      2.1959778063896099e-001 -2.1773436953927369e-001
      -1.3858899947267786e-001 1.0197014248040186e-001
      1.9073961833396567e-002 -2.3764358578959413e-001
      -2.7459080306249173e-001 -2.5588786309308909e-001
      -1.1060088180345026e-002 7.5244017641616229e-002
      1.5255958120003166e-001 -1.4643334784588707e-001
      -5.1659730110393753e-001 5.8339630188184770e-002
      -3.4032716222869928e-002 3.6639578673413949e-002
      1.8248706022376429e-001 -1.5498630839506056e-001
      -2.7701764232021009e-001 1.7592508774790633e-001
      -1.3901302063468221e-001 1.6585030436322834e-001
      1.0539126550701441e-001 3.3340878730245938e-001
      4.9204509454049117e-001 -4.9913469798010222e-002
      -1.6304049264191673e+000 9.3776222593865435e-002
      2.3101451144737498e-001 7.5640942181648269e-002
      2.2365760264299500e-001 -2.3909651900447595e-001
      -3.4083573067204376e-001 -1.2120131275859622e-001
      2.0021052029197219e-002 1.7809443119729815e-001
      -2.4046947173721367e-001 2.9034684168106360e-002
      1.0756828698139148e-002 5.4340387431423956e-002
      3.0795720933955745e-001 -1.3256762965360191e-001
      -4.4468105864312102e-001 -8.9286039133727041e-002
      1.5478639086723664e-001 1.5244877597997067e-001
      -4.0408735534067396e-002 1.4836138976757707e-001
      -1.2387244747984624e-001 2.9877292185783277e-001
      -1.8078375699506677e-001 2.1635124075464879e-001
      1.0288894970896292e-001 2.6001426036027436e-001
      2.2225262180030397e-001 -1.7804308640624436e-001
      -1.9091337738944132e+000 1.6223546345254233e-002
      1.9325260448689036e-001 -1.1681549158910108e-001
      -2.7174195135095142e-001 8.8722468666855014e-003
      -2.0031022282183988e-001 -1.5242937815308558e-001
      -5.6623636727262351e-003 3.7614634361526589e-001
      -3.7090506503643661e-001 5.9358648153637887e-002
      -1.8695366210862072e-001 -6.7742522904758407e-002
      -1.1476712366384933e-002 4.1104352720252882e-002
      -2.6704676561925095e-001 -7.2603800098711299e-002
      -1.0589430733919374e-001 -9.3063063251664149e-002
      -2.2907685082268145e-001 9.3601789914039904e-002
      -7.0409567365863762e-002 -3.5262724884123414e-003
      -1.0270401865596837e-001 -1.8278543507354533e-001
      4.6090352709545185e-001 5.8940286218988905e-002
      -2.8958961207379985e-001 1.9173689442634448e-001
      -1.3723805945152798e+000 2.7173280460133058e-003
      1.8591819203852891e-001 -3.3616843355274439e-001
      -2.3135143491417090e-001 3.3263770241808854e-001
      -3.0249119511242800e-001 -3.2751562972190046e-001
      8.2340437108810671e-002 2.2657081274161245e-001
      -2.9418199253680211e-001 -9.3360089750131950e-002
      -2.1549967756897512e-001 -2.0691340248317425e-001
      -1.2330372356892254e-001 9.8335720436155891e-002
      -2.2996809558369224e-001 -1.0566515585774516e-001
      -2.3451995272739859e-001 -2.8166903284783561e-002
      -2.6245744543144883e-001 2.6581996202053437e-001
      3.2764542208876861e-002 -4.5861655660884286e-002
      -1.5908722521370458e-001 1.6914362343830433e-001
      3.3719150551709071e-001 1.4443856151952064e-001
      -4.3575533155702145e-001 -1.0788892051654744e-001
      -3.0175700755743343e-002 6.8323653825342431e-002
      2.6837939093768259e-001 -5.5503430643541940e-001
      1.7448584882258950e-003 3.5715230735281034e-001
      -6.1865982893836802e-001 -4.1498313507174578e-001
      -1.8574622308465319e-001 1.4354808255660415e-001
      -2.3857989720268863e-001 1.2722939285645438e-001
      -5.0856810430157506e-001 -9.3971555251407476e-002
      2.6006808619291327e-001 5.3307744883909275e-003
      -6.2525465194969632e-001 -1.4263483342750571e-001
      -1.6934158548632655e-001 4.5957701686766356e-001
      7.7580151671703262e-002 7.6107320825677871e-001
      -1.5882053538006043e-002 3.4015365317177637e-001
      -6.3387496009152139e-002 6.3985005050550270e-001
      2.1553637222752278e-001 2.6876587026975229e-001
      -1.9029399340861908e-001 -2.9434500838641159e-001
      7.1598830792254031e-001 -1.0021925828927161e-001
      2.2426260817764990e-001 -2.2268001810044204e-002
      -3.0031159348032358e-002 3.7699351813742155e-001
      3.4928316948912651e-002 -1.4456559526790427e-001
      5.1474132100965773e-003 4.0224852088883106e-001
      2.7900834327872126e-001 -3.0975725165117823e-001
      -1.5434545506365827e-001 -5.7758324596642630e-001
      -2.2196910962908281e-001 -6.6057536252801752e-002
      2.5842784699864513e-001 -7.9419227745888762e-002
      -4.3630400645106093e-002 1.0158033291471913e-002
      -1.3845389987678503e-002 -5.2565203675643844e-002
      -7.1714901120535218e-002 -1.8131283606191778e-001
      -1.2936288232128429e-001 -2.1365315637816859e-001
      1.5094294249725626e-001 -3.8025679505782603e-002
      6.2755513833603902e-003 1.0344667141919036e-002
      1.5072814027655552e+000 -3.0985682661555242e-001
      1.3415065883675477e-002 6.1678486694967560e-002
      1.3037459591879683e-001 6.8581356492265655e-002
      2.8793014143359297e-001 9.5619165029838346e-002
      -1.9935732542200402e-001 4.9005593869956739e-002
      5.6784808300119760e-001 -1.9964345941577422e-001
      2.6538621106519877e-001 -3.4057839463990142e-001
      -2.8259623103665860e-001 -2.7562287579060069e-001
      4.0791778833055403e-001 -7.1395813540447925e-002
      -2.3885334016178772e-001 -3.6727359901146082e-002
      -1.8440748851016478e-001 -2.7624446331619576e-002
      1.7406149498224530e-002 5.9957885170541951e-002
      -2.6385433084012078e-001 -1.4864778288458383e-001
      9.4253227094424935e-002 -8.5120405491669979e-002
      3.7602738919052345e-002 -9.9050415130150143e-002
      2.2957228247700456e+000 -1.5320894481316291e-001
      7.2868568155566499e-002 -9.3691785952456190e-003
      2.4905012719780098e-001 -1.4578136534581754e-001
      -1.2920127635275466e-001 1.6382886688691053e-001
      -1.3358017406898851e-001 -7.7221963672776422e-002
      2.9443581133210400e-001 1.7076672725729725e-001
      2.6123501504588753e-001 -7.7309528572362424e-002
      1.7746834107657530e-001 -2.5521784869422431e-001
      1.9214902590498334e-001 -2.7015713383322856e-002
      3.8452078019583689e-002 3.1984719057811639e-002
      -2.1837302348728416e-001 -2.3099755158675936e-001
      4.4805969226398096e-002 2.0333800677604733e-001
      -1.2380476613365730e-001 3.3255087790649375e-002
      1.6227401373891717e-001 -6.2000423183317638e-002
      1.2650788563990789e-001 -2.7534540720657460e-002
      3.7788240892175054e-003 1.8531673196823209e-001
      2.2821119145045320e-002 -3.7359125298459389e-001
      -2.7853608078256964e-001 1.6464958073089117e-001
      -3.3896680732314242e-002 -1.2260484212502426e-001
      2.1440125755653550e-001 -3.8185962404809023e-002
      1.2404125321010270e-001 3.0149985527348822e-001
      -4.0386477985354752e-001 7.7191944468984572e-002
      -3.4638066295282634e-002 4.4557258315023135e-002
      -1.4537433341647141e-001 1.2517975455392152e-001
      1.7973753272917225e-003 -4.4534159863691559e-002
      5.4115373678791913e-002 6.0899300471577355e-003
      1.7560965491924149e-001 -5.8661058073287649e-002
      1.9665828142465789e-002 2.1739994293354878e-001
      8.4828391207480480e-002 -2.0358387383801738e-001
      2.4160164674825419e-002 2.4342247522145080e-001
      -5.8534071959543377e-001 3.6502632339189955e-001
      -5.6555806022684937e-002 -9.9012584884472371e-002
      -3.9271097022651386e-001 1.0658554452579479e-001
      1.2425314206569060e-001 -1.6258867909308394e-001
      1.9553151262007598e-001 4.4685260895969769e-001
      -2.0754510103306936e-002 1.1032246338806617e-001
      -2.3725126403370395e-001 -7.1129811556923633e-002
      -2.8778953782020927e-001 3.8019825536777418e-001
      -1.4185084180343252e-001 -6.4730470278863125e-002
      6.0355779378738150e-002 1.3406472087872867e-001
      2.3983137105689897e-001 -7.8110133156839186e-003
      8.7179840612298127e-003 -1.7981431533346290e-001
      -2.1270705280737642e-002 -2.0936578848108085e-002
      -2.4083071529410147e-001 -1.2951344969578890e-003
      -3.8778816283645712e-001 4.5259113383885285e-001
      -7.7615113356944609e-001 3.7464875114358472e-004
      1.8163966649908367e-001 -3.7340936040714695e-001
      2.2996883740235455e-002 -2.9542973619000625e-002
      2.3474105985763553e-002 -1.2926977525617458e-001
      2.0175412480622359e-001 2.6328888576254417e-001
      -1.1979775011118540e-001 2.8213132438755784e-001
      -1.2471635835195118e-001 -1.3395313623901353e-001
      -1.3133083887709718e-001 2.4541835537763976e-001
      -7.4338516016202741e-002 -8.7665172342045738e-002
      -8.9307383988810635e-002 1.5919973013538843e-001
      2.9835267733972715e-001 -1.4711871406832461e-001
      -2.5508794324109317e-002 -3.6595673885545382e-002
      -8.8058438420810792e-002 -6.0400894413926987e-002
      2.1391739532030270e-002 2.4360823366166597e-002
      -1.1364757242318541e-001 1.8393152267549989e-001
      2.6293829521881897e+000 -5.5616612264637447e-002
      1.4676555389113977e-001 -2.9045964069254449e-001
      2.7725750035831404e-001 -1.4591203334082661e-001
      -1.0787286347275210e-002 -1.7930843634927249e-001
      1.8979875605555155e-002 -2.2931075482889993e-001
      -1.7587520585332220e-001 1.5399896177433051e-001
      -1.4602978802387956e-001 -1.9195320633917048e-001
      2.8085806991346531e-002 -2.2948305189765341e-002
      1.9048331304037919e-001 -9.0052163087563017e-002
      -2.1431617751711732e-001 9.1682531300731149e-004
      5.3425332095624244e-002 6.3664980836994544e-003
      -1.0721863501529515e-001 -6.8174740435378481e-002
      1.4301863884119789e-001 -2.5825380754986288e-001
      1.5764145654807921e-001 -5.0937050400651378e-002
      3.6851404994062552e-002 2.2157868285591290e-001
      3.9093524420056998e+000 2.0748669671368636e-001
      -2.0051626799780453e-002 9.0673530671672484e-002
      3.3303791141330291e-001 -3.8957032486704163e-001
      -1.3113046063417771e-001 -2.2968344396501938e-001
      -3.1537205993664691e-001 -2.4302290910101115e-001
      -1.0312762599475747e-001 3.3092308820531791e-001
      -1.6080555823780798e-001 5.9551550907085714e-002
      3.2700795429250012e-001 -1.6362879416001441e-001
      -1.2185192036726113e-001 -2.8981620398559463e-002
      -1.0894332849988977e-001 -1.6091728184298321e-001
      -1.3617482756968172e-001 -1.4801718032565666e-002
      3.7694111872447887e-002 5.5580322788979807e-002
      6.9077951844041724e-002 -3.7671382032992512e-001
      4.9050580894773432e-001 1.6572227871367207e-001
      2.0236738940015202e-002 2.1177081243799029e-001
      2.6287172473044338e+000 1.8057414942114350e-001
      2.5261052842215297e-002 -1.6769957633564661e-001
      4.4204247220954840e-001 -3.5239855474594822e-001
      -2.4763775028597687e-001 -2.5531799447902609e-001
      -1.5536886897660854e-001 -2.8170310654794506e-001
      -2.0034315679808012e-001 4.3809455271044562e-001
      -3.2041390511504886e-001 -5.7695871583465889e-002
      4.6649114671327807e-001 -6.8552473197016808e-002
      -2.9233091893530816e-001 1.3604479146206669e-001
      3.6225700174618569e-002 -1.0976048116409547e-001
      -2.1031557488962518e-001 -1.9934213628783289e-002
      2.4341382073931353e-001 1.1844811410555089e-001
      3.5218466380226965e-002 -2.9317988626435343e-001
      7.2564510231304669e-001 3.4503358067388956e-001
      -2.2169644788379997e-001 1.2908111190411059e-001
      2.8133987586140066e+000 -1.2320846279776576e-001
      6.5660999427065478e-002 1.7501850313932965e-001
      7.0238132005485665e-001 -2.2082485329604665e-001
      -3.3671589086037468e-001 1.0397697561232556e-001
      -2.9330900449638031e-001 -3.8617730229349050e-002
      2.1695695692744838e-002 1.8487685244695182e-001
      -2.2479785229333757e-001 2.4488744992442694e-002
      5.5989485939103489e-001 -2.4180769319033180e-001
      -5.2313128389846986e-001 -1.1950611516679641e-001
      -4.5719576343151026e-002 2.9135459625827614e-001
      1.6841095250377962e-002 -1.7329529301299532e-001
      7.0875656745690852e-002 3.7587508149486915e-001
      -2.5270632257402714e-001 -2.8013744460091208e-002
      3.5630765973056205e-001 3.2565752601780767e-001
      1.3996201487280102e-001 5.2400185148736338e-002
      2.9728897436274848e+000 -5.4298986018044039e-003
      -1.4894579636417160e-002 1.1427608183467825e-002
      2.3062971570621796e-001 -4.5439809698900414e-002
      8.3879232417222505e-002 -3.7222668319562074e-001
      -2.0450860670703583e-001 9.6863304761616753e-002
      1.0278601775502726e-001 1.9818403820413658e-001
      1.4940011060166378e-001 -3.9089749552394561e-002
      -1.0916830649832744e-001 -5.1015434633629383e-002
      -9.5580453130485063e-002 9.9425445875393273e-002
      -1.0838488821218431e-001 3.2362210334339607e-002
      -2.9477934707396242e-001 1.3583206822235508e-001
      1.9468030072526302e-001 4.0045062368610509e-002
      -3.8544042397413904e-003 -8.5804149888370429e-002
      7.8378167750264599e-002 -1.5167513806347985e-001
      1.7100641080479570e-001 9.6266966521343037e-003
      2.6556905723768565e+000 -7.7244211016426839e-002
      -1.0234210728109756e-001 -1.3773610964913940e-001
      3.4159879974634560e-001 -5.0390705977425489e-002
      -4.3227773052468083e-001 -2.5922252889491560e-002
      -1.1337722503177911e-001 -1.9976674161305961e-002
      -5.4881023421066641e-002 6.7658098413706041e-002
      -5.6993542938943632e-002 -1.1478579017373608e-001
      3.7852041472384790e-001 -2.0812532270176792e-001
      -1.2683877041084143e-001 -2.7100606406947214e-001
      -7.2175249412780737e-002 2.8962270313260735e-001
      6.8611572167515109e-002 2.3156823860557052e-001
      1.4018574671034634e-001 4.3369438605579658e-001
      -7.4140356212904920e-002 7.8216115934787195e-002
      2.2254555984568192e-001 2.0522282713604750e-001
      1.2919077609043750e-001 -2.6812177181205538e-001
      2.2238407749429072e+000 3.2969897949790473e-002
      1.5411819826521811e-001 2.0192832007724318e-001
      3.9442033525476627e-001 9.1230886518558416e-002
      -1.8788316642189887e-001 8.6817740042415742e-002
      -7.9666854340751325e-002 9.4656221677408572e-002
      3.6268384330583062e-002 -2.8375290355229699e-001
      3.1441243718572254e-001 -7.3062781746714919e-002
      1.7683436428651333e-001 -3.8123175621523453e-001
      5.8184979426373240e-002 -1.9407828603091290e-001
      6.5698669883763411e-002 2.0109907516816131e-001
      2.1089198726814096e-001 -5.3346675765140558e-002
      -1.8330326562853022e-001 3.0009879932038441e-001
      -2.4761176499797474e-001 -4.8497358804391634e-002
      9.8007549554168169e-002 9.2193731345636451e-002
      2.3639575122633252e-001 -1.5640035290714813e-001
      1.8069845165413432e+000 -1.2598841755458132e-001
      -6.5951836646569451e-002 2.7638823956731208e-002
      2.7775448546811055e-001 -3.2659462554963548e-002
      -1.8821144259702080e-001 3.6508137702588273e-001
      -1.4516565027231840e-001 2.9123006959066071e-003
      1.3069488859852985e-001 -1.0942153987379805e-001
      1.8247909383764338e-001 1.4275590147059480e-001
      2.0218694944641907e-001 -1.6931939245149924e-001
      1.0810339730178339e-001 -5.9803954348788893e-002
      -7.7192026986362697e-002 -1.3749884894024534e-002
      2.7767736503382662e-001 1.1963483954303672e-001
      -1.5317212671408756e-001 3.3956239291476115e-001
      -2.5714505392004233e-001 -5.1361639864492055e-002
      3.4954566980537980e-003 1.0821242344920981e-001
      1.1933116103382375e-001 -1.6514306236689577e-002
      1.3573577994564174e+000 -1.2111937663700643e-001
      -5.8339602068130686e-002 -1.4809364081080947e-001
      5.9007856714781648e-002 1.6804648187255405e-001
      -2.0365390295129715e-003 2.1508686006413468e-003
      1.0397223377333449e-001 -6.5645698400824487e-002
      5.4932363792756560e-002 -1.8408826166959533e-002
      -9.6822565466242280e-002 -1.1202790960335475e-001
      6.4322799356384998e-003 4.5664005511243569e-002
      5.5883251246912569e-002 -8.5813537343658361e-002
      -1.8413141482065457e-001 -3.0851182455047499e-001
      1.8946014846194065e-001 9.5179533467326022e-002
      -4.2488363458943063e-001 -4.1959549034803992e-002
      -1.6663030299214582e-001 -2.3411464198153401e-001
      1.7867687221016271e-001 2.7813241338955674e-001
      1.4706299544574972e-001 7.0400678204499863e-003
      1.2058347087530557e+000 1.4962921830020431e-001
      5.1838067083681931e-002 -3.4073684458716658e-001
      1.8490664830626505e-001 2.1055673602404953e-001
      -3.6395270375624061e-001 1.4274978134170740e-001
      1.0614329785147733e-001 -2.7457672000186109e-004
      -1.4019553587281608e-001 1.0684158491166289e-001
      -2.3657832649373603e-001 -1.1753663413387470e-001
      1.3955916770798149e-001 -6.4409149460761039e-002
      -6.0350524539224265e-003 -3.3940881321994126e-001
      -1.7168102192188384e-002 1.3875441012372496e-002
      4.4188077850923363e-001 1.2430969186398956e-001
      -1.9558491274388973e-001 2.6404558882489043e-001
      -1.8155936832361785e-001 1.2490424947469385e-001
      -8.9776543765135219e-002 3.4115753841634056e-001
      -2.5540848962410823e-002 -8.3715289427901768e-002
      -1.8608452266082490e-001 2.3347828570642890e-001
      2.3636843403964855e-001 -3.7333048300433193e-002
      8.4017713054917453e-002 6.7832605090126299e-002
      -4.0190429214641865e-001 8.9775846972696791e-002
      2.1607881341560026e-001 1.5668074865785281e-001
      -3.9098491028896409e-001 1.1735778896689379e-001
      -1.7764143208187463e-001 -1.2367409485788586e-001
      1.0354598645272541e-001 -7.1300426863080052e-002
      -2.1353830560021236e-001 -3.2411728891457686e-001
      1.5224455694073469e-001 1.1530434210235482e-001
      3.1774977944744270e-001 -1.3793536144164256e-001
      -9.6735462288334670e-002 2.1265105928296918e-001
      -2.3764533743120161e-001 7.5635299114453561e-002
      -3.0142248917527542e-001 1.4977145525865063e-001
      -1.4470568027768618e-001 -1.7138027878020781e-001
      -1.5051061734820166e+000 1.8853077034793442e-001
      1.7041408799024060e-001 -1.8143626714680561e-001
      -1.8215206015689497e-001 3.3948960334221007e-001
      -5.0096502393859765e-002 -2.8068417736092277e-001
      3.2277228920897705e-001 3.7513938948399428e-001
      -4.5716168066253088e-002 -1.0673800459254733e-001
      -2.9781012091918180e-002 -2.1282215189320047e-001
      -3.2494307244708043e-001 1.2216372204614864e-001
      7.0256802860656775e-002 -9.6188518449820154e-002
      2.1520400705816917e-002 -8.6036208139462556e-002
      -2.6326489478402265e-001 2.7686610307959220e-001
      8.7122498178968999e-002 -1.8541317799505641e-001
      -1.6203697380032722e-001 -2.5061689869469893e-002
      -4.1058561064799014e-002 -6.6712658517277867e-002
      -2.5882431318562865e-001 -1.2079565496276456e-001
      -2.0280780317897933e+000 1.0686250058818984e-001
      2.6586353193980478e-001 -1.1898101997824387e-001
      -2.0659756627049036e-001 3.2279646123519540e-001
      6.9856750313418573e-003 -3.3516750002615431e-001
      6.1134915891801492e-002 5.1164900737457819e-001
      2.5310400331126481e-001 -1.4527900782232944e-001
      4.1783023699128272e-002 -3.5111088773707544e-001
      -3.2894331031131735e-001 6.7960832290318671e-002
      1.1761164131286016e-001 3.3960661639150069e-002
      -9.0219423410917363e-002 1.1208192787577800e-001
      -2.3609843958097737e-001 2.8251537150645500e-001
      3.2101168040636918e-001 -2.0964972056268968e-001
      -6.7390105228514491e-002 3.5716798404498637e-002
      5.8238844350844116e-002 -3.5489937930471546e-002
      -3.1570927136547877e-001 7.1122130430559038e-002
      -3.5382754560806606e-001 -2.6768809150844719e-001
      9.7653719958253185e-002 -3.7460092408006496e-001
      2.9614834278460450e-001 2.1690426478805896e-001
      -3.0638017873643603e-001 -9.9897744867170693e-002
      7.4106529851343667e-002 -1.2013894241796360e-002
      -1.9713242202568143e-001 -2.0686687297466116e-001
      5.1622756707743564e-002 -1.1133694064417000e-001
      1.8930493964147915e-001 -1.1607950850101091e-001
      2.0443911049617448e-002 -1.4568823377140619e-001
      -1.6564676419697358e-001 1.7315201346000564e-001
      1.3752325024985393e-001 2.2440805843180872e-001
      7.0055555682887904e-002 1.6103592229135097e-001
      -1.7316201591088676e-001 4.4174475951882786e-001
      -1.6711088373819091e-001 1.4821437314283231e-001
      1.4325648877142787e-002 -2.9626594133738593e-001
      7.7591619377994958e-001 1.6046232518098176e-002
      -1.9244593791381256e-001 -1.2288621366200952e-001
      -1.8709109810447122e-003 4.9999899352189917e-002
      5.5892545616141008e-002 2.0974467680405109e-001
      -6.8550175292815763e-002 4.5832346829128123e-001
      5.9383505074123127e-002 1.4205767271495551e-001
      4.3285331291462628e-002 5.9167979337787009e-002
      -1.8600095062024946e-001 7.0571890595169759e-002
      -3.4793390953721789e-002 -1.5712461618730011e-001
      -9.5336225310216877e-002 1.2336375264535024e-001
      5.2575257050847687e-002 8.7366047002491384e-002
      -3.7778361457856857e-001 1.5728348326468913e-001
      1.7467836898706512e-002 -3.2693205901522482e-001
      -3.1721795658183685e-002 -1.8712934943201698e-001
      -2.2461797103359107e-001 -3.4897183826947710e-002
      4.9461584295355915e-001 -9.0954657317883436e-002
      -4.9473050468787194e-002 8.9358791790955849e-002
      1.7907231774098639e-002 -2.3052601088460137e-001
      1.0023358974017807e-001 4.3608616296130392e-001
      -3.0277911821613179e-001 2.4075175904109608e-001
      2.3197573510971448e-001 -1.9478204750493458e-003
      -2.1396396585511737e-001 -3.5795990580951048e-003
      -2.1671323908050480e-001 5.5308729434489917e-002
      -2.3456787476574877e-002 -2.6210544212541667e-002
      1.3214272243891539e-001 -8.3518648030219592e-002
      2.6687806124434811e-002 2.5321689146194103e-002
      -3.3331909220629263e-001 2.9634728276453298e-001
      -5.1130590077505381e-002 -1.5045533927646806e-001
      -2.7655020787862883e-001 -3.1491389697966575e-002
      -7.3815350781797642e-002 2.7881171347090095e-001
      4.9683229812588831e-001 1.0961474678908971e-001
      6.6727205434036707e-002 -2.5316618057311547e-002
      2.0198617560563145e-001 -2.7323814350502779e-001
      3.2173293552446282e-002 2.6423620669459319e-001
      -4.1384894448039566e-001 -1.1128916326859037e-001
      2.8365338652788374e-001 6.0624689863270312e-002
      -1.6034744933607178e-001 1.3769357141588170e-001
      1.4368293042142127e-001 -2.5524417575824299e-001
      1.4302080613524870e-001 -1.1392164797353141e-001
      2.9762687659498260e-001 3.9974000483405145e-002
      2.4971023915384935e-001 1.3440450893695038e-001
      -8.6507734814965612e-002 3.2424629502369035e-001
      -2.5210727227387014e-002 -5.7222788464493940e-002
      -2.3296155835701463e-001 4.7106803131771575e-002
      6.0268882639035556e-002 2.4088955395251627e-001
      5.0984522392592280e-001 2.3210662819229541e-001
      2.0180083712280202e-002 -7.4221327291222591e-002
      -2.8766404540555679e-001 1.2207714086119090e-001
      2.7511980857783036e-001 5.6345280348392285e-002
      1.0792885017848513e-002 1.8745008781705383e-001
      4.0027470302345311e-002 -1.8621834124624162e-001
      -2.9454851501146382e-002 9.9358944338076183e-002
      -1.9002958639181192e-001 1.9053016187053218e-001
      -4.4326672803637800e-002 1.5400532746631204e-001
      1.2911720660374243e-001 1.1366184605906125e-002
      4.4958534006030310e-002 1.6666977648150849e-001
      1.5268844705768631e-001 5.3935715413799441e-003
      5.1413748795030023e-002 -2.2702301573122391e-002
      -5.5576730035844950e-002 -2.2248399312810510e-001
      -1.4017880092158924e-001 2.5047017317590925e-001
      5.2136313491730243e-002 3.1590459446552599e-001
      1.5757474336576274e-001 -3.7475283293942130e-001
      -3.1123836960697971e-002 1.1074293174395418e-001
      -1.7047502720718499e-001 -2.0876261129894699e-001
      7.0568539754288256e-002 3.3894238097069534e-001
      3.0327315457722489e-002 1.8431904011290742e-001
      -3.4369627272306563e-001 2.4580706632996385e-001
      1.9135632930112934e-001 3.3517406085071472e-001
      -3.6063796499985840e-001 -1.7187021060370175e-001
      -8.3864064507924180e-003 1.6884051647951884e-001
      1.9574667000677626e-001 1.5972722397387995e-001
      5.2447906491357331e-003 7.8487967411651399e-002
