<?xml version="1.0"?>
<opencv_storage>
<my_nn type_id="opencv-ml-ann-mlp">
  <layer_sizes type_id="opencv-matrix">
    <rows>1</rows>
    <cols>3</cols>
    <dt>i</dt>
    <data>
      200 30 24</data></layer_sizes>
  <activation_function>SIGMOID_SYM</activation_function>
  <f_param1>1.</f_param1>
  <f_param2>1.</f_param2>
  <min_val>-9.4999999999999996e-001</min_val>
  <max_val>9.4999999999999996e-001</max_val>
  <min_val1>-9.7999999999999998e-001</min_val1>
  <max_val1>9.7999999999999998e-001</max_val1>
  <training_params>
    <train_method>BACKPROP</train_method>
    <dw_scale>1.0000000000000001e-001</dw_scale>
    <moment_scale>1.0000000000000001e-001</moment_scale>
    <term_criteria><epsilon>1.0000000474974513e-003</epsilon>
      <iterations>1000</iterations></term_criteria></training_params>
  <input_scale>
    2.2560722965837479e+000 -6.0605381922970458e-001
    2.0019588169574289e+000 -1.0452487680674538e+000
    2.0241374600458046e+000 -1.1678991323523908e+000
    2.0465731207219395e+000 -1.2403473458920846e+000
    2.0543506730590297e+000 -1.2618861628126719e+000
    2.0606274275663115e+000 -1.2783990797555127e+000
    2.0551653374186865e+000 -1.2640697529905272e+000
    2.0371110599201150e+000 -1.2120894226306007e+000
    2.0285127930405729e+000 -1.1837144676833811e+000
    2.0196714976660548e+000 -1.1504353207426217e+000
    2.0185154846829296e+000 -1.1456439237389600e+000
    2.0276629959433334e+000 -1.1807275922323588e+000
    2.0311444847454685e+000 -1.1927359505016388e+000
    2.0418709708272460e+000 -1.2266276470940090e+000
    2.0672953369849982e+000 -1.2952341791920752e+000
    2.1111743206490026e+000 -1.3936171191180149e+000
    2.1521976877643105e+000 -1.4735767952260144e+000
    2.1093329500544109e+000 -1.3898102852733607e+000
    2.0418709708272460e+000 -1.2266276470940090e+000
    2.0860125364995055e+000 -7.4659089144167401e-001
    2.0158892405962678e+000 -1.1342472631364751e+000
    2.2571620165201858e+000 -1.6517397721218559e+000
    2.5203506633553614e+000 -2.0270142108230669e+000
    2.4636872081647825e+000 -1.9511757004875876e+000
    2.4064077404391155e+000 -1.8723074147560685e+000
    2.3526579291770320e+000 -1.7958044144086762e+000
    2.3568914356558954e+000 -1.8019313310276646e+000
    2.3669369992966329e+000 -1.8163963704676043e+000
    2.3954338395277230e+000 -1.8569026446461832e+000
    2.4325122451345536e+000 -1.9085558811129422e+000
    2.4781982425446079e+000 -1.9707866449720017e+000
    2.5243549814469652e+000 -2.0323021677005464e+000
    2.5904583958858063e+000 -2.1184051664962960e+000
    2.7047369150769249e+000 -2.2628081562252897e+000
    3.0205381281866051e+000 -2.6420431784629765e+000
    3.7332293029394403e+000 -3.4427651065600409e+000
    4.0650797144943702e+000 -3.8020647288718843e+000
    3.8270409278558342e+000 -3.5449494589721113e+000
    2.7213124290482660e+000 -2.2833616572972550e+000
    2.1045148556281341e+000 -1.3797413119822450e+000
    2.0025834073289652e+000 -1.0521353446367987e+000
    2.3654873926196709e+000 -1.8143152687865043e+000
    2.4912440841618486e+000 -1.9883025061553821e+000
    2.3268067167426891e+000 -1.7579682196520316e+000
    2.2671290114382603e+000 -1.6673889043993102e+000
    2.2349970900356562e+000 -1.6163001068808227e+000
    2.2762347733662969e+000 -1.6815428055498769e+000
    2.3388487185043982e+000 -1.7756861278080076e+000
    2.4192783886319584e+000 -1.8902469965232502e+000
    2.4601240719518906e+000 -1.9463389463599725e+000
    2.3908108531504020e+000 -1.8503818642318837e+000
    2.2797106110398953e+000 -1.6869111687752216e+000
    2.2349970900356562e+000 -1.6163001068808227e+000
    2.2319507964891541e+000 -1.6113551409542910e+000
    2.2571620165201858e+000 -1.6517397721218559e+000
    2.3611677454539195e+000 -1.8081014266989472e+000
    2.5704522650457107e+000 -2.0925712952132973e+000
    2.7921119378022428e+000 -2.3702080454807737e+000
    2.6206302964958841e+000 -2.1570298509241308e+000
    2.0223437777283517e+000 -1.1610671483927719e+000
    2.0011842758225016e+000 -9.6617373513297689e-001
    2.1027422878613216e+000 -1.3759959770689565e+000
    2.0733988375411201e+000 -1.3100959894864654e+000
    2.0034863266926526e+000 -9.4267231341927016e-001
    2.0636898099292953e+000 -7.7747527646803916e-001
    2.0798116297644516e+000 -7.5459177066801975e-001
    2.0614936569296001e+000 -7.8086880944303028e-001
    2.0140557240958050e+000 -8.8826290534446439e-001
    2.0223437777283517e+000 -1.1610671483927719e+000
    2.0654783920018929e+000 -1.2907125414393483e+000
    2.0185154846829296e+000 -1.1456439237389600e+000
    2.0176168928812204e+000 -8.7578784048079172e-001
    2.1027422878613216e+000 -7.2674631079236507e-001
    2.1629972969634488e+000 -6.6962569881423728e-001
    2.1776229427934006e+000 -6.5810226526680171e-001
    2.1653761384458488e+000 -6.6770197880824089e-001
    2.0668384303904834e+000 -7.7273689064148710e-001
    2.0023390205847464e+000 -1.0495470705767713e+000
    2.0074364254657655e+000 -1.0900330467516810e+000
    2.0169581832451087e+000 -8.7797974970907067e-001
    2.0098935621439113e+000 -1.1045361017187261e+000
    2.0484551697255857e+000 -1.2456821978060995e+000
    2.0035841038996685e+000 -9.4189785064570819e-001
    2.2682544090589913e+000 -5.9910896553769422e-001
    2.2750836384482915e+000 -5.9532286853745231e-001
    2.1469801604867729e+000 -6.8313005106397318e-001
    2.0902999348556350e+000 -7.4127753627558557e-001
    2.0203826548559234e+000 -8.6706020568755438e-001
    2.0440070889159898e+000 -1.2329330229210700e+000
    2.0753387020104945e+000 -1.3147211187593102e+000
    2.0020321491149402e+000 -1.0461068887267255e+000
    2.1418811321992375e+000 -6.8764734137764216e-001
    2.5511281033818061e+000 -4.8369054539958073e-001
    2.6065121024090643e+000 -4.6750708470727692e-001
    2.4931350397549736e+000 -5.0230239130198484e-001
    2.4375712997324341e+000 -5.2205151095825675e-001
    2.4048238059086984e+000 -5.3473354897969827e-001
    2.0860125364995055e+000 -7.4659089144167401e-001
    2.0006449144120930e+000 -9.7492524494282984e-001
    2.0054554152278992e+000 -9.2881657437459209e-001
    2.0058267885352792e+000 -1.0793023751578037e+000
    2.0539458835564210e+000 -1.2607964289316442e+000
    2.0004193583226400e+000 -1.0206889928214615e+000
    2.1718338717939605e+000 -6.6257831060053263e-001
    2.1852604914668157e+000 -6.5235663320201009e-001
    2.1168133881631568e+000 -7.1167231436607359e-001
    2.0860125364995055e+000 -7.4659089144167401e-001
    2.0103941120854469e+000 -9.0311316173535439e-001
    2.0696067214772236e+000 -1.3009198679228249e+000
    2.1087233745502862e+000 -1.3885451213254956e+000
    2.0187437692776826e+000 -1.1466001670713126e+000
    2.0636898099292953e+000 -7.7747527646803916e-001
    2.3087711256584984e+000 -5.7766550277532447e-001
    2.3415738838442053e+000 -5.6190102208546444e-001
    2.2660072384159022e+000 -6.0037128716424604e-001
    2.2432652076524189e+000 -6.1363683812932668e-001
    2.2210281518299051e+000 -6.2756323700353589e-001
    2.0422229547078938e+000 -8.1454756670167427e-001
    2.0001938785047129e+000 -1.0140213028619307e+000
    2.0018162123498486e+000 -9.5828138912242955e-001
    2.0144531440374740e+000 -8.8678834145793795e-001
    2.0924904434630096e+000 -1.3538635956885976e+000
    2.1226277751325200e+000 -1.4168236173079474e+000
    2.0002173624283386e+000 -1.0148522981362456e+000
    2.0290869229042352e+000 -8.4337560472882833e-001
    2.0511595594467003e+000 -7.9795314556689811e-001
    2.0377719816511659e+000 -8.2362037096220342e-001
    2.0033899121555270e+000 -9.4344733782917933e-001
    2.0543506730590297e+000 -1.2618861628126719e+000
    2.1361959960016152e+000 -1.4433756729740643e+000
    2.0886776043051816e+000 -1.3454094478182024e+000
    2.0000811671841410e+000 -9.9103120896511487e-001
    2.0436470254180943e+000 -8.1176806496951326e-001
    2.0527416520384829e+000 -7.9520622556445730e-001
    2.0377719816511659e+000 -8.2362037096220342e-001
    2.0293762729671609e+000 -8.4266484061781377e-001
    2.0000670796087570e+000 -9.9184325692309783e-001
    2.0364564457531524e+000 -1.2100320650236789e+000
    2.0225955636014068e+000 -1.1620399573025282e+000
    2.0130871425318886e+000 -8.9195752998341660e-001
    2.0329680474213871e+000 -8.3416625041614656e-001
    2.2339784037668071e+000 -1.6146486005931262e+000
    2.2727925044645456e+000 -1.6762077397791344e+000
    2.1320299800410556e+000 -1.4353223944256739e+000
    2.0930429914740025e+000 -1.3550782020968051e+000
    2.0192047125391110e+000 -1.1485157025867425e+000
    2.0050964142662502e+000 -1.0739828459706204e+000
    2.0180632823267617e+000 -1.1437344728666003e+000
    2.1506947445732409e+000 -1.4707863322839119e+000
    2.2506759495029263e+000 -1.6414634996169990e+000
    2.2329629761823244e+000 -1.6130002825493941e+000
    2.0743650958854127e+000 -1.3124054353574786e+000
    2.0429317582357625e+000 -1.2297746456210363e+000
    2.0539458835564210e+000 -1.2607964289316442e+000
    2.0876057749973831e+000 -1.3430092844065884e+000
    2.1259351557571295e+000 -1.4233841030560634e+000
    2.2021279108293514e+000 -1.5618695911369520e+000
    2.3757381799664148e+000 -1.8289876242165684e+000
    2.3772224949519716e+000 -1.8311038136792215e+000
    2.0012998620268982e+000 -9.6459047403999154e-001
    2.0262769391146871e+000 -8.5050526723691822e-001
    2.0488365296161128e+000 -1.2467531052455134e+000
    2.2210281518299051e+000 -1.5934649148263693e+000
    2.1213203435596424e+000 -1.4142135623730949e+000
    2.0696067214772236e+000 -1.3009198679228249e+000
    2.0059533325678438e+000 -1.0801919051296949e+000
    2.0055778306282539e+000 -9.2805198550775059e-001
    2.0071543236620308e+000 -9.1891831853159323e-001
    2.0049794932500915e+000 -1.0730991800482677e+000
    2.0317461678905717e+000 -1.1947532748119822e+000
    2.0246633437466062e+000 -1.1698607608625968e+000
    2.0150600056702239e+000 -1.1304800195611002e+000
    2.0374407312443976e+000 -1.2131199112323316e+000
    2.0924904434630096e+000 -1.3538635956885976e+000
    2.1418811321992375e+000 -1.4542337908215954e+000
    2.1913554960353898e+000 -1.5434608735384401e+000
    2.2453655975512468e+000 -1.6329931618554523e+000
    2.4375712997324332e+000 -1.9155197887741766e+000
    2.1975889866483493e+000 -1.5541507698368957e+000
    2.0000811671841405e+000 -1.0090499582190258e+000
    2.3334523779156067e+000 -5.6568542494923801e-001
    2.0783038936913480e+000 -7.5659793672875031e-001
    2.0892164321904536e+000 -7.4260436656073447e-001
    2.0568150872641580e+000 -7.8836155678921038e-001
    2.0377719816511659e+000 -8.2362037096220342e-001
    2.0636898099292953e+000 -7.7747527646803916e-001
    2.1286213322986782e+000 -6.9995205971983565e-001
    2.1931222340685030e+000 -6.4662080611356354e-001
    2.2003036096276563e+000 -6.4152996316744115e-001
    2.1861228374998309e+000 -6.5171884754294718e-001
    2.1913554960353898e+000 -6.4789462249694985e-001
    2.1286213322986782e+000 -6.9995205971983565e-001
    2.0710151536210906e+000 -7.6666572435440861e-001
    2.0223437777283517e+000 -8.6127662933557980e-001
    2.0040934511343673e+000 -9.3803391263168789e-001
    2.0090873397801685e+000 -9.0910790764008442e-001
    2.0158892405962678e+000 -8.8164197745979278e-001
    2.0317461678905717e+000 -8.3699289307858937e-001
    2.0114331798167084e+000 -8.9863783750205939e-001
    2.2067401253140351e+000 -6.3708099440884303e-001</input_scale>
  <output_scale>
    5.2631578947368418e-001 4.9999999999999994e-001
    5.2631578947368418e-001 4.9999999999999994e-001
    5.2631578947368418e-001 4.9999999999999994e-001
    5.2631578947368418e-001 4.9999999999999994e-001
    5.2631578947368418e-001 4.9999999999999994e-001
    5.2631578947368418e-001 4.9999999999999994e-001
    5.2631578947368418e-001 4.9999999999999994e-001
    5.2631578947368418e-001 4.9999999999999994e-001
    5.2631578947368418e-001 4.9999999999999994e-001
    5.2631578947368418e-001 4.9999999999999994e-001
    5.2631578947368418e-001 4.9999999999999994e-001
    5.2631578947368418e-001 4.9999999999999994e-001
    5.2631578947368418e-001 4.9999999999999994e-001
    5.2631578947368418e-001 4.9999999999999994e-001
    5.2631578947368418e-001 4.9999999999999994e-001
    5.2631578947368418e-001 4.9999999999999994e-001
    5.2631578947368418e-001 4.9999999999999994e-001
    5.2631578947368418e-001 4.9999999999999994e-001
    5.2631578947368418e-001 4.9999999999999994e-001
    5.2631578947368418e-001 4.9999999999999994e-001
    5.2631578947368418e-001 4.9999999999999994e-001
    5.2631578947368418e-001 4.9999999999999994e-001
    5.2631578947368418e-001 4.9999999999999994e-001
    5.2631578947368418e-001 4.9999999999999994e-001</output_scale>
  <inv_output_scale>
    1.8999999999999999e+000 -9.4999999999999996e-001
    1.8999999999999999e+000 -9.4999999999999996e-001
    1.8999999999999999e+000 -9.4999999999999996e-001
    1.8999999999999999e+000 -9.4999999999999996e-001
    1.8999999999999999e+000 -9.4999999999999996e-001
    1.8999999999999999e+000 -9.4999999999999996e-001
    1.8999999999999999e+000 -9.4999999999999996e-001
    1.8999999999999999e+000 -9.4999999999999996e-001
    1.8999999999999999e+000 -9.4999999999999996e-001
    1.8999999999999999e+000 -9.4999999999999996e-001
    1.8999999999999999e+000 -9.4999999999999996e-001
    1.8999999999999999e+000 -9.4999999999999996e-001
    1.8999999999999999e+000 -9.4999999999999996e-001
    1.8999999999999999e+000 -9.4999999999999996e-001
    1.8999999999999999e+000 -9.4999999999999996e-001
    1.8999999999999999e+000 -9.4999999999999996e-001
    1.8999999999999999e+000 -9.4999999999999996e-001
    1.8999999999999999e+000 -9.4999999999999996e-001
    1.8999999999999999e+000 -9.4999999999999996e-001
    1.8999999999999999e+000 -9.4999999999999996e-001
    1.8999999999999999e+000 -9.4999999999999996e-001
    1.8999999999999999e+000 -9.4999999999999996e-001
    1.8999999999999999e+000 -9.4999999999999996e-001
    1.8999999999999999e+000 -9.4999999999999996e-001</inv_output_scale>
  <weights>
    <_>
      -2.5233778845657366e+000 9.7518803940124590e-003
      -2.2001202008634363e-001 9.5628185723935111e-002
      1.3028757119043177e-001 -1.2557607868385343e-001
      1.2544276603214330e-001 -2.7705895767901410e-002
      4.9280396258193637e-002 -2.1108650424618344e-002
      -3.9380091328689043e-001 -2.1335676109418314e-001
      1.4274050547665149e-001 4.4384257077403483e-001
      8.8980552064993862e-002 1.6321600521540860e-001
      -9.2191053758840361e-002 -1.1795356416305140e-001
      -1.7525032971294541e-001 -1.9182794632335118e-002
      9.3228382987550554e-002 1.9782120383787799e-001
      2.3973238260716869e-002 1.8001613370616604e-001
      -6.9875155262567781e-002 1.7286333788232833e-001
      3.8447370895297195e-001 -7.9878583848083121e-002
      1.8543383551927642e-001 2.5367493700758751e-002
      -1.6381705860848670e+000 6.2605267600355813e-002
      -8.6763297903293235e-002 -1.4540496371210018e-001
      6.7587876581366502e-002 -6.2499378391470066e-002
      7.6073976382914119e-002 -3.1143292335074374e-001
      1.1939828234032546e-001 -2.6944867433988773e-001
      -2.1946651178420097e-003 -2.5235175402231169e-001
      2.3337593387197175e-001 3.1777149092395218e-001
      4.2410958179399563e-002 3.0388443837397177e-002
      -2.2302360451675409e-002 5.4923864626301160e-002
      -2.2430444883848205e-001 -3.1099161193696611e-002
      4.4826290314930950e-001 -2.9743313965136849e-002
      -5.0504982144179797e-002 1.9827909671859048e-001
      -1.4589520355951893e-001 1.9047360966600599e-001
      5.6770692392616451e-002 -4.7475273890656054e-002
      2.1411381447381672e-001 7.4477848453747456e-002
      -8.2674082848464103e-001 -5.3172901907892270e-002
      -5.8991145355014138e-002 1.8112358084975766e-001
      -4.9622505116142775e-003 2.0992223570114644e-002
      1.2740547315659106e-001 -1.0252176741539515e-001
      8.8518171276382382e-002 -3.4644998184617241e-002
      3.3619877748756896e-002 -2.2039846981041145e-001
      -1.0591610706075984e-001 2.0093377202003154e-001
      1.1352668207252661e-001 -2.1589085936388491e-001
      -9.6578782958659723e-002 1.2277695811812467e-001
      -1.0915798442550279e-001 -2.3745819586482999e-002
      5.0632287314182001e-001 -7.7221597388886676e-002
      8.7388495291797721e-002 1.3046004628892630e-001
      -3.7165298282840133e-002 1.6248412920177605e-001
      -2.5037025332428492e-002 -1.2606161248208317e-001
      1.7364083227564409e-001 -7.8448648152980069e-002
      1.4254110962298521e+000 6.6284386994089756e-002
      2.2954080827556709e-002 5.0808049037976276e-002
      -6.7698776395498581e-002 -1.4190463023558181e-001
      -7.4507606662571474e-002 -2.0669432777590164e-002
      -9.3057769710720079e-002 -2.8477365334998068e-002
      -2.1220086849302933e-001 -1.5666975559591392e-001
      -1.2948869228267440e-001 1.7762465509947453e-001
      1.2216688638260130e-001 2.6465523348872623e-002
      -1.0320932397460182e-001 1.4950503213696192e-001
      1.0173625020115590e-002 -1.6874727947113422e-001
      1.8830209403754769e-001 3.1711883073599803e-002
      1.2777714275651806e-002 -7.5957571068517693e-002
      -1.0264914812025962e-001 2.0677043548253912e-001
      -2.2863488732241095e-002 -3.1729291933907507e-002
      4.0292326424071129e-002 2.2146465226082351e-002
      3.0095359016792655e+000 2.3181256683152254e-002
      -2.3875632576752154e-002 -1.6827684601597649e-002
      -2.8685922073236194e-002 -1.1190483684221200e-001
      -1.5643780392430040e-001 -5.2380024083648287e-002
      -9.5491803228530542e-002 1.7111854743666502e-001
      -8.6609060464524171e-002 -1.1259953105410608e-001
      4.7736690386292580e-002 2.0584628853843046e-001
      3.5498215377460818e-001 -2.0864125590857815e-002
      1.1460853290873352e-001 3.7410886330376945e-002
      1.8563491842854693e-001 -1.6088871237365732e-001
      -2.0529867209601019e-001 -5.0927658208445047e-002
      -2.4837983383440791e-002 -5.8318949408946795e-002
      5.1973631267345999e-002 9.1098780140851668e-002
      -2.3347803940244995e-003 1.7846527916909796e-001
      6.5411192688436440e-002 1.2741122824739981e-001
      4.1204249983932675e+000 1.5111496781922836e-002
      3.9579160313487016e-002 2.8914213360979133e-002
      1.1279705929740029e-002 -1.8758636488520269e-001
      -1.5838464302683258e-001 -2.0506217408440601e-002
      -8.8048845412041402e-002 2.0460173989731087e-001
      1.4107667347206023e-002 -8.1465693697785641e-002
      -1.4492570146713209e-002 -4.2527086855875341e-002
      1.0626433570239023e-001 -1.1223109774865949e-002
      1.3549457704901832e-001 1.7622721659555080e-001
      1.7379572559095960e-001 -1.7608049660538830e-001
      -1.4963424961694646e-001 -1.1789101620912054e-001
      9.1528134851355594e-002 -9.1917848180456105e-002
      -7.1021567194739441e-002 -2.9362040451723005e-002
      -1.7810857416575839e-002 2.4576861972125408e-001
      5.7933982853473127e-002 1.3249873652845137e-001
      3.5430608124681400e+000 -8.4588623562427814e-002
      2.3475116087441190e-002 -8.4564939361740088e-002
      1.5439770331432826e-001 -2.4294474520480153e-001
      -1.4749454791232477e-001 -6.7299968337563775e-003
      -7.2992829938865064e-002 -4.1261227702631111e-002
      -4.5087817666053492e-002 -5.1520728680682491e-002
      8.1912597314647375e-004 1.1920986463577499e-002
      3.5674315220042989e-002 -9.4616005691893518e-002
      2.1067298145621668e-001 1.3503450190711908e-001
      1.5431379750561058e-001 -1.4330907011310184e-001
      -6.8445108695529165e-003 -1.6550307962980390e-001
      6.9390293648818505e-002 -1.5974406362116556e-001
      -4.8470925619421269e-002 -2.4422054654259662e-002
      -1.5899275036754635e-002 3.1114376953900613e-001
      7.7702366187985955e-002 -4.3827359226308758e-003
      3.0959860165924478e+000 -2.2086063611091122e-001
      7.4685652871238462e-002 4.3026761808623998e-002
      3.1217054796940680e-001 -1.6613378539705051e-001
      -7.8282035294791996e-002 1.4758808179272537e-001
      -1.2242308253695774e-001 -2.8051834890137442e-003
      -9.8489194569822011e-002 8.7553229836351942e-002
      -1.0453610362560617e-001 4.6674755162289326e-002
      -8.6501712992395497e-003 -6.1935639777729500e-002
      1.7473869896765165e-001 -8.2086917239071633e-002
      3.8037657052840013e-002 -1.8040756170398086e-002
      7.7207833019426839e-002 -1.5276907305262866e-001
      -7.6991412501397516e-002 -1.6285171679317083e-002
      -2.9520124489125626e-001 5.6088796104606604e-002
      4.7808148793606925e-002 2.3492761867432299e-001
      -1.9850716110745452e-002 -3.8974967994561863e-002
      2.9835369886571241e+000 -9.4838994377825961e-002
      -2.0606096776633314e-002 -3.4306201535256882e-002
      2.7821727302722732e-001 -1.6579110604707117e-001
      -1.2489878268589383e-001 1.5155189341915465e-001
      -9.7265499354437374e-002 1.7373730152876352e-001
      -1.2674620909764894e-001 -1.4049278145730268e-001
      9.3004314121689191e-002 3.6970205199385008e-002
      -1.0413039975873140e-002 -9.7022314110775804e-002
      -3.8396474348336276e-002 3.9069223549526258e-002
      -7.1324543535913151e-002 1.4059164639851790e-001
      2.5186652926816561e-001 -2.3266563109590194e-001
      1.0017465563640675e-001 3.0633496455794752e-002
      -2.5236892076757644e-001 8.8426422880633432e-002
      5.6321606769856800e-003 1.9147206278300585e-001
      -8.9424264214717483e-002 -2.3530169665788442e-001
      2.1563975953388397e+000 -1.8577573660478897e-001
      7.9666458102160276e-002 -1.8901090433173676e-001
      3.2793764069907677e-001 -1.4977639312189642e-001
      -1.2562964403524765e-001 2.5103338602303432e-001
      -1.3180622784169843e-001 2.4537187426246496e-001
      1.4144326830563220e-001 -1.9506716292198459e-001
      2.3506931862391661e-001 1.5577825038542692e-002
      8.5971051017037864e-002 -8.4542505613688285e-002
      -1.4399685832551809e-001 8.1642942857877182e-002
      1.7592613868969312e-001 1.5549501328191112e-001
      1.3614553513431443e-001 -3.3327458476856248e-001
      2.4030551304188580e-001 2.1917961290809302e-003
      -1.3557215526910177e-001 -2.2606878170811145e-001
      -1.5460141913918518e-001 -4.0116466550363689e-002
      7.6328911152509102e-002 1.7172584279814333e-002
      2.3279485142367853e+000 -1.3516625056604839e-001
      1.2016901580443966e-001 -1.8451263013472516e-001
      3.4473185058283014e-002 -3.1631661656153019e-002
      6.5324649660167849e-002 5.8159501103356798e-002
      -9.7739321165407775e-002 1.1303098986698180e-001
      8.7288257541535311e-002 -3.6176573743130977e-002
      1.6922465461210245e-001 -1.2227984747438191e-001
      -1.9245730258487873e-001 1.5475520433508119e-001
      1.1814979582146054e-001 4.3993405651834426e-002
      7.0326412634513655e-002 9.9004330598221210e-002
      6.6918485973818373e-002 -3.2515255850046096e-002
      -5.7793197987056080e-002 -1.1458036644713657e-001
      -5.0323593388987016e-002 -1.2430030341612824e-001
      -1.1791744958427094e-002 7.5215374865072696e-002
      1.0376039346068795e-001 -1.1242457442159362e-001
      2.7460529837198475e+000 -1.5270338980322817e-001
      1.7260067550371286e-001 -1.0991127590234372e-001
      -4.9704732453704187e-002 -1.4200445454258143e-001
      4.7787531118076904e-002 -5.8538557532439835e-003
      1.2327194023882052e-002 1.5316177579381632e-001
      -6.4572489754580936e-002 -5.7229506874242969e-002
      -1.0839673197528575e-001 2.7353778788901217e-002
      -2.0140807361584909e-001 2.5638476963582946e-001
      2.4883571689502321e-001 5.9550433459585876e-002
      5.1372820444637979e-002 2.7810972553456728e-002
      3.3487907583457890e-002 4.8328948002711015e-002
      5.6348548288789997e-002 -1.1806641538029222e-001
      -9.2322925173105683e-002 -4.5430291058440563e-002
      -1.1279699351899746e-002 2.2047008456322209e-001
      -2.5393960364092565e-002 -1.0466327026962131e-001
      2.1504990455819035e+000 -6.3857307586354745e-002
      -3.5075581536381469e-002 -5.2558876193547141e-002
      -3.6937130224979985e-002 -8.5868183238823032e-002
      9.8802849711387059e-002 5.1292234811150790e-004
      4.1199368461441635e-002 1.4937852793523407e-001
      -1.6054667284638549e-001 -2.1851726387107606e-001
      -1.4084529203573265e-001 2.3239258359199677e-001
      -1.7649374511847815e-001 2.5361083003453461e-001
      1.8111714919925820e-001 7.5959066318339194e-002
      5.5367499784044441e-002 -2.7266874242607569e-002
      8.9137014029707501e-002 9.7936779884074385e-002
      1.0796354165544586e-001 -1.1849798249928346e-001
      -1.1359742682698221e-001 -3.1077662486422797e-002
      -2.0836559260318653e-002 1.8916123545155675e-001
      1.0561043502865429e-001 -8.9221788135444041e-002
      2.5107665429435060e+000 -2.1556785453750141e-001
      7.8498769243410066e-002 -2.6451329421088080e-002
      2.5069493774420120e-002 -7.3983123420159502e-002
      -1.9927027923558237e-002 -1.1698934757305646e-001
      3.1815083544496411e-003 8.2083344796439764e-002
      4.3041792888747064e-002 -2.0958706759290918e-001
      -1.8030252721006734e-003 1.6757443262457994e-001
      -1.5105312507351970e-001 2.1967038959483998e-001
      -1.6215018018505035e-002 2.4681021907904808e-002
      6.4002275226277938e-002 1.3656276061664319e-001
      1.2547560652893838e-001 1.5565665143677371e-001
      6.7372504448922413e-002 -3.6435582248274721e-002
      -1.1764030950704185e-001 -2.0138275351891682e-001
      -1.0752460486605908e-002 1.6451670139952412e-001
      8.5535103100234225e-002 -2.4337730967892619e-002
      2.2615495776266465e+000 -4.4748368535044401e-002
      1.0598326614028515e-001 -5.0652351763102482e-002
      -6.2355086280522228e-002 -7.3704531660873747e-003
      -5.2435779934571103e-002 -5.2319456121000009e-002
      -4.8941798769056639e-002 6.6291325679702903e-002
      -1.5857675434214896e-001 -2.5482671754324387e-001
      2.2847765484364613e-002 -1.2692810331960733e-001
      -2.7064333842648519e-001 8.3548544152330900e-002
      -1.2795231845331895e-001 8.7463319580820889e-002
      5.2473135203353116e-002 8.2431067664528568e-002
      -7.3028946948195991e-002 -1.3852192594491824e-001
      4.3688433192883951e-002 -1.8119334879749840e-001
      2.8284340826336807e-001 -1.0186022333056501e-001
      -9.3113262711860240e-002 1.0251601446007932e-001
      6.7666726632353930e-002 -1.2632191187882846e-001
      1.3808825802220994e+000 5.4603824273612760e-002
      1.6349359597332566e-001 -1.2755497619750170e-001
      -1.4140424738824270e-001 1.7425705028814978e-001
      -5.6681699101717595e-002 -9.8007186284115970e-003
      -6.6213954912338144e-003 -1.8207655065316319e-001
      1.5719272372731968e-001 1.0940876038669038e-001
      -1.7461782620709829e-002 -1.8415030257052631e-001
      -3.1402695697374181e-002 1.3313875802233904e-001
      -1.3304134398861928e-001 -4.9627032022917003e-002
      -9.9388610246824109e-003 -3.1005243372039235e-002
      -2.3736959229839338e-001 -5.7725235670188876e-002
      -2.3076086316313563e-001 -2.1396734808326426e-001
      2.2216553663368060e-001 -1.3516786676626244e-001
      8.6239900702753586e-002 -1.7423593124891428e-002
      -5.2711517522711707e-002 -8.7327943073566117e-002
      -7.1374056361630511e-001 2.1042417492491472e-001
      -1.4944051324701665e-002 -1.3246271434267817e-001
      -1.4166843171756927e-001 2.2994390114916557e-001
      -1.2045698063633470e-001 -5.8327489441185709e-002
      1.7014424027419248e-001 -3.4730610807224410e-001
      1.4046387492436604e-001 1.1526684332171845e-001
      5.8051864666344946e-002 -1.1879895167690946e-001
      2.5332623262898080e-002 3.2925057569540561e-002
      -1.5190581273534523e-001 -9.6856060537843319e-002
      -2.2898405149142837e-002 -3.0617439183921145e-003
      -9.1695807909745367e-002 8.4604083674133967e-002
      -1.2067549465419435e-001 -2.0555020608095759e-001
      3.0651853393162293e-001 -3.3819270540718767e-002
      6.9695373924209504e-003 -3.4941961993643134e-002
      -2.0618980258088870e-001 -9.8345783748540871e-003
      -3.4933033626881569e+000 -7.4565155997838778e-002
      -2.4658724683839530e-002 2.8075981921562125e-003
      6.7422690773320457e-002 7.5543332811740971e-002
      1.6750087802057356e-001 -2.4521663099257596e-001
      2.5948549617731304e-001 -1.6619606458134362e-001
      2.2807848699208869e-001 1.8494748727342400e-001
      -5.8823330765435554e-003 -4.2410978604555651e-002
      -7.2068620470702352e-002 -1.8407858166996070e-003
      -4.0358401669872340e-001 -1.1198713377023907e-001
      -1.4224847358248718e-001 1.8118793021087654e-002
      -3.3095865018735092e-002 6.3273031953724593e-002
      -1.4204084585031071e-001 3.9384223922243014e-002
      3.5806938615940573e-002 -5.8842137933019165e-003
      1.4263476241235293e-001 7.2521269923577186e-002
      -2.4626584858629239e-001 -3.4454488186301132e-003
      -3.5663231473556598e+000 -1.6486364510620571e-001
      -4.6430311066903623e-002 7.8320223727488592e-002
      -6.6124105756231302e-002 -2.2651105855786027e-002
      2.3284668623237154e-001 -2.8771888298112031e-001
      2.4309221168320358e-001 -7.0476438520800355e-001
      2.9142160005572321e-001 7.6425260705330525e-002
      7.5255355893225045e-002 1.7126927400741429e-001
      -2.6077479600218317e-002 1.8976810038203423e-002
      -4.8587343933017058e-001 -1.6932883071462099e-001
      -1.5496062655670334e-001 2.2473019701634463e-002
      2.8987777445396834e-001 3.1422728712708442e-001
      1.4096751328815194e-001 2.8671675728390356e-001
      9.2994395350780149e-002 1.8533516616131868e-001
      1.2782798844532109e-001 1.1550675301672970e-001
      -2.2415146740075620e-001 3.4870931429816993e-001
      -2.3764372616785940e+000 -2.4611361326073306e-002
      -1.6987782589923252e-003 1.5028928496107066e-001
      -2.5534957092207727e-001 1.1414031559727714e-001
      2.2610003289835345e-001 -1.2298657167762415e-001
      5.2672827481821416e-001 -3.1963342922180366e-001
      1.7615356138749330e-001 1.4663518659661701e-001
      2.5972689010303335e-001 8.6130719850626251e-003
      -6.9081909678492412e-002 1.0449252231583804e-001
      -4.6530030156077484e-001 -3.1467366776258127e-001
      -2.2844943551354271e-001 -2.7430611810351897e-002
      -1.4025856600120173e-001 1.1042926400833226e-001
      -1.4171126976832790e-001 2.1705738612692560e-001
      -1.2650489779503868e-001 -1.2226927509560162e-003
      -1.7642937676614218e-001 1.2971359487782486e-001
      -1.6623377457654620e-001 1.5342208871468851e-001
      -1.7001310172007373e+000 -9.4275805180566608e-002
      -4.2781912959606913e-002 1.6601100332087036e-002
      3.2819027127961775e-001 -1.2692162756624828e-001
      2.0454939142696524e-001 1.1267702845751847e-001
      7.7059349529414387e-002 5.2394744553424945e-002
      -1.8060821951725547e-001 -5.2183070135846599e-001
      -9.4246721931471406e-002 1.5408204972308706e-001
      -3.8420615323601887e-002 1.1675343240741555e-001
      -3.0161096486887268e-001 2.8770792201182255e-001
      2.7656658523535983e-002 -1.1638727155594060e-001
      5.0007779293102606e-001 -1.7851214159045481e-001
      4.4977985217046143e-002 -3.5564840132652015e-002
      -1.9640870488700449e-001 1.2577301449408376e-002
      1.3182178742404507e-001 -3.3161039325916908e-002
      4.3958277697945587e-002 -1.7724183599181759e-001
      -4.0225978691385894e-001 -1.1984386796619835e-001
      -1.5491113772644613e-001 1.2745011547500653e-002
      3.8021601740297756e-001 -2.6975461948157536e-001
      5.0843088201556849e-002 2.4721175567300141e-001
      7.0555853736952667e-002 2.8821706787301582e-001
      -1.8198318781543160e-001 -3.8221170800104354e-001
      1.6373477706689865e-001 4.7467868021073273e-001
      1.7919010559136167e-001 -1.7523010151192672e-001
      -4.6165529070585953e-001 2.3620690649612125e-001
      1.6995167490445751e-001 6.8628078715617883e-003
      8.4859562621947104e-001 -7.3470582959755240e-002
      1.7041980521408542e-001 1.1946522833980747e-001
      -2.7940334148585172e-001 1.2582295993259035e-001
      -3.9372842883158642e-002 4.6593744713771271e-002
      1.9665958234192912e-001 -1.1871893981552931e-001
      2.6913113820695935e+000 -3.3711780784594553e-001
      -1.7942218406882599e-001 -6.2301787017752006e-002
      2.2521368297347027e-001 -2.3957656339085087e-001
      -1.2565268523669926e-001 2.7580697216551742e-001
      -2.6405427990552227e-001 6.3553506492823941e-001
      -2.0917791316655102e-001 -3.1167500215077443e-001
      4.7538002492741338e-001 1.5835981257960030e-001
      3.4595077642528532e-002 -1.4850933306116615e-001
      -1.5044568827204818e-001 3.0694744166941318e-001
      2.6033861714840784e-001 6.9526830477639079e-002
      3.3934168660102521e-001 -7.6802621071025243e-002
      2.7042480727366919e-001 3.6877395777582776e-002
      -2.7385694647990161e-001 4.5179194412303425e-001
      -1.7828380445776514e-002 2.5492859605880946e-001
      3.6068392147228839e-001 -3.2333127877054385e-001
      3.4930779964624681e+000 -4.8111003611385922e-001
      -2.0814067058090625e-002 5.1379944084106836e-002
      1.4228325055127872e-001 -3.3150412547912023e-001
      -1.2606356432279628e-001 3.5752435331182086e-001
      -1.3415114884944537e-001 6.8912341849326020e-001
      -4.2564333041669888e-001 -2.8743501981605607e-001
      3.7140692410532222e-001 1.7705187281252865e-001
      3.9519223919616410e-002 -1.4590725184555367e-001
      -1.3995867332123210e-001 3.5224716687042951e-001
      2.8051024667560231e-001 1.5092813925022994e-003
      2.7067262392058117e-001 -2.4697658720866406e-001
      1.1390581633886411e-001 7.9695835278781827e-003
      -2.5611175906784345e-001 6.0318577838838427e-001
      -2.5632865209129947e-002 2.5977367372912069e-001
      2.9849015620109737e-001 -3.3576883971544164e-001
      3.5774200593835719e+000 -4.2416412158198269e-001
      -7.4343836885696526e-002 4.1147882539495854e-002
      1.2865802223982237e-001 -2.7897125488666402e-001
      -1.0257842941004881e-001 3.6822336231030595e-001
      -3.7651656840541198e-001 7.5128176834289906e-001
      -2.8902403192751308e-001 -4.3908918186503820e-001
      2.9308041654016165e-001 4.1441969709584797e-001
      1.0575898887662789e-001 -1.2322326845509426e-001
      -1.2111780103120441e-001 3.9548481502824684e-001
      2.8411045172432964e-001 4.0553478651430629e-002
      2.5687892593306338e-001 -3.1383191812155486e-001
      1.2034912975066589e-001 -1.6045525528814390e-002
      -1.4953492695095008e-001 7.5034005461277753e-001
      -1.9264728108842780e-002 2.3895832810075715e-001
      2.8788688620379560e-001 -3.3585537347545147e-001
      3.8596641004734500e+000 -1.5370086782080389e-001
      1.6146450131075026e-002 1.1033862645695332e-001
      -2.7342763565436762e-001 -2.1669289682141973e-001
      9.6347166153835304e-003 2.9369535615244707e-001
      -8.0153062888296392e-002 8.3134455690986064e-001
      -3.3317657372098214e-001 -3.3644150894392733e-001
      1.6141833871558234e-001 1.2943068429052113e-001
      -1.1127713106575994e-001 1.4592338757281720e-001
      1.3769293366959717e-001 4.9651970585914090e-001
      1.0416654328413295e-001 -7.3847474641585142e-002
      1.8790909069131767e-001 -4.0818619913724763e-001
      -5.9631957986612867e-002 -1.7034664703446806e-001
      -1.5788205818631862e-001 3.9620185457523349e-001
      -4.3403990466111327e-002 1.5060073974813029e-001
      3.3759331789421554e-001 -3.7249388302884406e-001
      3.4547543687937452e+000 -8.8600513250926341e-002
      -7.5627625960217021e-002 1.3395307980306043e-001
      -1.6768367983086632e-001 -2.6015479352617521e-001
      -1.5409438658459564e-002 3.6346669819402466e-001
      1.0725422271329062e-001 8.7496371103063508e-001
      -3.3599306999532319e-001 -4.4055903900336285e-001
      6.8406056938071141e-002 1.2940275913634708e-001
      -6.8990229876707498e-002 1.2301979702854701e-001
      9.7730266546476874e-002 4.9756068981238200e-001
      2.7328112469960860e-002 -1.1342658896504219e-001
      2.0133774590910433e-001 -4.2519616778501584e-001
      2.9453383516206594e-002 -2.2481455794112545e-001
      -6.6240946598251582e-002 2.4367482976996080e-001
      -1.0810977841566301e-001 1.8303376022389028e-001
      3.3683051318168145e-001 -2.9391000896002140e-001
      3.8037061054713073e+000 9.2943835013108614e-002
      1.0584554924467587e-001 8.1615339573525875e-002
      -2.8608748159078778e-001 -2.5926663425549046e-001
      8.6325990297760474e-003 3.9275421769090169e-001
      3.3141268408248242e-002 8.4935475525415993e-001
      -3.1577464644667586e-001 -4.6065841140874908e-001
      4.4606283502072554e-002 1.4148813586064443e-001
      -1.0813038948421977e-001 2.1960382745348558e-001
      3.4185241904081233e-003 5.8487840903680199e-001
      -1.4542735941395464e-003 -9.3192688194622675e-002
      2.0336668947371134e-001 -2.9374417406068032e-001
      -1.2792966436732403e-002 -2.1003491219249798e-001
      -5.1525577493378043e-002 2.8013476396849719e-002
      -8.4780637149218754e-002 1.5911615390712394e-001
      3.2088529845568853e-001 -3.4761307098619137e-001
      3.7100187900624535e+000 -1.6851347079463636e-001
      4.2195026024581986e-002 1.2275213559908769e-001
      -5.4260572656640964e-003 -3.2264363974951482e-001
      -4.7018646240056514e-004 3.2830895197095372e-001
      2.1014671056932867e-002 7.7905499986443816e-001
      -3.0134078143764897e-001 -4.9940209048833700e-001
      -1.6153966776733730e-001 1.7751818610808603e-001
      -6.0706219437210232e-002 2.7054023779539398e-002
      -9.3932308092081543e-003 5.3691518975287778e-001
      -1.6715365551024302e-002 -8.8734374725985415e-002
      2.3688661582469098e-001 -3.3474628306053511e-001
      1.0252730135292088e-002 -1.8682981128377224e-001
      -1.4544754599393436e-001 -8.4371153637636670e-002
      -1.0881744357261967e-001 1.8280079810202124e-001
      2.8515252234079930e-001 -2.4514938383245649e-001
      3.4309245805573370e+000 -3.4812274902356688e-001
      1.5871557261462870e-002 9.8400691728105436e-002
      3.1034517879468704e-001 -2.3783084124681156e-001
      1.0879009360278713e-001 1.8217224787731240e-001
      -7.7296544582517959e-002 5.6424626972152214e-001
      -1.8768339868602433e-003 -3.1221251559426072e-001
      -1.0045407895517405e-001 6.2938785817898024e-002
      4.3080447602705683e-003 -8.0700311146523387e-002
      -9.1758858096416249e-002 2.3845920547259075e-001
      -1.0387099475638427e-001 9.8954769400829160e-002
      2.8006374039109622e-001 -2.0151588541289608e-001
      6.0199491086497081e-002 -1.4186603603643957e-002
      -3.4550566498591612e-001 -2.1239868988894192e-001
      -1.2775874583815878e-003 2.5642792689058969e-001
      3.7688665464339667e-002 -2.2334425306736683e-001
      2.6778752422894141e+000 -2.8401132346676472e-001
      1.1550829891290224e-001 6.8788655835855833e-002
      2.4685694608991729e-001 -3.3493316304497123e-001
      1.2504059046972327e-001 1.5777307386310072e-001
      -2.1415920953443776e-001 6.1514043850609879e-001
      -2.1204085543857342e-002 -3.5372647083087905e-001
      -2.1357006560027419e-001 1.2477233208496522e-001
      -4.6742705106578575e-002 7.2103805401339718e-002
      -1.9335771799804566e-001 2.3042330753072771e-001
      -1.3730819390028268e-001 1.6999376660969151e-001
      1.7406936707667856e-001 -1.4430010778509816e-001
      1.2726762812250261e-001 2.0682062954953003e-002
      -4.0804211262170437e-001 -2.5910472363612613e-001
      2.0942817471132195e-002 1.7769151867901903e-001
      -1.9849975969866065e-002 -2.8048349735285122e-001
      2.2077603599594444e+000 -4.1671942906655124e-001
      1.2403240781958057e-001 7.0320249337568030e-002
      2.8631068240188151e-001 -2.9469785848305396e-001
      1.1507312428170763e-001 1.2201951301659525e-001
      -3.3167934862293302e-001 4.1895918621415257e-001
      2.1657753305914018e-002 -3.5193818991868481e-001
      -2.3080646506942379e-001 1.6934134558557215e-001
      -5.0622305864854653e-002 2.9528916197615563e-003
      -3.3190323511505271e-001 1.8449201043645191e-001
      -1.0478674779486013e-002 2.3431256915739121e-001
      1.7916066278133669e-001 -1.0780885731291197e-001
      2.6628514755690247e-001 4.4640071160288133e-002
      -4.3895294692070541e-001 -2.6015686036531777e-001
      7.8435143471171920e-003 1.8816653110788253e-001
      -3.1416695160662575e-002 -2.7912286797495051e-001
      1.5273916402617473e+000 -5.0435707342892255e-001
      2.2603200619251554e-001 -1.3947467516681319e-003
      3.7953840226594793e-001 -2.7655973090854274e-001
      1.4414825740314990e-001 2.8654509597191555e-002
      -1.8435029809018147e-001 2.4308082350237079e-001
      9.2057504285227840e-002 -3.2915734411669956e-001
      -1.0539751087112510e-001 2.1864459791179880e-001
      -5.3850599432514829e-002 -1.5886494316947747e-002
      -3.3376783197096782e-001 1.5858713311884429e-001
      -5.3487631799632958e-002 2.9872880320207029e-001
      -4.2134788898258897e-002 -8.0764426525994290e-003
      2.0202445085575227e-001 6.4442515896270300e-002
      -5.3315677194803546e-001 -2.9796287889825041e-001
      4.0947873079564032e-002 2.3157532925532348e-001
      -8.7764807731122413e-002 -2.0782464448230697e-001
      2.7444489647097035e+000 -5.2502596622264486e-001
      4.7341894774728589e-002 -1.3162137449020988e-002
      4.0002151610182457e-001 -3.1136951560268977e-001
      1.4566705978849837e-001 -1.0501325579474292e-001
      -1.7867806155968197e-001 1.9792380413915453e-001
      2.4114695563578811e-001 -3.2265582790878583e-001
      -3.0898709341657740e-002 1.6669965710918833e-001
      -1.0738432586559718e-001 1.8656148126267428e-002
      -2.9091420964382692e-001 1.1270743470442759e-001
      -1.5577901842273165e-001 3.6587205374484166e-001
      -7.4276909261159846e-002 6.8826516708135513e-002
      2.4106464672259761e-001 3.4891995363722457e-002
      -5.4646085327274274e-001 -2.7222383152308666e-001
      6.9274943636579808e-002 1.4082645800795213e-001
      -1.5211767568269996e-001 -1.7911965000429569e-001
      1.7369041852516778e+000 -1.2203610441096394e-001
      -5.2227451428368959e-002 -5.5758873812537822e-002
      1.6602733331178188e-001 -3.6021013706992389e-001
      4.9067757403531760e-002 1.0610428800933977e-002
      -7.8632829207688631e-002 3.3482228215056592e-001
      -3.5165517019402626e-002 -2.2514867719207005e-001
      -3.5485800031266764e-003 -2.0123515093246551e-002
      1.0710130572892440e-001 7.3036317752060972e-002
      -3.0815940638912298e-001 9.2095173055015883e-002
      -7.3933844351891473e-002 1.3816204752731676e-001
      -1.6961230771477273e-001 -3.0685963944521844e-001
      6.2387766707234692e-002 -8.4445317743962620e-002
      -2.7190766055099441e-001 -1.2329004281868426e-001
      -5.7227864267454846e-002 2.3065807540529004e-001
      -1.2673358572444974e-002 -2.9434682642260718e-001
      2.2093584038291665e+000 -1.6210849353473583e-001
      1.2600964362890495e-002 -2.5772643829617198e-001
      2.1538815887301771e-001 -7.2757221830578825e-002
      1.6334199101057476e-003 9.5231329263121722e-002
      -6.2403403803073035e-002 1.4548646296417592e-001
      -8.1561999319684029e-003 -3.5611416314225368e-002
      -3.9687856935886074e-003 -2.2302866056583212e-001
      1.2489568449999376e-001 -1.0693787023469264e-001
      -9.1266889551800831e-002 -5.6131733168514684e-002
      -4.5625462315110464e-002 2.1924803796384409e-001
      -3.8088396319674278e-001 -2.3847572779599063e-001
      -3.0839999339193170e-002 -2.6288459846146883e-001
      -7.7855511660385845e-002 -1.2749268555314228e-001
      -4.3548190192341726e-002 2.3601518743813193e-001
      -1.9923472196844405e-001 -4.0997281078550087e-002
      1.7512201541437589e+000 -1.5739323797100813e-001
      7.5576473099161198e-002 -3.1683044582306097e-001
      1.8293292377054102e-001 -1.3370362790346163e-001
      -1.3625148305823376e-001 1.5504952513490114e-001
      6.5547333974818850e-002 1.8618856864071656e-001
      -1.5670231313505967e-001 8.6504053550348653e-002
      -1.9744195287901378e-001 -2.9909114304773232e-001
      1.1935372954388794e-001 -1.7883963163032751e-001
      1.2288204653993923e-001 -9.6987573440272576e-002
      6.1295063776569533e-003 2.4742443146652113e-001
      -5.2321475462226608e-001 -2.8807176820439967e-001
      7.6774823594980123e-003 -2.8136160567915358e-001
      -7.8777594991066735e-002 1.1652118610553657e-003
      -4.2708464527693842e-002 3.1084685348254892e-001
      -1.7447029951922299e-001 -3.8360466407580410e-002
      3.5950500699993476e-001 -1.7027635667438851e-001
      -1.0013723771128885e-001 -2.4568765658256705e-001
      3.0447416681562617e-001 -1.3099727727249602e-001
      -1.5723880735429904e-001 1.5474713209071286e-001
      1.2285874547628543e-001 1.7837811204118303e-001
      -2.1561864992449986e-001 -4.7414879191709607e-002
      6.8101163844474025e-002 -3.2195250977962420e-001
      6.0600858152792689e-002 -1.6534422385823866e-001
      -7.2203550288140614e-002 -2.7233339229823180e-002
      -1.2428426827513112e-001 2.4853576015086465e-001
      -3.8027286916223491e-001 -1.7097950169337625e-001
      -1.6871345487198533e-001 -2.7975304678525953e-001
      -1.6909327885386752e-002 -8.8311593009067473e-003
      -7.8172452134150583e-002 1.9312990127884022e-001
      -1.1927272111523417e-001 -1.3577073159368308e-001
      -1.8598049609844320e+000 2.3345392448013237e-002
      2.3778266257992686e-002 8.4770565358280869e-002
      -3.2445970866681606e-002 6.4189195955791881e-002
      5.8937680244669832e-002 -5.0352474909313300e-002
      4.3806662906541893e-001 -1.2971706972910692e-002
      1.4581581033321719e-001 1.2709640935443781e-001
      7.6865418055520399e-002 9.8426974880390108e-002
      1.3319023180261468e-002 -1.0938911839296621e-001
      -1.9755470964314825e-001 -1.3386707228495978e-001
      -2.0089920493253371e-001 1.2667461116775511e-001
      1.4555038043447821e-001 -9.1018883546691520e-002
      -8.6436257830802735e-002 -2.7474717248293518e-001
      -7.1742259178705553e-002 1.6613830224046319e-001
      -8.4124982662492118e-002 1.6238218504546434e-001
      -2.8782550752584557e-001 1.0131514913620976e-001
      -3.8037004889748012e+000 -7.0702469017050365e-002
      2.6568872306306075e-002 1.6426297256542122e-001
      -1.2670184238267196e-001 -2.2332114573248026e-002
      3.3571689129337218e-001 6.5688142798188964e-002
      5.4591393838185875e-001 6.7454528487264839e-002
      3.6836110895875279e-001 1.1547004639939031e-001
      2.0843208695817214e-001 3.2108402280553711e-001
      8.2819498429373591e-003 1.3787458048701390e-001
      -4.6709058456485281e-001 2.1527450011918858e-002
      -2.3231691361877874e-002 1.6058650694877596e-001
      4.3627338821440659e-001 -7.7861238142739236e-002
      -1.0038320784266989e-001 2.4867605807635595e-001
      -2.6026259357312809e-001 2.3269268683740024e-001
      -7.2920833165570173e-002 -1.4977454966090353e-001
      2.6464061551681367e-001 -8.0590019095793289e-002
      1.2473776338807865e+000 -4.0906560672714629e-002
      2.7041032748495238e-002 -1.3335743264204053e-001
      2.8865386760749967e-001 -1.5433970367422181e-001
      7.5814943477073612e-002 1.0319762805379910e-001
      7.8904696292567203e-002 9.3194531774588141e-002
      3.6158168739613195e-003 -1.3780801770270501e-001
      2.2293276995395331e-001 -1.0677185883586014e-001
      -2.8627659102693020e-002 -1.0705209308137764e-001
      -3.1337777169008729e-001 2.1064252304952100e-001
      1.8582565769614326e-001 7.8433703754206940e-002
      3.4345857970617732e-001 -1.4257315362085959e-001
      7.8583376228732349e-002 1.0734252651277393e-002
      -8.9918056808329830e-002 5.1475553926697892e-002
      1.0628466206243687e-002 1.1529936781422423e-001
      6.8411375597467766e-002 -4.7900202582925641e-002
      2.7890522450561424e+000 1.2864352286565420e-001
      3.1749603347859721e-002 -1.7663613353927221e-001
      3.5065722181132181e-001 -1.7541219698296143e-001
      -1.5501077070467897e-001 1.0352680197514876e-001
      3.7437312300275173e-002 4.9666877124415415e-001
      -5.0985252493936227e-002 -7.8958664127624464e-002
      3.5603954793436748e-001 -1.9601061969016287e-001
      1.4595109642686602e-001 -2.2147411116233093e-001
      -1.4507424357546900e-001 1.5199198486750845e-001
      1.1994330227159991e-001 9.2751342368155049e-002
      2.6160019111140281e-001 -4.0400348417330362e-001
      1.9791767879870586e-001 7.1970837976626775e-002
      -2.7829147944322224e-001 1.1851590835897911e-001
      -1.0080895841059369e-001 2.6070081924686023e-001
      9.3837597256759137e-002 -1.9972494117862447e-001
      1.9945130485040385e+000 -3.4078375578966612e-002
      7.5924208488423878e-002 -1.0926139272806407e-001
      -4.3844724219345925e-002 2.9102244714447618e-002
      2.2841966143799151e-002 -1.1323598836218671e-001
      -8.6371799120697368e-002 3.3777727688240627e-001
      -2.5517694359074827e-001 -1.6575972302931311e-001
      6.5627803193512124e-001 1.8892452866616968e-001
      -5.8834846097244806e-002 5.7898115971503503e-002
      4.7972860066290625e-002 1.6461883822250986e-001
      1.3771349437114183e-001 -8.3413607886384245e-003
      2.2202562059923478e-001 -1.0700949969500363e-001
      3.1422310111785319e-002 -2.2244875170453416e-002
      -1.2545026734232229e-001 1.3854788808410851e-001
      -1.1337560110180710e-001 2.8713497842546160e-001
      1.5071440049472259e-001 -1.0333677545076016e-001
      2.2032980170567216e+000 -2.3798471689729217e-001
      1.2354716294571139e-001 -1.7461889222326867e-002
      -6.2756592286998994e-002 -8.2362100635317820e-002
      -6.1028911999405265e-002 -1.6949005484482277e-002
      -1.8423778917057310e-001 1.8822977507145086e-001
      -9.0731192539639627e-002 -9.4660325609300836e-002
      2.4837991566541850e-001 2.1402698645364648e-001
      -6.6517462064221683e-002 4.3846865269627069e-002
      -1.4430117887212507e-001 1.8872685573949100e-001
      8.8032024505412476e-002 6.2500053078088813e-002
      2.8490833165414348e-001 -1.2005722513900165e-001
      7.9633114333639440e-002 -8.3339796408135339e-002
      -1.2921574221640392e-002 2.8718363034609495e-001
      -1.5868793366252412e-001 1.5725258138622031e-001
      -1.2790401270749390e-002 -1.7740938552329324e-001
      1.8805743195122793e+000 9.5507223941068004e-002
      2.2407349253155573e-002 7.1353429486469125e-002
      -5.1522027115284974e-002 -7.1802643180888706e-002
      -1.0894820707229794e-001 -1.7552119683916056e-001
      -2.6234544813717914e-001 1.9721568637516360e-001
      5.3565270978419781e-002 -3.4804992989356964e-002
      -5.3889136560692878e-002 1.4782717471934553e-001
      -6.7986963745015963e-002 -3.0021785942605607e-002
      -4.0147168388440270e-002 1.4276588396662129e-001
      1.3821907526129709e-001 -7.5642564901269305e-003
      6.1922631645893435e-002 5.0970020940764305e-002
      -8.2415303611225496e-002 3.8167793269646567e-002
      4.1680576333084432e-002 2.2854615610770318e-001
      -1.1410965111064886e-001 1.2823955189249872e-001
      -1.2276518420561812e-001 3.9751536925086275e-002
      9.1673321126587204e-001 1.5202031635053079e-001
      8.4006721967919390e-002 2.3022820016421117e-001
      -1.6215080728077214e-001 -1.3089906569809079e-001
      -2.6228271073982217e-002 -1.2203078217384783e-001
      -3.6121575273711293e-001 2.2482961266688894e-001
      1.7564428920551828e-001 9.4540799128358347e-002
      -1.2210689198344966e-001 1.9415065903998094e-001
      -7.3044424072339950e-002 1.0897758691930434e-003
      1.2309733810346439e-001 1.2462256991787142e-001
      8.5554318079564082e-002 1.0104208729506657e-001
      7.6716223168520586e-002 1.4770671102791011e-002
      -1.1789675887137088e-001 7.3718058375090531e-002
      3.5717767084535432e-002 3.1846132695821822e-001
      -4.3074956840520241e-002 -9.1383137274208895e-002
      -3.5291380620440439e-002 7.5326048013458616e-002
      1.8809775436467679e-001 -6.7028878532391672e-002
      7.8556924787516903e-003 1.5643414986742302e-001
      -7.1984771600454953e-002 -2.8282537551712304e-002
      2.3144223476995568e-001 -1.9727581159066285e-001
      -6.7607703015872822e-002 2.0367892363537585e-001
      1.2722011170716888e-001 -1.6502702847910607e-002
      1.7938472272558606e-001 2.2794862014572351e-001
      -1.2078919523430956e-001 9.8267591218876474e-002
      -7.1435505166176971e-002 1.4973157899227360e-001
      1.6747007063541738e-001 -2.4741996052437213e-002
      1.3100755188759361e-001 -8.6177968423054752e-002
      -2.0633890355507115e-001 9.0242547995410802e-002
      2.6262705069352951e-002 1.8186203647667187e-001
      -6.5611735825610834e-002 -3.7370153851754212e-002
      -1.4812123132227956e-002 -7.8331369041855961e-002
      3.6012454571969543e-001 1.5428614160682026e-003
      7.9373913995675095e-003 2.4972858149382640e-001
      3.9388950946295700e-002 -4.3304847136914688e-002
      4.8877784302788274e-002 2.5998379499608372e-003
      1.0409483090620025e-001 7.1064342937802213e-002
      -3.4468719874335939e-002 -1.0281420597827676e-001
      2.1950183788003973e-002 1.5337241599240703e-001
      9.1802621360089237e-002 -9.3520825944455710e-002
      -2.2831568464801246e-002 2.1959135620075884e-001
      -8.3942357476590769e-003 5.6208816889652555e-002
      4.4763546953669203e-001 -6.0126430861288188e-002
      -3.0753792145193920e-001 1.8020046350265606e-001
      1.5138932992513678e-002 6.8722307626596507e-002
      -1.3230363226590997e-001 6.9671906750100765e-002
      -1.0787036129239785e-001 -4.1945002360075659e-002
      -3.2668218942021610e-001 -1.7055365132825473e-001
      5.6853346414490934e-002 3.2760572728705717e-001
      -1.5069503098277534e-001 -1.8763296014915654e-002
      9.3026553561112460e-002 1.1234979193344018e-001
      2.8524959649630105e-001 -8.2538147479694190e-003
      -1.9056331178863389e-001 -1.5455642727823699e-001
      -1.4710528581990781e-001 9.0123108748411063e-002
      5.6193931413748621e-002 -3.6524971111921052e-002
      1.1274726448928417e-001 2.9745670635753196e-001
      -1.8716682458188658e-001 -5.4944209465599379e-002
      8.2137510605954293e-004 4.7632401705118135e-002
      -3.9250733246653063e-001 1.9552913460646276e-002
      -1.9490318052636861e-004 2.6611047871991748e-002
      -3.9836502693663588e-002 1.6332990906554054e-001
      -1.3226705544352443e-001 1.0645058231885440e-002
      -3.7840754924763537e-001 -1.7249695623227879e-001
      2.7020598159884529e-001 2.5619373012077751e-001
      -1.0482124118995459e-001 6.8773662907236346e-003
      2.1052708022699297e-002 4.5233604906153906e-002
      3.0419215580372255e-001 -9.7558097256707443e-002
      -1.8107721423499795e-001 -2.9247521274999316e-001
      -7.3140439099563567e-002 1.7261180763066292e-001
      7.7879116169091130e-003 -7.6574170234974662e-002
      2.2467500048530566e-002 1.9188907182870693e-001
      -1.1454068423836125e-001 -2.3525448600224522e-001
      1.3968987244944822e-001 1.3658913621382696e-003
      -9.9012800452555227e-002 4.5390394277685944e-002
      7.3978077976759482e-002 -1.7992706671444803e-001
      -1.2457863557921906e-002 3.8719725365372204e-001
      -2.7987398358654647e-001 3.1663101399374627e-001
      -5.9203043292688717e-001 -2.8108872613503644e-001
      2.0556109416706644e-001 2.1121789258914908e-001
      1.4858193333299829e-001 6.1602955134934932e-002
      1.7502255588245555e-001 -1.8951955734532826e-002
      1.3275152702332860e-001 -3.7075139431551309e-002
      6.8039362839324505e-002 -2.9152893308865746e-001
      -1.8667756135714575e-001 1.9837505498792765e-001
      2.8029017558071218e-003 3.8247148529606298e-002
      -1.0303726746746891e-001 1.5664608266360017e-001
      -2.2264787378371384e-001 -9.5366727609548285e-002
      1.2116833270724134e-001 6.9601037596892262e-002
      7.6939511334609537e-002 1.6325147458956377e-001
      -5.0811432703441108e-002 -1.9966333987618939e-001
      9.3139983798420062e-002 3.9130241301918384e-001
      -1.3747156612406844e-001 7.6501544808234775e-002
      1.0059828789650780e+000 -1.6584329419224209e-001
      1.2679372435931760e-001 9.7255538608562231e-002
      3.0270820883215331e-002 -1.6298658933976536e-002
      1.3533458780942448e-001 -4.2577024760138471e-002
      -1.2217484454895332e-001 -2.2379524134584700e-001
      -9.6629162751113232e-002 -1.8229103821020784e-001
      -1.3030777538663785e-001 4.6992250600867154e-002
      -1.8770417326855682e-002 2.1861201365793667e-001
      -8.0547618818603853e-002 1.2627801871921149e-001
      -2.0841717982370095e-001 -1.9646218644335658e-004
      8.7476971490844990e-002 1.2033170129449050e-001
      1.1227557956177947e-001 7.8665103432468575e-002
      7.2533257898450918e-003 1.4050874530958471e-002
      2.4547291343552352e-001 2.0129687761619500e-001
      -1.1899128126456976e-001 -1.3161400506674595e-001
      -2.6645816217099466e-001 -3.2811834590747600e-003
      2.8310681356755237e-002 1.3228935861715990e-001
      8.1542631784866537e-002 -4.6501451710831219e-002
      1.8853614668611532e-001 2.6784811442987128e-002
      -9.2984722848134096e-002 -2.2428343162154529e-001
      1.7133781265682488e-001 -1.5358043300193128e-001
      -6.1667594201674902e-003 -9.3441967116603981e-003
      -1.1691663564160067e-001 2.6526257219616578e-001
      -3.7060258729377779e-002 -1.9893420339466769e-002
      -2.9287578359832295e-001 1.5951620795004468e-001
      3.4844804517646093e-002 9.1566574398595474e-002
      7.2878615214045053e-002 1.5076957625196288e-001
      -1.4851385379282558e-001 -3.6775066462906431e-002
      1.3892480960148379e-001 -3.4245406284797011e-002
      6.2416774869242721e-002 -2.6344845900677527e-001
      -7.0302181065402225e-001 1.1627651008743715e-002
      -5.4906856874572460e-002 3.0453755477163998e-002
      9.9155898910054052e-002 8.9543033484911095e-003
      1.7368699600953177e-001 -1.2152495979610970e-002
      2.0820832323934568e-002 -2.0267605546086806e-001
      -1.9470474613344769e-002 -2.3910774016901570e-001
      7.7106778541544324e-002 -5.4182694255593217e-002
      -2.5571093605159922e-001 2.0499826245493044e-001
      -8.1716496978911132e-002 -3.4675740860594911e-002
      -2.1121299471021140e-001 1.1703454050391780e-001
      5.3178764228670239e-002 1.4176528439789718e-001
      9.9314174168372030e-002 1.8541568305286718e-001
      -1.0600758186054199e-001 -7.8113145342132137e-002
      2.0804999518055814e-001 -9.8702454715148005e-002
      7.9686997140676272e-002 -2.0933919003407048e-001
      -6.7418536408106544e-001 3.6304360868768541e-003
      -3.6826000526421862e-002 -5.4465685982591487e-002
      1.8747438982287795e-001 -6.4398842594951503e-002
      1.1366157828916708e-001 -1.8396364168083629e-002
      1.2439797512745736e-001 -1.3414472153932855e-001
      -3.4893986903065471e-002 -6.2400306476482918e-002
      7.2787901486616721e-002 -2.3270053047884395e-001
      -5.7397973010776926e-002 1.6571934428896201e-001
      -1.5989693631662619e-001 -1.0566463696456321e-001
      -1.7605089386982961e-001 7.1203167113087995e-002
      -5.5050988686382363e-002 3.0604846492996995e-002
      -6.8554766564075586e-003 2.6209826005048814e-001
      -1.8439542497198053e-001 -1.1995688346347847e-003
      2.3709304187771080e-001 2.0484679265499392e-002
      9.2067433435989027e-002 -2.5104820889114826e-001
      1.4470525602540965e-001 -8.2056200004401707e-003
      2.8505310844258072e-002 -2.2160491198554325e-001
      -1.4443061298240606e-001 8.2434387346244420e-002
      5.0431727890889073e-002 -6.2879070928514622e-002
      1.3135307113247666e-001 -1.4503589779739885e-002
      -1.6052276303325633e-001 1.3667578504089997e-001
      -1.2607320838330341e-001 -2.8094298112076532e-001
      -9.0331138783212889e-002 3.5681646847889370e-001
      7.9199125452083824e-002 -3.3885004347152747e-002
      -1.3660645720726319e-001 -6.6307208911354207e-002
      -4.6658852314924643e-001 -1.0243871458398467e-001
      1.1007723532427047e-001 -1.2276909599941628e-001
      1.0588654777890281e-001 -1.4998161618796957e-001
      1.2955074583011592e-001 2.1178284496514273e-002
      6.5535968826758136e-003 3.1525537168124167e-002
      4.7705779765990819e-001 6.4367511743785757e-002
      -4.5425206097501065e-002 -2.6304687340966865e-001
      -1.3569081387183943e-001 4.1466512041833806e-003
      6.9834681600531065e-002 5.8124072941379584e-002
      1.3248508367237571e-001 -1.8213930001064096e-002
      -2.0711412307304364e-001 6.8644802673291566e-002
      -2.8612794879566661e-001 -3.7437238778273724e-001
      -2.9717630641966516e-002 1.7966475651593300e-001
      1.2336807616471734e-001 -1.5284860020856761e-001
      -2.7572846751227172e-002 -2.7461643245442268e-002
      -3.4205596367280017e-001 -1.5567867544562000e-001
      1.0474717763994772e-001 -3.1862897700509602e-003
      1.9198647242255934e-001 -1.4810792687770288e-001
      9.2877414588234480e-002 -2.5661500178820486e-002
      -8.7679673474161571e-002 3.5429781605282061e-002
      3.4377989916458390e-001 3.2601361207826057e-001
      -1.3446540564778332e-002 -2.4918114634404681e-001
      -2.0713357742694377e-001 6.4844382754901383e-002
      1.0277382974915308e-001 -5.2261177471056561e-002
      3.5839058990020878e-001 1.0143235835685134e-001
      -2.9035878474565185e-001 1.1089972949636612e-001
      1.2568717403893914e-001 -1.3272191250253743e-001
      -3.3861600315807552e-002 1.3774841722668477e-001
      1.0495425257837310e-001 -4.9215364998121111e-002
      2.2227338951563525e-002 -1.1993656155299928e-001
      -3.2681545912487486e-001 -1.8477355705930984e-001
      1.4896256391742435e-001 -1.9833176643264649e-001
      -1.0242227793355541e-001 -1.7651790411093077e-001
      -7.1372349503167395e-003 1.2975315922223341e-001
      -6.6803987832985412e-003 -5.6060593854988121e-002
      1.5423198027338276e+000 -3.6742350026473997e-002
      6.9052753903684538e-002 -4.8537017457535447e-001
      1.6708637722003103e-001 -1.3421468489736246e-001
      -1.1560488475115735e-001 4.6643403667847035e-002
      1.5112689308952382e-001 4.6588723864650357e-002
      -7.6494215248966574e-002 -5.4981750522278133e-003
      8.1304562363554836e-002 -2.3845872116737246e-001
      1.6842891050982955e-001 -1.4283716320810477e-001
      -8.5328142468178034e-002 -1.4363282137460123e-001
      1.1231630718337779e-001 2.2669046743916083e-001
      -2.9908701897721779e-001 -3.2802812778536150e-001
      -6.5811370081905060e-002 -1.6257730742193552e-001
      -6.8419155612134866e-002 1.3474486567797081e-001
      1.1258195374224989e-001 7.2559508530140260e-002
      -1.1142919555638295e-001 -9.2700084501094807e-002
      -5.5978210228273029e-001 8.8536906624369999e-002
      1.8408550876657664e-001 -2.9869017074205972e-001
      1.1482538125195663e-001 -3.8661373947903949e-002
      5.7597703138777025e-002 -2.4413577279116133e-001
      3.7879566713307289e-001 -1.6652251442488894e-001
      -5.4203876218507113e-002 -1.0733992718946905e-001
      3.5569527274197693e-001 -9.6282903071397002e-002
      5.8600688137903624e-002 -8.9160068021067032e-002
      -4.2908495902815214e-001 2.3198396805982185e-001
      2.4811390012592899e-001 9.0965295010987018e-002
      -1.1273691891098284e-001 7.8740997011619213e-002
      1.6691094599903748e-002 -2.1897601822383578e-001
      -9.3722452858916575e-002 -9.4861828619834332e-002
      -6.4130704395421928e-002 3.4436872020141618e-002
      7.0545460584194490e-003 6.7605936555355760e-004
      2.0957599873497470e+000 9.4091558538528131e-002
      -1.4638869352045519e-001 -9.5030637626698056e-002
      6.4961731517244924e-003 7.9965812960156646e-002
      1.4369063784021796e-001 -5.7138210624279083e-003
      9.3662513108387385e-002 -2.3794002657390600e-001
      3.3066500147474831e-001 1.5163223047272226e-001
      3.5993667022523934e-001 -1.5281867988858863e-001
      -2.6517369610814223e-001 -1.0129558863602255e-001
      -4.5940503414385164e-001 -6.4595104172716702e-003
      2.9696183438317947e-001 2.0594092101699588e-002
      6.7396803679997605e-002 6.5987079014914268e-002
      1.4434753017015817e-001 -4.9129064478027763e-002
      6.8039430328927925e-002 1.1928679616255135e-001
      -3.0539209596652356e-001 1.6458656863034773e-001
      -9.6311746057807124e-002 1.9645519940443376e-001
      2.1609434714379350e+000 -1.7365867513608887e-001
      8.9222666201502196e-002 -2.1813671918560645e-001
      1.3082197416531558e-002 -2.2271006826820781e-002
      7.1839007223183593e-002 -2.4729307978232379e-001
      3.0080724993621055e-001 -8.3451619993136425e-002
      1.2575080934626948e-001 2.1656412523779198e-001
      4.7493170217724129e-001 -1.0984636136381840e-001
      -2.8775143945581017e-001 -1.5387094805606463e-001
      -3.4127005181759029e-001 -3.4068146204667041e-002
      2.6134296317402540e-002 2.2781105124521808e-001
      1.8675840868998483e-001 -5.6306734376679844e-002
      3.2235302159387574e-001 -1.4577820562913441e-001
      -7.1418142720357392e-003 4.5610638085483129e-002
      -3.1497960395039509e-001 3.6791002745358364e-001
      -3.1036570666686147e-001 2.6104968265334794e-001
      7.6588774366469192e-001 2.4528272613036139e-001
      -8.6368789595564183e-002 7.1067140041614060e-002
      1.7204372537232889e-002 -1.0289384591479744e-001
      -2.3425551061470209e-001 -4.9056708631263629e-002
      -6.6229093176447096e-002 -1.1772144103351348e-001
      9.8078784024533003e-002 -1.1610461769164422e-002
      3.5776165143777805e-001 -9.1319855566921460e-002
      -1.0221858762646399e-001 -1.6191190342223216e-001
      -3.8422348243140186e-001 -3.1923183689706773e-003
      1.5829009973276406e-001 3.0930308071745749e-001
      1.5836154041243394e-001 1.1947267852343092e-001
      -4.9576668272926394e-002 -1.3070684023231544e-001
      1.2740476493164396e-001 2.7818399803563587e-001
      -2.0510349398241587e-001 -9.4979103361991613e-002
      -1.3149151201208761e-001 3.0578232477437001e-001
      3.0921109100965682e-001 -2.1045222762581536e-001
      7.5783432202892215e-002 -3.6718665182239422e-002
      -9.9834431113672101e-002 -3.3309238408929120e-001
      -1.6968144118891998e-001 6.9145176814939077e-002
      -2.3130857698909993e-001 -2.0709893422013157e-002
      -3.4289432126806206e-002 2.7266540882981810e-001
      -1.1887822131721427e-001 -1.4997233214198458e-001
      -2.3216913836931324e-001 -4.2322853217877654e-002
      -2.1211366469869691e-001 -6.6887519678385743e-002
      4.3425366373371710e-001 1.9101546159522007e-001
      1.5268167956301748e-001 -1.4929873751506556e-001
      6.8546976810481969e-002 -1.8440534916348297e-001
      -1.0733146688874537e-001 4.6547493565729231e-001
      -3.8905993908490338e-002 -2.4414741763750056e-001
      9.6782940407773049e-002 -1.4774761695260555e-001
      -1.6117587422685673e+000 -3.8757919812254946e-002
      2.5375229314377638e-002 2.0199415174973846e-002
      -6.5562631895211172e-003 -3.0239330196066944e-001
      -1.3753495372264052e-001 3.9786624933719969e-002
      -2.1786520050634964e-001 -1.5138045074394460e-001
      -4.3573186315541246e-002 1.0349548429247839e-001
      -8.9718239629506980e-002 1.2964605826765885e-001
      7.2861843925113648e-002 -1.6570336387696344e-001
      -1.7518606173614737e-001 -4.6061678604502249e-002
      2.5453341422698011e-001 8.3991625097416284e-002
      2.7089059126666865e-001 -5.6686009480781521e-002
      -1.6270829342228313e-001 4.7576188123026705e-002
      -7.1440100967536585e-002 5.3592416954360944e-001
      -1.6454580907371619e-001 -4.7367226478570262e-001
      -1.4370542912165085e-001 -1.0277054969711022e-001
      -1.7343723760346137e+000 1.9775990641817814e-001
      9.4701734987138339e-002 1.5781648297600212e-001
      2.8890940941709960e-002 -9.2056430785024457e-002
      -7.2273198859123339e-002 -1.2447857530113791e-001
      -5.2297979551895746e-001 -3.0776462965773344e-001
      1.2757375411072752e-001 1.2720588004143735e-001
      -1.1302581622584759e-001 2.4118156807122981e-001
      5.8302069948688473e-002 -2.7162996706754661e-001
      4.0622434042938450e-002 -2.5886645364128341e-001
      2.8650712078734886e-001 2.4020327026722296e-001
      1.6051050308305570e-001 2.5122564362828387e-001
      -1.9767766615991719e-001 1.3752154583124623e-001
      8.1790680815713224e-002 6.0658969978306854e-001
      -1.1185798264429460e-001 -4.3678206270874875e-001
      -3.2316555685451297e-002 -8.0782362057963075e-002
      -2.2076829743295163e+000 3.3409811742604956e-003
      5.2358604066163404e-002 1.2171290378178649e-001
      -8.8545044465192485e-002 -1.1137322005361491e-001
      -4.1480817870902895e-002 2.9975592406042140e-002
      -1.0801249644755602e-001 -4.0386927174894012e-002
      8.3629312783580101e-002 1.8201229247735110e-001
      -1.3572797740120490e-001 2.2868253711761533e-001
      1.4569353846931593e-001 -1.0125289207793109e-001
      -3.4443577459154370e-002 2.7137783529167212e-002
      1.4765465336325220e-001 7.8132394487774134e-002
      4.1473939252146541e-002 -1.3205379547665578e-002
      -3.7853439876114942e-001 2.9902304755048497e-002
      1.2533707518460585e-001 4.4129713173379886e-001
      -1.2366995368026880e-001 -5.0851190596121665e-001
      -6.0411300431609999e-002 -7.0050916537375982e-002
      -3.5231296368269001e+000 5.9862195952361294e-002
      4.9479990128004039e-002 7.9976528287820634e-002
      -2.3216853085794725e-001 2.7162683292162395e-002
      -7.2313032325318979e-002 2.4067157376881587e-001
      1.0869114665847053e-001 1.9370727801689283e-001
      -1.6778838341654959e-001 -8.5550019642813085e-002
      2.0674124361619917e-001 2.1902843275718600e-001
      2.4104962418347653e-001 1.1277605579444936e-002
      -4.8007182003114442e-002 2.3093439685578876e-001
      1.3061246785051300e-001 7.5853041719382251e-003
      2.5293259845297889e-001 -7.9080957114344541e-002
      -5.2731929774000696e-001 -6.6226761426186262e-002
      4.1243144682043797e-001 4.2001187526786199e-001
      -1.5930369107200590e-001 -3.9978362387908117e-001
      -1.3805408478544667e-001 -4.6178414197027867e-002
      -4.8003878365676460e+000 -2.5826608052040251e-001
      9.0207387372891149e-002 4.4256332169646646e-002
      -1.9773876608521546e-001 1.3173117599978623e-001
      2.1606359750526213e-001 -1.5735314976704595e-001
      7.2808335675542035e-001 1.5022887914545301e-002
      -4.5614024479147841e-001 -9.4062688138303208e-002
      3.3723465557940674e-001 3.5107177787525179e-001
      2.3000276733684130e-001 -9.9131041678594545e-002
      -1.4882516126368875e-001 -1.2062733752549635e-002
      -1.8603625779233082e-001 -2.3565785502416917e-001
      8.5736063003401072e-002 -6.6510513212065039e-002
      -2.2141060855041028e-001 1.1183450138783055e-001
      1.1346827979228882e-001 1.7481807497209845e-001
      1.4694610850363335e-001 -3.8302532861846955e-002
      -7.3235650501950036e-002 -4.7498429618619380e-002
      -6.0091974353692557e+000 -4.8151881400637964e-001
      4.2238910796501106e-002 2.8585339917174124e-001
      -1.4554188285986938e-001 2.0344519701232616e-001
      8.2280814133400965e-002 -7.9951805445122426e-002
      6.5705503913263152e-001 -1.2737720643460487e-001
      -5.8670206585404050e-001 -1.6512663091583374e-001
      1.0170694108383965e-001 3.0629174636327294e-001
      8.6111444457814462e-002 4.8124716935936881e-002
      -3.0040374390952918e-002 5.9589957839240294e-002
      -3.1649930757909900e-001 -2.9572615214234371e-001
      2.0733601810252847e-001 -7.1472174051997572e-002
      8.8688031185044522e-002 9.5476782638007254e-002
      6.8815321094668189e-002 -6.2218748629140778e-002
      -3.0731988285978801e-003 9.7737178536360381e-002
      -1.0000899211072355e-001 1.8044273779109873e-001
      -2.5645024848752813e+000 -9.9827446650114143e-002
      -1.0045775143068388e-001 2.0280110602766935e-001
      -3.9057019359573608e-001 2.4538295281389658e-001
      1.2765168116295483e-001 -7.0319283227504761e-002
      3.0862164341518650e-001 -1.7043442552478691e-001
      -2.1736182338921634e-001 -1.3830999467233712e-001
      -1.9387915574304870e-001 7.2520059988287700e-002
      -2.3370076308457270e-002 3.5625029165671429e-001
      3.0639014493724352e-002 -1.2440508179084435e-001
      -4.0984495789530101e-001 -2.2566245724404047e-001
      2.3664744011278369e-001 2.8805638728229122e-001
      3.0598325636318514e-002 1.1659203291437444e-001
      2.6661460838711670e-001 -2.0533469943079727e-001
      1.3578452767863333e-001 1.9977814155574039e-001
      -1.1400616069293908e-001 4.6867705997029696e-001
      -1.6763803615980395e+000 -3.5182170183571240e-002
      -1.0796523230531976e-001 1.8851176024938132e-001
      -1.6055052991668170e-001 5.7570154444167368e-002
      2.7738771824668629e-001 8.5516809246442810e-002
      1.5480225195288047e-001 -1.4110354086614080e-001
      -1.3900174572083893e-001 -1.1884962793157890e-001
      -3.4859086782669108e-001 -1.7262400159476058e-002
      -1.9794408678331182e-001 2.8082880684946504e-001
      2.0599179879431145e-001 -1.2572056662619996e-001
      -3.1546969747573833e-001 -2.5558902448437820e-001
      -2.6300186853020980e-002 3.8087683687655433e-001
      1.6019324850608690e-001 1.2022324608323862e-001
      7.4139971102267013e-002 -4.3342708428104360e-001
      2.7963445011022098e-001 3.5881143922759699e-002
      -2.6716897755403962e-001 1.4516797815262758e-001
      -2.6538233594321201e+000 -9.7375655931906682e-002
      2.0737703900146325e-002 8.9012029007187868e-002
      -2.8484926389991970e-002 1.9104702364281040e-001
      1.9629652252509944e-001 3.1359052464065888e-002
      1.6318236633740896e-001 -1.4087704316455774e-001
      9.7326968317835633e-002 -1.7911465445702348e-002
      -1.0153131935446230e-001 -5.4961847346501447e-002
      -1.4848216349395629e-001 3.1015998269351258e-001
      3.9833145368217956e-002 -1.2944737275720594e-001
      -1.9487877533852546e-001 -1.5184806378184021e-001
      -1.3690223113130887e-001 3.3701644159875582e-001
      -2.1822390512967398e-002 1.9391533526326230e-001
      5.4758527102885653e-002 -3.5008905148438341e-001
      5.0218428956964245e-001 -1.8089508795981785e-001
      -4.2442464611602990e-002 -1.4658426767887678e-001
      -3.2916739237550678e+000 5.6607666533580375e-002
      -7.5477592615443026e-002 -4.9258749980127817e-002
      -1.7726491430837465e-001 1.7799951530642633e-001
      2.5680775204488693e-001 -7.4474356910398332e-002
      3.3870616929952690e-002 1.1139518332744369e-001
      1.0368899962769289e-001 -1.1754542758533840e-002
      -8.0535276664492297e-002 -8.0171407109409010e-002
      -2.0733658018617832e-001 3.5742319578321474e-001
      1.8452486515921493e-001 -1.0888666664931468e-001
      -1.8880858147997026e-001 -1.5223544813793605e-001
      -1.5651050075936260e-001 3.0142986852876336e-001
      -6.9962081054850328e-002 2.2092483286485362e-001
      4.2796015428922855e-002 -2.3628253138550329e-001
      5.3142160606224942e-001 -1.5308282805213594e-001
      -1.2612712651817778e-001 -1.9853707881994645e-001
      -4.0472132785786989e+000 2.6567859378670011e-001
      5.1596654529813997e-002 -8.4076585286348385e-002
      -3.8094396682235587e-001 1.6501673351024673e-001
      2.4713487395507175e-001 -2.2209943068765417e-001
      3.6507816174650730e-002 -4.0532728301942905e-002
      1.5012935104804789e-001 7.7060770513121032e-002
      -6.8644855376936140e-002 -2.2124590297025909e-001
      -1.3342239900365074e-001 3.6338625423385551e-001
      3.0298422916311751e-001 -4.3156061161523984e-002
      -1.8437328140623369e-001 -1.9066404942297821e-001
      -2.7714528479819694e-001 2.2525875672334972e-001
      -1.4778283537375803e-001 1.1167470161342150e-001
      8.8195778320845061e-002 -3.2586240535105893e-001
      4.3669171064885642e-001 -1.7171521521300784e-001
      -1.8270141309796697e-001 -1.0288470238004160e-001
      -1.8601082467630530e+000 -5.6511842960564981e-002
      -1.2503589203500232e-001 -6.9231910596173674e-002
      -1.1985488201751941e-001 4.9853238429108736e-002
      2.4102618406549678e-001 -1.2601011466860543e-001
      -7.2201242226955994e-002 -2.2236414172912303e-001
      1.7800338930196807e-001 7.9044620346097882e-002
      -1.1233672399956467e-001 -9.9368605661679529e-002
      -8.2303050496647143e-002 1.4688890632291055e-001
      1.9981030451024673e-002 5.3802005524495503e-002
      -1.1474604141999428e-001 -1.6891018740213370e-001
      -3.7235966717010693e-001 3.8921920826105127e-001
      1.2383940959790608e-001 9.5874917848295674e-002
      1.2299653507879385e-001 -2.5147950389755896e-001
      2.1827798136697382e-001 -1.5745817488447747e-001
      4.0878429403774404e-002 2.6473978611097010e-001
      -2.5389444621134194e-001 3.3678686097020662e-002
      1.3964422022827238e-004 -1.3048662580468615e-001
      -2.5274792018449554e-001 4.2474030538536767e-002
      7.3020043448091002e-002 -1.9429578758616894e-002
      -1.6400132359871866e-001 -3.1008165746778094e-001
      -2.9961879499380806e-001 9.8882757585682476e-002
      -1.1923988753737383e-002 -2.5642120519792966e-001
      -6.3680771322101939e-002 1.6496571747577390e-001
      2.4181453350748552e-001 1.8570826343090895e-002
      -5.4512452473692036e-003 -1.8025502920711525e-001
      -4.5640845613478909e-001 8.4969015851927218e-002
      2.5732875775728258e-002 -7.8170667242716749e-002
      3.0531056005300677e-001 3.8782313760348831e-002
      1.3839659393980469e-001 -2.5271079142346772e-002
      1.2914674182090558e-001 2.2178885568482573e-001
      8.8330773732162016e-001 -3.8997097963229074e-002
      7.7386532431683924e-003 -3.4233579623968990e-001
      -1.9625187581822570e-001 7.2471883310116864e-002
      9.5343932705273301e-003 -1.2206487529193283e-001
      -1.5783058646782219e-001 -8.9655420650617310e-002
      1.3451116977939112e-001 1.5041532084189937e-001
      -4.3267352035091661e-002 -2.4848604610431846e-001
      -8.5091370958121137e-002 4.0867122892225161e-002
      -8.4937213363207489e-002 1.8607722279945718e-001
      1.6482960742318953e-001 -7.6299809462718512e-002
      -2.9655178765326717e-001 5.7364168497773737e-003
      9.9405342539613500e-002 -4.7229300048903422e-001
      2.0767846300143661e-001 -2.6148023599657285e-002
      -2.8633754417227663e-002 1.1672077752400049e-001
      2.4349397178213464e-001 3.0534690182599328e-002
      1.5868362923584820e+000 9.9726761643989647e-003
      1.7200210696965662e-001 -5.8148038846148431e-001
      -1.1355424223929537e-001 -1.0851780348040205e-001
      -1.7182305392088029e-001 -1.3226030442286560e-001
      -1.6902247516015600e-001 3.3215808680314840e-001
      1.7996424415347190e-001 1.1744944546114212e-001
      2.6225057049916850e-001 -1.7950274480491349e-001
      1.6818498886881053e-001 -7.8838849116010454e-002
      -9.9789412604152916e-002 3.4035756181258303e-001
      4.8954072637439477e-001 1.8816591174825062e-001
      -5.4831965788529204e-002 -3.8947323753510921e-001
      2.3085421290327957e-001 -3.1286583219112385e-001
      1.4271241298169071e-001 5.6776865145011748e-002
      -5.2937946250620170e-002 2.1637608081942872e-001
      3.1485347982693734e-001 -2.0858226559524828e-001
      2.4832377132390873e+000 1.5875918031870564e-002
      3.3587148370129655e-001 -4.9757422266242823e-001
      -1.9123855771400142e-001 1.1272032616795406e-001
      -1.6319365417702525e-001 -1.8183159062338278e-001
      2.2282933848681179e-002 9.3958989626700587e-002
      -2.4156069033179114e-001 -8.3057693157722254e-002
      5.9062763620349186e-002 6.7840160992612947e-002
      -8.7859012406691903e-002 -1.1358141908559412e-001
      1.4058380984693464e-001 4.2313921107108954e-001
      3.5846540977589186e-001 3.9741305510817788e-002
      -4.0364628089481540e-002 -1.5048781363543126e-001
      -8.6754563598507486e-002 -4.5157476011732078e-001
      2.4928667078476047e-001 1.3852667319704348e-001
      7.9842920860389244e-002 -1.1831433856804748e-001
      1.6663694006437815e-001 -2.0395442057005997e-001
      1.2596768135645906e+000 7.9483932449293179e-002
      -1.8005768805463526e-001 -6.7871063904965279e-002
      1.2565731761693382e-002 3.5354164340430380e-003
      1.5523561176186801e-001 -2.1149057474997038e-001
      3.2885282819831851e-001 5.3252915914505865e-002
      1.6623384890454179e-001 3.6439182121849450e-001
      3.3882156817425585e-001 -3.5905655182669360e-001
      -3.7218596414479371e-001 -2.6498503077551912e-003
      -1.2775396795989141e-001 9.0520141125650464e-003
      -2.0096672725516265e-002 -4.2010043094831397e-002
      -3.1449746598550654e-001 1.0665364646897803e-001
      2.7712756159321915e-002 1.9661715180241877e-002
      -6.6191178960547936e-002 -3.1898964915660011e-001
      -8.6179243528128422e-003 2.7456931970459619e-001
      -1.3553806478488598e-001 3.5849252522643776e-001
      1.1609410086555505e+000 1.6538627223909322e-001
      3.1808304380538395e-002 -3.3375189070196730e-002
      -7.8351730699147797e-003 -1.0553927552744434e-001
      5.9124436037549154e-002 -4.9576027632586267e-001
      8.5060183841538295e-001 -1.8890568823144530e-001
      1.9589933267486384e-001 1.8918931145101200e-001
      6.6288342979461268e-001 -4.6574068993109824e-001
      -4.6512156030323398e-001 9.9516228554283586e-003
      -1.6556268772023552e-001 2.6822726508979825e-002
      -1.1557649663642354e-001 -9.8855758201854257e-002
      -1.6200196956287627e-001 6.2485769677242033e-003
      2.0606750902550006e-001 1.0041796609562188e-001
      -1.2960263251851373e-001 -6.9169609029579926e-001
      1.0655546965835438e-001 2.1254156651158790e-001
      -2.4680275374318481e-001 6.9093890918379131e-001
      3.1150758511261944e-003 1.6332923403804719e-001
      -2.1412131978224805e-001 9.3213535957234528e-002
      -3.6124780308337589e-003 -3.3068315710176766e-002
      9.2689265080102723e-002 -4.5587831070427964e-001
      4.6326682303649652e-001 -3.1672737731598871e-001
      1.5629477486597854e-001 7.7873037618874028e-002
      3.2169908223344756e-001 -2.3292826044663750e-001
      -2.0569675359060247e-001 2.1617869530870867e-001
      -9.5533129184426649e-002 4.9720860798552216e-002
      -9.4706808350487656e-002 -3.9934574498680833e-002
      4.1701929622311423e-002 2.7247811998804894e-001
      -3.1397895966182497e-002 2.2728610707057809e-001
      -2.3207855570592756e-001 -3.4930190536401090e-001
      2.0115004998409713e-001 6.5688526781315565e-002
      -7.7864696715245572e-003 4.6360663303256794e-001
      -1.2460209476375568e+000 3.2214616063721763e-001
      -8.1942778263422070e-002 1.6456580442088264e-001
      -2.1982994981478803e-002 -6.2334261048697118e-002
      1.5297680424294630e-001 -3.8186688963605492e-001
      3.7382496343723905e-002 -3.7609287561595339e-001
      3.1274792583765748e-001 1.2265179500357881e-001
      1.8475175528720256e-001 -6.4413964329439327e-002
      -5.0492407913661018e-002 6.5577002709472754e-002
      -2.2762398008884777e-001 -3.2256814451706084e-002
      -6.9495449750155910e-003 -7.0624631695489909e-002
      -5.4751445821219153e-003 2.0783364446889482e-001
      -2.9364005583122070e-002 3.0713036026854651e-001
      -1.9644430794924486e-001 -3.4289807969806851e-001
      1.4260796089880584e-001 -1.3504314850968502e-001
      1.6118743558894394e-001 3.0377564581402372e-001
      -1.7853259490598024e+000 5.2749133414042626e-001
      8.6282077382242986e-002 4.6032550341934292e-001
      -9.8750712702228238e-002 -3.1450119657355591e-001
      2.1199741610454606e-001 -5.7698904307902565e-001
      -3.7344145439081093e-002 -1.9203475747164242e-001
      6.1060099182793859e-001 7.8605059957585238e-002
      6.2835343122046194e-002 6.2817789834751087e-002
      5.5339795547348519e-006 -5.0113265692849567e-002
      -5.9974467839558022e-003 -1.1427112695869641e-001
      -6.5241071496315015e-002 -1.5267497098799721e-001
      -1.5649343431050208e-001 3.1655364997765217e-001
      2.1613843780500816e-001 4.1400997400971851e-001
      -2.0010319275780511e-001 -3.9464563114273377e-001
      1.5585276946503296e-001 -3.3126057278034143e-001
      2.3688867216885209e-001 4.4957103289139111e-001
      -2.6702793614581006e+000 4.0142607917434431e-001
      -8.4991926583988978e-002 3.9302111922022687e-001
      -2.0178192209581364e-001 -1.3174896621968959e-001
      6.7975317208861796e-002 -4.8400134098404068e-001
      -2.8733124061195253e-001 -3.4942160543595091e-001
      3.7138902681840807e-001 3.0167265783792054e-002
      3.7341208137531567e-001 2.0789709271975251e-001
      7.8764206594277353e-002 -4.0592367488372985e-002
      6.5888200587735035e-002 -1.6885543219120283e-001
      1.2105185654760985e-001 -1.2114939487753998e-001
      -1.0133035161872686e-001 5.6219814876172736e-001
      -8.4416447772103526e-002 4.5291019549047623e-001
      1.0340854706488602e-001 -2.4169662168602946e-001
      6.5673707069969417e-002 -4.5729960063711583e-001
      -5.8474040864810117e-002 4.2254413435008698e-001
      -3.3012339145322813e+000 8.8019186865849225e-002
      1.6118503138533569e-001 3.2868822661851377e-001
      -1.3807138574767250e-001 -6.4463426495369194e-002
      -7.5732723570106852e-002 -2.9739222901187262e-001
      -1.7027386389822730e-001 -1.0553750556708177e-001
      2.5238974156847543e-001 2.3687190959554313e-001
      3.9923334340708738e-001 2.0506935971457319e-001
      9.3106536960181105e-002 -1.0069805571951383e-001
      -3.7219621386814276e-002 -3.3291729426990341e-001
      7.5405004212200380e-002 -4.8934944539494082e-002
      -1.2069648384169043e-001 5.4773123615163621e-001
      -3.0130711596068022e-001 4.1027176300813090e-001
      1.3009434899110792e-001 -2.1840664546163796e-001
      1.1087558493844860e-001 -4.2455463363895440e-001
      -1.7562913292873061e-001 3.2805734941582593e-001
      -4.7625642718299703e+000 2.2331881984603216e-001
      4.1438005372663411e-001 1.0882696424534724e-001
      -3.2140302252683495e-001 5.1529148788577603e-002
      -9.8261103277540104e-002 -1.7536381524461950e-001
      1.3637587217944896e-001 6.8192452861508421e-002
      7.7141498869891467e-002 9.7265293888802618e-002
      3.6368742651634345e-001 1.3783111048580204e-001
      6.7754089529792269e-002 -3.3867049950027761e-002
      -3.6051720541118348e-001 -3.4604576396463949e-001
      1.2787759313509092e-001 1.5172534164211219e-003
      1.9423332765477694e-001 3.1293793439191586e-001
      -4.7521054717504119e-001 3.9452696350088701e-001
      1.7814439560148809e-001 -1.2526954696600073e-001
      4.0573206516748402e-002 -5.7995574608316502e-001
      -1.1134347424594680e-002 2.1292996145465101e-001
      -7.3835098330106819e+000 -9.0614073397877984e-002
      5.5588541011444903e-001 -6.6848586775415234e-002
      -4.3106342441354922e-001 2.2102719171259409e-003
      1.1617617133444509e-001 -2.2703072369196772e-001
      5.8875511529284297e-001 1.4962121410156626e-001
      -2.6520897159828444e-002 3.9212663611558490e-001
      4.0087126665982054e-001 1.4006437540852226e-001
      1.8098016378192944e-002 1.5468912564246015e-001
      -1.0827033018070552e-001 -2.3113843197296308e-001
      1.7684672165636348e-001 -1.3452064787809667e-001
      -2.8149102583909480e-001 1.5791157258460370e-001
      -2.7493159229628983e-001 2.3395046965080257e-001
      -1.7442957786747837e-001 5.1647766992411463e-002
      -2.2227833379081994e-002 -3.7388485747969763e-001
      -7.3852211258657152e-002 1.4366399125678517e-001
      -5.6069344722915790e+000 -4.6435509946379927e-001
      2.3857968568456175e-001 1.5477281353590128e-001
      -5.6253815140819652e-001 4.4882722746680599e-002
      1.4066035955123374e-001 -1.3282471447821542e-001
      4.8400716096935992e-001 2.0937996281939344e-001
      -3.6595243064551608e-001 2.8793113633201439e-001
      3.7877960795519583e-001 2.0482384540023300e-002
      -3.7672822066609640e-001 4.2540406595167646e-001
      2.0621950247755810e-001 -6.7815292871652638e-002
      -1.7967355714028374e-001 -3.0380749103737503e-001
      1.0363720060759347e-001 -1.8003686268757792e-002
      -1.0497555373184708e-001 9.6498212004050260e-002
      -2.1207544061955949e-001 -7.5771666445433830e-002
      2.6683029120676666e-003 -5.4958157614032929e-002
      7.9235622459840296e-002 1.3266342079132776e-001
      -3.4808045091063178e-001 -3.4169714238508719e-001
      -2.3525232085978291e-002 3.2013692483425066e-001
      -6.1900181165849755e-001 8.4568825180058316e-002
      1.0979900034937276e-001 -3.1713950250799028e-001
      2.5334000290990105e-001 2.1174888707593767e-001
      -2.2719894637504945e-001 1.3675227906647500e-001
      1.6619133366249503e-001 -1.9208093598620976e-001
      -2.4386550081128408e-001 5.5072960590081321e-001
      3.4134626086697673e-001 -3.9873937519674434e-002
      -2.9204826143116724e-001 -3.0972426791911051e-001
      -1.5388851375678314e-001 2.3944462638571884e-001
      -1.9525714835609329e-001 1.9804674136417920e-002
      6.9822849622997400e-003 1.7476055847590138e-002
      2.2124676508269098e-001 -4.4239227092770936e-002
      5.5066918243217682e-002 2.2992470506864951e-001
      -9.1239554849574175e-002 1.4298470265762647e-002
      -2.0122933997288106e-001 1.8136568837145456e-001
      -6.2841412104506916e-002 -4.0709740594606060e-002
      9.5677445793333246e-002 1.0683392915049564e-002
      1.9068472601581693e-001 1.6471059125321135e-002
      -1.6674068739402209e-001 1.1519091186684786e-001
      3.7807003292636937e-001 1.3658153499638362e-001
      -1.0562661423688420e-001 2.3756635973689394e-001
      -5.8240954669172590e-002 1.4200750179791119e-001
      -2.8921471269231896e-001 -7.4454568308235672e-002
      7.7740639586811641e-002 -8.7763783976393187e-003
      -9.4225454984087548e-002 2.5062405249466074e-001
      -1.0805226478015287e-001 1.4654439194538307e-001
      3.2038874859889560e-001 -2.2747358505675627e-001
      7.3741711992050915e-002 -2.3462071227228645e-001
      -1.0160598077674714e+000 1.6026322471913379e-001
      -3.4764618952255316e-001 9.1058021188339059e-003
      -1.1149182843916214e-001 -9.6738089934966950e-002
      -1.4774316172804203e-001 -2.1550983754904490e-001
      -7.8046386803670098e-002 -2.8643798291027079e-002
      1.3423632359015311e-001 -7.3273758594668684e-002
      5.6353604727829942e-001 8.6453337823317780e-002
      4.2142539765490164e-002 1.5004624663927665e-001
      6.9980031238895263e-002 1.1692494747717870e-001
      -2.0865736337724861e-001 1.0363476339867397e-001
      -6.9927088291948922e-002 1.7429215837313289e-001
      8.6528169403396069e-002 1.6291292875218269e-001
      -6.7549578282417339e-002 1.1300959408501544e-001
      2.0082575142002887e-001 -2.8115860068334264e-001
      1.4371472385251574e-001 -2.5917253043233990e-001
      -6.6892624696583025e-001 2.7810183713701653e-001
      -4.3967547492970910e-001 5.0175897656779010e-002
      -4.4388456786508845e-001 9.6039315485774171e-002
      8.8490468517689852e-002 -5.8779031027241579e-001
      2.9847085166258006e-002 -9.7647674082353406e-002
      3.5377836103515758e-001 -1.0744831073475920e-001
      3.5466047965918457e-001 -1.5449856020815880e-001
      -3.3781178259556516e-001 1.5146186067151557e-001
      4.8267042089977591e-001 1.0650594595054418e-001
      -2.2608877373611261e-001 1.0151232578244816e-001
      -4.4419597799335925e-001 2.9763338926915250e-001
      -1.4664466546787355e-001 4.6350600775562273e-002
      -1.4052289884927538e-001 -2.7192310588377400e-001
      6.8428473907270436e-003 2.6975424041671421e-002
      2.5676382348641885e-001 9.7822047696672909e-002
      -8.6678710767900435e-001 1.5433296854855769e-001
      -1.5627220311110757e-001 2.0274746819076903e-001
      -3.9204822851272475e-001 1.5932354401768495e-001
      1.8631625453681169e-001 -6.2404115670669968e-001
      -7.7128841820740174e-002 -4.4170705595431220e-001
      3.2563871453640919e-001 1.5114925791945769e-001
      1.0322800793568647e-001 -2.7188357966312227e-001
      -3.5905261601297439e-001 9.4944951345481240e-002
      5.2708188411231127e-001 -9.6122956823222194e-002
      -3.6764821390510966e-001 1.7860528210123572e-002
      -1.7941325935912189e-001 5.0174792776899291e-001
      -2.3151007768562304e-001 2.1132990321398989e-001
      -1.4589553836927427e-002 -4.2556785636085454e-001
      2.1005760614402885e-001 4.8511926936394292e-002
      -1.3380144230580726e-001 5.1416225773994428e-001
      -2.2980034871846797e+000 1.8194793534723913e-001
      7.6224329309077854e-002 2.2102841658593492e-001
      -2.5337823924280700e-001 3.1711256754082812e-001
      1.7518586384866874e-001 -6.9461981133563155e-001
      1.0479496056792301e-002 -7.3922133274015289e-001
      4.8280622435390080e-001 1.9152340292372144e-001
      -1.5354925392764979e-001 -3.8672654405728819e-002
      -2.4688761883886173e-001 3.4804340306915815e-002
      3.8758266151304166e-001 -1.9973064051709472e-001
      -2.6209719089517425e-001 -7.4095138835247640e-002
      -1.5153729363724328e-001 7.0184509113521054e-001
      -3.2579117061900503e-001 1.8112153959925242e-001
      1.3501427529264240e-001 -3.4389890913735005e-001
      1.4995612215394147e-001 -6.2000774952148702e-002
      -3.8080824449334294e-001 5.6716843955003526e-001
      -1.2796195635968388e+000 -1.0537447176854011e-002
      2.2290931198586725e-001 1.5382293792166774e-001
      -2.8015908240596210e-001 1.1241377424444125e-001
      1.8921367709859130e-001 -5.2117956673427202e-001
      5.0677723245097374e-002 -3.8498510424457366e-001
      3.4583336397323416e-001 2.1147272283891252e-001
      -3.1043668577591388e-001 -1.3622802437279838e-001
      -1.9391521437793724e-001 1.7418723353588149e-002
      2.4780953578592910e-001 -1.4435079514564050e-001
      -5.1830249437894368e-002 -1.6328692615855994e-001
      -1.0478942389177480e-001 3.8968433634399863e-001
      -2.0560297137690065e-001 2.0982063813332266e-001
      1.7891470478580591e-003 -6.3657676597058108e-002
      1.1304130815627589e-001 3.2257612064722788e-002
      -6.7397357895986290e-002 5.4746026106194268e-001
      -7.0161525803365557e-002 -7.5245780814123114e-002
      1.5897541612625332e-001 -4.2898591865159147e-001
      -4.9412009643632029e-002 9.0820216535647355e-002
      -5.0325047388795945e-002 -1.0933822365485690e-001
      -2.4762986668450837e-001 -2.0208599710764294e-001
      1.6226083729791030e-001 8.7785608359269546e-002
      3.0196203360465728e-002 -1.3186966477128012e-001
      -9.6556932001009248e-005 -5.4881461663386352e-002
      -2.0719960779774513e-001 -6.8248324584755287e-003
      2.1698272883179370e-001 1.1955751408712439e-001
      1.6823728724721887e-001 -5.1414236044664378e-002
      -1.1464928007988603e-001 -1.0491365245543167e-001
      2.0111624715454096e-001 6.7804620140203220e-002
      1.5801816413153547e-001 1.8390868413634822e-002
      2.7173185533620903e-001 1.8832190764743884e-001
      2.1845533463047202e+000 -5.9126983640740260e-002
      3.8569869678118718e-001 -5.1216383928559461e-001
      -2.2354868117741664e-001 1.1755610167699702e-001
      -9.1000512084303421e-003 -3.5021114904101475e-001
      -2.3326120428435868e-001 -2.1129108127664595e-001
      5.7147149203493930e-001 8.5021621275138723e-002
      6.0973561809354704e-001 -4.5778352013896469e-002
      1.2048531848894362e-001 -9.6316131412111705e-002
      -2.3816919491311206e-001 1.3281313912680304e-001
      4.1892324420250848e-001 2.3780962311755771e-001
      1.5732538113252559e-001 -5.6494298447076506e-002
      -1.2984446319395382e-001 -2.2837420145638918e-001
      2.6971114744788094e-001 -9.8732738994923609e-003
      4.9455636909444357e-002 1.8671745283031127e-001
      1.5384168391386652e-001 6.3634229101735010e-002
      3.0479038002005781e+000 3.5336154527502509e-002
      2.5712365574767332e-001 -5.2374810970021946e-001
      1.9754635719270988e-001 3.4190798558537328e-001
      -7.7269945381232247e-002 -2.6155485763000569e-001
      -2.7095172537043760e-001 -1.5941755870135016e-001
      1.1732170881753519e-001 -8.4768814938304710e-002
      3.1097182603636825e-001 -1.3926758677734564e-002
      1.8293032090610473e-001 -1.0542289812729221e-001
      -2.0821291004920969e-001 6.6090116223889550e-002
      3.5578884555782431e-001 3.2625501773523458e-001
      3.6118740283501420e-002 3.0460812673372865e-002
      2.1260660759177606e-003 -2.4902607099632884e-001
      1.6901605212305820e-001 4.3826781530080898e-002
      -5.0418928871076650e-002 1.3185701276180442e-001
      2.0980019486618734e-001 -1.1327628802098041e-001
      1.2486609159381463e+000 1.7376037501581107e-002
      2.4502195816383143e-001 -2.1514478554438979e-001
      -1.6627641856522438e-001 -1.7294828067984305e-001
      1.8985369355564344e-001 -1.0764897099333526e-001
      6.0928784469637176e-001 1.3457589391479860e-002
      2.8221465945795449e-001 3.8706810052721180e-001
      1.5116161417725033e-001 -4.9318214658570880e-001
      -4.7386762000308469e-001 1.4625056994383856e-001
      -2.4179733864289088e-001 -2.2721716803013523e-002
      1.5486019267961224e-001 -1.4909587040655112e-001
      -3.9022807252417868e-001 2.0298941505363835e-002
      1.3637409510778908e-001 -1.2271673038972276e-001
      -1.3964580849279890e-001 -2.8740951013817861e-001
      2.9762483089751463e-002 4.3730715457544478e-001
      -3.0061316040631508e-001 3.8034453715726679e-001
      1.3395039333660581e+000 1.1551309788328178e-001
      1.2790897154091943e-002 -3.7568095181159618e-002
      -1.3010221976383690e-001 -9.5666732025397480e-002
      5.5945946382632214e-002 -2.5953689767804189e-001
      8.1192172528681306e-001 -8.2714548546935357e-002
      2.3025036891560904e-001 2.0692318495446738e-001
      5.0558165321977766e-001 -3.9888877082468466e-001
      -3.3564319765585454e-001 -2.7363077302751627e-003
      -1.9227013804083715e-001 4.4550680056617130e-002
      -1.4950179456970641e-001 -1.0059688548188822e-001
      -2.5684863280843551e-001 -6.3505670445918788e-002
      1.8497693524491593e-001 1.1709860935074454e-001
      -9.4855353325032019e-002 -6.2713493995589442e-001
      1.4377477550276052e-001 2.4199491275388829e-001
      -4.9515702635062483e-002 6.2801812981165450e-001
      -1.3038955378818562e-001 -1.9819370465336247e-001
      -1.5105008652042826e-001 3.7201866192310799e-002
      -3.1725478790257958e-002 -1.8752881461874319e-002
      2.0124992933589295e-001 -6.5886897377844728e-002
      4.8402433685199719e-001 -1.7903519555099576e-001
      1.7588490572826179e-001 -2.7866103670215567e-002
      3.5457877077246508e-001 -1.2376114968109719e-001
      -2.6436766835240544e-001 1.6184087697834815e-001
      -2.3807947664771340e-001 6.0760527893482519e-002
      -6.2134194173755111e-002 -4.2847582322402704e-002
      -8.8657664100135869e-002 3.7707992114305740e-003
      2.4663116694806264e-001 3.4143023261675826e-001
      -2.4768449701177850e-001 -3.5056851887848334e-001
      1.2347030220082565e-001 6.5022796052315715e-002
      8.9165971524387835e-002 5.1922074180616562e-001
      -1.5181557773063841e+000 7.5902166579032440e-002
      1.2241160031420771e-001 1.4713631104709100e-002
      -3.4023054353239303e-002 -8.7488326996162935e-004
      1.9211141220230332e-001 -6.0463765734948487e-002
      1.1624183511844667e-001 -1.1706705857427928e-001
      -4.4297008862543917e-002 2.9394380481858134e-001
      -9.5536804349412849e-002 -1.3989804867379724e-001
      -7.7845110709651680e-002 1.5198474522019956e-001
      -8.2848470854243489e-002 -2.4453442869439035e-001
      2.9308845224584164e-002 -2.1457307912931908e-001
      -1.2605847160333150e-001 1.4479387104534547e-001
      2.0235276386756285e-001 2.3277749804674572e-001
      2.9055681512352681e-002 -4.0792269750708054e-001
      2.6641977741317757e-001 -1.3070946944275463e-001
      5.3633556086232478e-002 3.4846836743676329e-001
      -3.0800674611740475e+000 2.6799373698039369e-001
      1.7235699008333397e-001 3.5140433602113463e-001
